-1.674891449511051178e-02
-3.078030422329902649e-02
1.947154290974140167e-02
7.089624647051095963e-03
-2.805723808705806732e-03
-1.343920826911926270e-02
-5.346696358174085617e-03
-3.046964702662080526e-04
-1.112155150622129440e-02
-1.697580143809318542e-02
8.377407211810350418e-04
-2.569656353443861008e-03
-2.310048090294003487e-03
-5.161129403859376907e-03
-1.398023404181003571e-02
-1.517899334430694580e-03
9.304362349212169647e-03
-9.367873892188072205e-03
-2.247553691267967224e-02
-6.457884330302476883e-03
-4.592902492731809616e-03
2.103651687502861023e-02
8.792436681687831879e-03
7.486642338335514069e-03
6.023386027663946152e-03
-3.022269112989306450e-03
1.256011053919792175e-02
-6.351609714329242706e-03
-1.011316198855638504e-02
-1.067371945828199387e-02
1.387963723391294479e-02
1.447100657969713211e-02
-4.385004285722970963e-03
-8.417920209467411041e-03
-7.655002176761627197e-03
4.951929301023483276e-02
-9.349253959953784943e-03
-6.542644929140806198e-03
-7.551048416644334793e-03
-1.173624210059642792e-02
-7.513872813433408737e-03
0.000000000000000000e+00
-4.308918956667184830e-03
-2.582597313448786736e-03
3.938454017043113708e-02
-1.349901035428047180e-02
-8.974126540124416351e-03
-6.793057080358266830e-03
1.516943890601396561e-02
9.328759275376796722e-03
-6.005281116813421249e-03
-2.105766441673040390e-03
-6.717745214700698853e-03
4.786391742527484894e-03
-7.668635807931423187e-03
-6.089591886848211288e-03
4.188213497400283813e-02
4.254967905580997467e-03
-6.288852542638778687e-03
2.120401477441191673e-03
-7.023667450994253159e-03
6.491219159215688705e-03
-6.684301421046257019e-03
3.299632342532277107e-03
-8.306039497256278992e-03
-2.576329978182911873e-03
1.641437783837318420e-02
1.606867089867591858e-02
-6.492757704108953476e-03
3.906799014657735825e-03
4.255332518368959427e-03
5.529704969376325607e-03
3.772107884287834167e-02
-4.584861017065122724e-05
2.510860934853553772e-02
-1.219306234270334244e-02
-5.558693315833806992e-03
-1.769621670246124268e-02
7.361272349953651428e-03
-1.679775491356849670e-02
-5.751334596425294876e-03
6.476860027760267258e-03
1.751434989273548126e-02
-8.517634123563766479e-03
-1.211475953459739685e-02
3.831017017364501953e-02
-8.534317836165428162e-03
-5.078452173620462418e-03
-1.704804226756095886e-02
-8.042837493121623993e-03
3.032222390174865723e-03
-3.542627394199371338e-02
2.834968268871307373e-02
6.196611560881137848e-03
2.594983205199241638e-02
-6.576785817742347717e-03
1.216263510286808014e-02
-2.699953038245439529e-03
-2.223817864432930946e-03
-1.341130118817090988e-03
-6.004950962960720062e-03
-1.022861246019601822e-02
3.499718382954597473e-02
1.360072661191225052e-02
-6.003472954034805298e-03
-1.048120670020580292e-02
-9.813809767365455627e-03
0.000000000000000000e+00
4.913826938718557358e-03
-6.780524738132953644e-03
-2.298151515424251556e-02
2.419931255280971527e-02
2.197628468275070190e-02
-6.972607225179672241e-03
2.068407461047172546e-02
-7.745579816401004791e-03
-7.070887833833694458e-03
-4.413709975779056549e-03
-1.090498641133308411e-02
-7.815012708306312561e-03
-8.799100294709205627e-03
-5.115796346217393875e-03
-9.323881007730960846e-03
-8.002591319382190704e-03
1.945192553102970123e-02
-5.305645056068897247e-03
-6.004495080560445786e-03
5.042713135480880737e-03
-2.861165674403309822e-03
1.225047372281551361e-02
-8.057301864027976990e-03
-7.734353188425302505e-03
-2.425506943836808205e-03
1.302279438823461533e-02
-1.083931140601634979e-02
6.570810452103614807e-03
-7.292938418686389923e-03
-1.650927402079105377e-02
-8.953309617936611176e-03
2.771866507828235626e-02
-1.167447306215763092e-02
-9.864983148872852325e-03
-1.980443112552165985e-02
-5.452916026115417480e-03
-4.443561658263206482e-03
1.506241096649318933e-04
4.899687692523002625e-02
-9.959759190678596497e-03
-6.221566814929246902e-03
-8.596192114055156708e-03
3.643293678760528564e-02
-9.288071654736995697e-03
-6.005963776260614395e-03
-1.454207953065633774e-02
-2.323535457253456116e-02
-1.051795203238725662e-02
8.867663564160466194e-04
1.729594543576240540e-02
1.987623609602451324e-02
-6.005091127008199692e-03
-6.004530470818281174e-03
8.335634483955800533e-04
-5.268679000437259674e-03
8.535625413060188293e-03
-1.038940344005823135e-02
1.513351220637559891e-02
4.800681490451097488e-03
6.085252971388399601e-04
-2.905391156673431396e-02
-4.698237869888544083e-03
-2.020490914583206177e-02
-1.122336462140083313e-02
-1.220608502626419067e-02
6.287292344495654106e-04
1.604144694283604622e-03
1.433033123612403870e-02
-6.004369352012872696e-03
-2.645675092935562134e-02
-4.312885925173759460e-03
-1.103315036743879318e-02
1.879720832221210003e-03
-7.156536448746919632e-03
1.686573727056384087e-03
-2.204951457679271698e-02
-1.147001981735229492e-02
1.979701220989227295e-03
1.104019023478031158e-02
2.705327235162258148e-03
-6.254994776099920273e-03
-1.036970503628253937e-02
-5.172327626496553421e-03
-9.545205160975456238e-03
-7.254920899868011475e-03
1.032939646393060684e-02
-2.130888868123292923e-03
-1.053009065799415112e-03
-5.315641406923532486e-03
-3.958608023822307587e-03
-5.151329096406698227e-03
-5.154925398528575897e-03
-8.479893207550048828e-03
-6.005296483635902405e-03
-1.123160403221845627e-02
-4.709358327090740204e-03
-3.488188376650214195e-03
-6.823842879384756088e-03
-1.229781075380742550e-03
-8.522071875631809235e-03
-2.858048072084784508e-03
2.136846631765365601e-02
-2.238343004137277603e-03
-4.586044233292341232e-03
-5.115852225571870804e-03
1.706477627158164978e-02
-8.270119316875934601e-03
9.503073059022426605e-03
-1.256209425628185272e-02
1.991774188354611397e-03
-1.717705838382244110e-02
-8.970947004854679108e-03
1.925364695489406586e-02
0.000000000000000000e+00
2.755978144705295563e-02
-1.189722307026386261e-02
-8.212890475988388062e-03
-1.195380371063947678e-02
1.578911021351814270e-02
6.427042186260223389e-03
-9.311312809586524963e-03
-9.455349296331405640e-03
-8.412602357566356659e-03
-1.479050889611244202e-02
-5.547431763261556625e-03
6.515373475849628448e-03
1.136392634361982346e-02
-5.601877812296152115e-03
-8.362497203052043915e-03
1.073874998837709427e-02
-1.170327886939048767e-02
-7.558710873126983643e-03
-8.170006796717643738e-03
-2.122120186686515808e-02
1.736547984182834625e-02
-7.051039952784776688e-03
-9.232548065483570099e-03
1.192492432892322540e-02
1.860546506941318512e-02
-7.406221237033605576e-03
-2.751556783914566040e-02
-4.002399742603302002e-03
7.231335621327161789e-03
-1.706506125628948212e-02
-1.852537877857685089e-02
4.305158928036689758e-02
-6.829597055912017822e-03
-6.005255505442619324e-03
