1.635989733040332794e-02 -9.300565347075462341e-03 -2.003186009824275970e-02 9.765570983290672302e-03 1.599730364978313446e-02 1.939318515360355377e-02 -1.121447607874870300e-02 2.485992014408111572e-02 1.118362415581941605e-02 1.499062962830066681e-02
-2.050831541419029236e-02 -8.026740513741970062e-03 -1.799393445253372192e-02 2.033349126577377319e-02 1.634638756513595581e-03 -3.779856488108634949e-03 -1.744703575968742371e-02 -5.243705585598945618e-03 7.432673126459121704e-03 1.523508131504058838e-02
-1.342363539151847363e-03 -1.674168929457664490e-02 6.366054993122816086e-03 1.287843286991119385e-02 -1.542918756604194641e-02 5.139384418725967407e-03 1.875401288270950317e-02 4.825214389711618423e-03 1.822379231452941895e-02 7.725049508735537529e-04
3.592005232349038124e-03 -3.320913761854171753e-02 -2.884940616786479950e-02 1.183619536459445953e-02 1.420575135853141546e-04 -1.272525545209646225e-02 -1.961551792919635773e-02 3.287858515977859497e-02 1.545946113765239716e-02 -2.689949760679155588e-04
-2.318867109715938568e-02 4.024717956781387329e-03 -1.842964068055152893e-02 -1.191714312881231308e-02 -1.275459770113229752e-02 -1.331507135182619095e-02 1.398114487528800964e-02 -3.209826827514916658e-04 -1.622054167091846466e-02 8.870669640600681305e-03
-3.187235677614808083e-03 -1.119084935635328293e-02 -9.897205978631973267e-03 -6.298179738223552704e-03 -1.146193686872720718e-02 -1.038168906234204769e-03 -3.029470704495906830e-02 -3.246609587222337723e-03 2.169002778828144073e-02 4.442669916898012161e-03
1.632082625292241573e-03 -9.063885547220706940e-03 7.824205793440341949e-03 1.573497988283634186e-02 1.658105291426181793e-02 -1.932071638293564320e-03 -1.821182481944561005e-02 3.020286746323108673e-02 -5.488472059369087219e-03 -1.825392618775367737e-02
-2.610649354755878448e-02 1.034841034561395645e-02 7.582432124763727188e-03 -1.262582652270793915e-02 2.953056059777736664e-02 -6.358914833981543779e-05 -2.581509202718734741e-02 1.027095690369606018e-02 -1.101963035762310028e-02 -4.883793648332357407e-03
-1.599217206239700317e-02 1.065716706216335297e-02 -3.760462393984198570e-03 5.623371107503771782e-04 1.372177898883819580e-02 1.139815803617238998e-02 1.214477140456438065e-02 -1.358518260531127453e-03 -7.722560781985521317e-03 -1.174089405685663223e-02
-1.519485842436552048e-02 -2.222504653036594391e-02 -1.028093695640563965e-02 -2.165037207305431366e-02 -1.922661624848842621e-02 2.115801721811294556e-02 -1.171189732849597931e-02 1.186017785221338272e-02 3.806581953540444374e-03 1.948924362659454346e-02
-4.851513076573610306e-03 1.972132921218872070e-02 -2.972297370433807373e-02 -4.813609644770622253e-03 -1.265762140974402428e-03 -3.047921927645802498e-03 -1.800077222287654877e-02 2.799445763230323792e-03 3.531645983457565308e-03 -7.662634830921888351e-03
6.421482539735734463e-04 -1.961690746247768402e-02 6.074414588510990143e-03 2.220846526324748993e-02 1.740580797195434570e-02 2.446863334625959396e-03 -1.724318787455558777e-02 1.552044600248336792e-02 1.411555858794599771e-04 -6.504317279905080795e-03
-1.397063210606575012e-02 7.945951074361801147e-04 -1.111325621604919434e-02 2.728113904595375061e-02 7.790761068463325500e-03 -2.524154819548130035e-02 2.533166203647851944e-03 -6.177298258990049362e-03 -8.842358365654945374e-03 4.432259127497673035e-03
-1.989975199103355408e-02 -1.698558777570724487e-02 -1.217798423022031784e-02 -3.103040158748626709e-03 1.099112723022699356e-02 -2.136499807238578796e-02 -2.102203853428363800e-02 -4.197607748210430145e-03 1.073666196316480637e-02 -6.656000390648841858e-03
-4.669829737395048141e-03 1.297903433442115784e-02 2.434819471091032028e-03 -1.931587606668472290e-02 -5.579947610385715961e-04 1.002064347267150879e-02 -8.945998735725879669e-03 2.748549915850162506e-02 1.522760838270187378e-02 7.622029632329940796e-03
-1.009750086814165115e-02 -2.041404135525226593e-02 -1.212711539119482040e-02 -8.599134162068367004e-03 1.129443570971488953e-02 4.713239148259162903e-03 -7.736512459814548492e-03 1.946080103516578674e-02 8.740890771150588989e-04 4.812886938452720642e-03
3.118144581094384193e-03 -5.798677913844585419e-03 2.306908369064331055e-03 1.703854836523532867e-02 -1.657916419208049774e-02 -1.705325767397880554e-02 -1.757350936532020569e-02 -8.462405763566493988e-03 8.731408976018428802e-03 7.697899825870990753e-03
9.940138086676597595e-03 -1.496108900755643845e-02 -1.350822951644659042e-02 -1.403092499822378159e-02 1.653661206364631653e-02 -3.714193589985370636e-03 -2.513932529836893082e-03 2.277658693492412567e-02 -1.295623555779457092e-02 -1.880999654531478882e-03
-1.674853451550006866e-02 1.388989295810461044e-02 1.582575496286153793e-03 2.793111489154398441e-04 -2.281951531767845154e-02 -2.087265439331531525e-02 -1.185010373592376709e-02 -8.349860087037086487e-03 9.686129167675971985e-03 -1.087936200201511383e-02
1.672944799065589905e-02 -2.812029793858528137e-03 5.341044161468744278e-03 1.617784425616264343e-02 1.233808696269989014e-02 1.395050808787345886e-02 -9.666983038187026978e-03 1.052282750606536865e-02 1.196049898862838745e-02 1.739871501922607422e-02
1.651972532272338867e-02 -8.858544752001762390e-03 7.771115750074386597e-03 -9.185906499624252319e-03 8.269421232398599386e-05 1.140891388058662415e-02 -1.169423223473131657e-03 -3.690789453685283661e-03 -4.482744727283716202e-03 -7.536953198723495007e-04
-1.194863393902778625e-02 -1.138900313526391983e-02 1.222307235002517700e-02 1.369113102555274963e-03 1.668401435017585754e-02 9.381379932165145874e-04 -1.024319697171449661e-02 2.010487765073776245e-02 2.454664558172225952e-03 1.866972446441650391e-02
4.297544248402118683e-03 -8.655210956931114197e-03 -9.660467621870338917e-04 9.128444828093051910e-03 -1.480910275131464005e-02 1.741334795951843262e-02 1.449703052639961243e-02 -5.110513302497565746e-04 1.232543494552373886e-02 8.802558295428752899e-03
6.878706335555762053e-05 -1.579886302351951599e-02 3.067977959290146828e-04 2.881402149796485901e-03 -1.677246065810322762e-03 1.486152317374944687e-02 -1.420478802174329758e-03 -6.861886940896511078e-03 -2.357227494940161705e-03 -1.499942591181024909e-04
-1.398132089525461197e-02 -2.032958157360553741e-02 1.468195230700075626e-03 -1.726850308477878571e-02 1.964562572538852692e-02 -2.395388111472129822e-02 2.565244771540164948e-02 -2.469302387908101082e-03 1.625671982765197754e-03 -1.722951047122478485e-02
4.781908355653285980e-03 -2.302805660292506218e-03 2.723320014774799347e-02 1.217676140367984772e-02 6.546371150761842728e-03 -1.352074462920427322e-02 -1.122205052524805069e-02 -3.114703483879566193e-02 -5.216525867581367493e-03 -1.498355809599161148e-02
-1.069161016494035721e-02 -6.248419173061847687e-03 -4.446972627192735672e-03 -1.110050827264785767e-02 -1.337316818535327911e-02 8.504288271069526672e-03 -2.412628196179866791e-02 1.621803268790245056e-02 -1.684346981346607208e-02 2.637574914842844009e-03
-3.510142210870981216e-03 -6.018674001097679138e-03 -1.177071686834096909e-02 2.123545669019222260e-02 3.446063026785850525e-02 -1.791445165872573853e-02 9.524027118459343910e-04 4.063567146658897400e-03 -1.797698438167572021e-02 -2.047358453273773193e-02
-1.757807098329067230e-02 -2.547958679497241974e-02 1.218693517148494720e-02 -5.425010342150926590e-03 1.822306029498577118e-02 -1.147260237485170364e-02 2.072328701615333557e-02 -1.479808799922466278e-02 -1.225020270794630051e-02 1.008207257837057114e-02
7.702501490712165833e-03 -2.874750271439552307e-02 -8.517561946064233780e-04 7.247586268931627274e-03 -8.527329191565513611e-03 2.036392316222190857e-02 9.130612947046756744e-03 9.395148605108261108e-03 -6.932345218956470490e-03 -1.354697346687316895e-02
1.190106011927127838e-02 -2.020207606256008148e-02 3.968028817325830460e-03 1.506526954472064972e-02 -1.063112914562225342e-02 2.369622513651847839e-02 1.250542514026165009e-02 3.044125437736511230e-02 -2.031644247472286224e-02 5.615559872239828110e-03
-9.888214059174060822e-03 -1.979779265820980072e-02 1.464678905904293060e-02 1.569818891584873199e-02 9.341084398329257965e-03 6.333326455205678940e-04 1.275868155062198639e-02 1.974497921764850616e-02 -1.322583667933940887e-02 -1.130690332502126694e-02
5.907695740461349487e-04 -1.860510744154453278e-02 1.881337165832519531e-02 -3.886597231030464172e-03 -8.994878269731998444e-03 7.631801068782806396e-03 1.782906427979469299e-02 8.896948769688606262e-03 8.562684059143066406e-03 1.944417506456375122e-02
1.434430945664644241e-02 -1.088915485888719559e-02 -1.878536306321620941e-02 2.300060354173183441e-02 3.051286563277244568e-02 -8.090216666460037231e-03 3.876853268593549728e-03 -1.969516277313232422e-03 -1.252653449773788452e-02 1.719178515486419201e-03
1.941545680165290833e-02 -2.037521451711654663e-02 -2.621641196310520172e-02 -2.582962624728679657e-03 -1.281056925654411316e-02 1.736572757363319397e-02 -9.571133181452751160e-03 1.098636724054813385e-02 3.191370982676744461e-03 -1.923060044646263123e-03
3.194147720932960510e-03 3.841595724225044250e-03 -2.091339416801929474e-02 1.983343437314033508e-02 9.087977930903434753e-03 -9.070194326341152191e-03 1.741226762533187866e-02 -8.327269926667213440e-03 6.362399086356163025e-03 4.575852304697036743e-03
-3.943999297916889191e-03 -1.116678956896066666e-02 1.641784794628620148e-02 -6.022599060088396072e-03 -1.510946638882160187e-02 2.524387557059526443e-03 1.012089382857084274e-02 -4.212032537907361984e-03 1.722377166152000427e-02 -1.302609685808420181e-02
3.214849624782800674e-03 -1.172423083335161209e-02 -5.173064768314361572e-03 8.764110505580902100e-03 -7.193666417151689529e-03 2.469216473400592804e-03 4.793969914317131042e-03 7.673767860978841782e-03 1.594862714409828186e-02 2.298570005223155022e-03
5.267194472253322601e-03 2.016169950366020203e-02 -6.020435597747564316e-03 1.068306714296340942e-02 -7.948714308440685272e-03 4.701374098658561707e-03 1.673153415322303772e-02 -5.459801293909549713e-03 5.564453080296516418e-03 1.878257282078266144e-02
1.808593794703483582e-02 1.217210292816162109e-02 8.150451816618442535e-03 1.094848290085792542e-02 6.985316053032875061e-03 5.348900333046913147e-03 -1.307204179465770721e-02 4.017085302621126175e-03 -9.608245454728603363e-03 3.139255568385124207e-03
-1.287226472049951553e-02 7.168376818299293518e-03 -6.465673446655273438e-03 1.897295191884040833e-02 1.196239329874515533e-02 4.398010205477476120e-03 -9.185113012790679932e-03 2.753942273557186127e-02 1.739356480538845062e-02 -9.158249013125896454e-04
1.092749834060668945e-02 -1.265340298414230347e-02 1.886338740587234497e-02 6.640467792749404907e-03 2.008672058582305908e-02 2.572234719991683960e-03 1.628324389457702637e-04 1.290550455451011658e-02 2.999408170580863953e-03 -1.862254925072193146e-02
-2.098784036934375763e-02 -2.422295138239860535e-02 6.108773872256278992e-03 -6.348416674882173538e-03 -1.142622996121644974e-02 -1.493134908378124237e-02 1.565960422158241272e-02 -6.402537692338228226e-03 -1.174557488411664963e-02 1.842529140412807465e-02
7.279109209775924683e-03 1.606444083154201508e-02 -6.649109534919261932e-03 -2.399816922843456268e-02 -5.191482137888669968e-03 1.544268056750297546e-02 1.526963245123624802e-02 -8.749737404286861420e-03 -1.497779041528701782e-02 1.434930833056569099e-03
-6.305667571723461151e-03 -1.821486093103885651e-02 -3.442889777943491936e-03 1.182151958346366882e-02 -1.055916678160429001e-02 -5.719427485018968582e-03 -4.071329720318317413e-03 -2.544451737776398659e-03 6.616653874516487122e-03 8.854192681610584259e-03
-2.042859606444835663e-02 -2.140811830759048462e-02 4.237050598021596670e-05 3.970342222601175308e-03 -3.000772092491388321e-03 -2.737766131758689880e-03 -2.881521545350551605e-02 -2.810125425457954407e-02 -1.570009067654609680e-02 4.213687032461166382e-03
1.854346320033073425e-02 -1.734805665910243988e-02 4.553055390715599060e-03 -1.296862866729497910e-02 1.644147746264934540e-02 -1.355859916657209396e-02 -6.607496645301580429e-03 -6.036780774593353271e-03 4.829001147300004959e-03 9.238000027835369110e-03
-8.509519393555819988e-04 -2.151552960276603699e-02 -1.117676123976707458e-02 -1.159694138914346695e-02 -2.027260838076472282e-03 1.271641254425048828e-02 -2.861789613962173462e-02 2.337029017508029938e-02 8.342943154275417328e-03 -1.983448676764965057e-02
-1.290078833699226379e-02 -7.862433791160583496e-03 -1.836420409381389618e-02 -7.914540765341371298e-05 -9.511434473097324371e-03 -2.042736113071441650e-02 8.732110261917114258e-03 1.890539936721324921e-02 -2.020611986517906189e-02 9.274172596633434296e-03
6.360915023833513260e-03 -2.303068898618221283e-02 -9.234535507857799530e-03 -1.946520619094371796e-02 7.376513443887233734e-03 -9.594644419848918915e-03 -1.877252757549285889e-02 2.658570185303688049e-02 -1.905895955860614777e-02 1.432953402400016785e-02
1.024424470961093903e-02 -1.777865923941135406e-02 -8.453530608676373959e-04 6.920541170984506607e-03 -3.350987331941723824e-03 -1.565012335777282715e-02 -1.281181816011667252e-02 1.324279885739088058e-02 -1.605341210961341858e-02 -7.954946719110012054e-03
1.857987977564334869e-02 -2.488935738801956177e-02 2.173750894144177437e-03 6.704511586576700211e-03 1.595876179635524750e-02 7.350543979555368423e-03 -1.982548460364341736e-02 2.001718990504741669e-02 2.667818684130907059e-03 -8.108054287731647491e-03
6.875270977616310120e-03 -3.856778144836425781e-03 2.386945532634854317e-03 -1.743412809446454048e-03 8.223094046115875244e-04 -2.249864861369132996e-03 1.782029680907726288e-02 -9.889167267829179764e-04 -1.237684115767478943e-02 -2.332784608006477356e-02
1.599925570189952850e-02 3.022336750291287899e-04 1.789190247654914856e-02 5.862368270754814148e-03 1.969823241233825684e-02 -3.393559530377388000e-02 -2.592127583920955658e-02 5.835727788507938385e-03 6.003697868436574936e-03 8.999811485409736633e-03
-1.100109424442052841e-02 1.646941900253295898e-02 -5.816129501909017563e-03 -2.161086164414882660e-02 -2.543688565492630005e-02 2.325251000002026558e-03 -7.127116434276103973e-03 2.967151068150997162e-02 -2.520158886909484863e-02 3.260642290115356445e-03
1.381814852356910706e-02 -1.313160825520753860e-02 -6.384514272212982178e-04 4.351520910859107971e-03 -2.102439105510711670e-02 -2.925377339124679565e-04 -1.461882889270782471e-02 1.007709652185440063e-04 -7.751830853521823883e-03 -7.493237964808940887e-03
-1.531181391328573227e-02 -1.009373180568218231e-02 2.310145180672407150e-03 2.308142604306340218e-03 -2.543244045227766037e-03 -1.270009018480777740e-02 3.762054955586791039e-03 2.107783406972885132e-02 -7.587576750665903091e-03 -1.657597161829471588e-02
-7.476746104657649994e-03 -2.182890102267265320e-02 -1.473308634012937546e-02 -2.322423085570335388e-02 -2.763394732028245926e-03 3.578606992959976196e-02 -2.091825706884264946e-03 -1.319494564086198807e-02 2.697371132671833038e-02 -1.453656330704689026e-02
-1.766876131296157837e-02 -2.059002034366130829e-02 1.510464306920766830e-02 8.159385062754154205e-03 -5.613555666059255600e-03 1.562320743687450886e-03 2.016130648553371429e-02 -2.455807116348296404e-04 -1.512882858514785767e-02 -1.999250799417495728e-02
-8.720148354768753052e-03 -8.067604154348373413e-03 7.967863231897354126e-03 6.000775843858718872e-03 -1.726105250418186188e-02 -1.358327269554138184e-02 6.129074841737747192e-03 2.163339219987392426e-02 8.891653269529342651e-04 -5.629598163068294525e-03
1.961220800876617432e-02 7.141349837183952332e-03 -1.298371236771345139e-02 5.446087568998336792e-03 -1.688542403280735016e-02 -8.199052535928785801e-04 -1.142384670674800873e-02 2.062852494418621063e-02 -9.874806739389896393e-03 -8.675025776028633118e-03
5.707651376724243164e-03 1.520346105098724365e-02 -7.666177116334438324e-03 1.736621558666229248e-02 -1.882858574390411377e-03 -1.935749873518943787e-02 1.055499911308288574e-02 -7.558166049420833588e-03 -2.064611390233039856e-02 -6.319798529148101807e-03
6.790843792259693146e-03 -1.394205843098461628e-03 1.422196719795465469e-02 2.136738784611225128e-02 8.650562725961208344e-03 -1.369863376021385193e-02 -9.505937807261943817e-03 1.160153094679117203e-02 1.293040718883275986e-02 -1.687790639698505402e-02
7.107813376933336258e-03 1.406502258032560349e-02 4.197931048111058772e-06 -3.719793166965246201e-03 2.048875018954277039e-02 -4.967087414115667343e-03 1.456416677683591843e-02 1.460405159741640091e-02 1.225781254470348358e-02 3.819739446043968201e-03
-1.647560484707355499e-02 3.171604126691818237e-03 -1.669440604746341705e-02 -9.453637525439262390e-03 -6.726849824190139771e-04 -2.536309510469436646e-02 -8.105833083391189575e-03 -7.772337645292282104e-03 8.932078257203102112e-03 1.280701532959938049e-02
5.567010492086410522e-03 -1.841716840863227844e-02 1.484675426036119461e-02 -1.132820826023817062e-02 2.439251914620399475e-02 -1.710471138358116150e-02 -1.209201756864786148e-02 -1.398172229528427124e-02 -1.405197102576494217e-02 -1.877362281084060669e-02
-1.236336771398782730e-02 1.595803420059382915e-03 6.730083376169204712e-03 -2.251103334128856659e-02 -1.399122271686792374e-02 -1.576692052185535431e-02 9.171448182314634323e-04 3.763443790376186371e-03 1.515804696828126907e-02 1.589256152510643005e-02
2.283071866258978844e-03 -2.729872427880764008e-02 8.409672416746616364e-03 -3.017046488821506500e-03 1.519609126262366772e-03 -1.058392081176862121e-04 -2.134517766535282135e-03 1.078214496374130249e-02 -9.430278092622756958e-03 -2.038437128067016602e-02
-9.457841515541076660e-03 -2.441611886024475098e-02 1.785983704030513763e-02 -3.145116940140724182e-02 -1.068289857357740402e-02 2.029976435005664825e-02 1.265507098287343979e-02 1.904848776757717133e-02 -6.841907277703285217e-03 5.501088686287403107e-03
-4.406342748552560806e-03 -2.122974395751953125e-02 -2.528765611350536346e-02 5.127819895278662443e-05 1.561460550874471664e-03 -9.952509775757789612e-03 8.752520196139812469e-03 2.618803456425666809e-02 -7.171503733843564987e-03 6.065156310796737671e-03
-1.536217238754034042e-02 6.638001068495213985e-04 6.635297555476427078e-03 -6.204291246831417084e-03 1.277526933699846268e-02 2.553146705031394958e-02 -1.890579052269458771e-02 1.705563254654407501e-02 -1.352276070974767208e-03 2.293541468679904938e-02
1.616887189447879791e-02 -2.456709742546081543e-03 1.705918833613395691e-02 6.915700505487620831e-04 3.483554115518927574e-03 -1.632819883525371552e-02 -5.615468253381550312e-04 1.153772883117198944e-02 -1.437710039317607880e-02 -3.762292210012674332e-03
7.466562092304229736e-03 1.951102167367935181e-04 -1.183932740241289139e-02 3.209738060832023621e-03 -1.732280850410461426e-02 1.422530412673950195e-02 1.856789365410804749e-02 -9.185317903757095337e-04 3.218062222003936768e-03 -2.032605186104774475e-02
2.229169011116027832e-02 -1.753088273108005524e-02 2.581860870122909546e-02 -2.202216349542140961e-02 5.407727803685702384e-05 6.415398325771093369e-03 -1.901341718621551991e-03 2.949442481622099876e-03 -2.294787019491195679e-02 -2.759430790320038795e-03
1.676417142152786255e-02 -6.085395812988281250e-03 -8.905282244086265564e-03 -2.926283283159136772e-03 1.592891663312911987e-02 -6.986237131059169769e-03 -7.645043544471263885e-03 2.984459325671195984e-02 1.082906872034072876e-02 2.597052603960037231e-03
1.624469459056854248e-02 1.926362514495849609e-02 -4.085121676325798035e-03 3.564767539501190186e-04 1.800484955310821533e-02 7.583163678646087646e-03 -9.290021844208240509e-03 -2.001365832984447479e-02 -1.252947375178337097e-03 1.506843417882919312e-02
1.439349725842475891e-02 2.052187221124768257e-03 -8.394906297326087952e-03 1.752735464833676815e-03 1.445011049509048462e-02 5.982211325317621231e-03 1.391354203224182129e-02 3.548471024259924889e-03 1.618772372603416443e-02 -1.441354397684335709e-03
8.575771003961563110e-03 -2.209473401308059692e-02 -3.176881000399589539e-02 -2.946972474455833435e-02 2.522148005664348602e-02 3.716967068612575531e-03 4.897890146821737289e-03 3.625496290624141693e-03 2.584175579249858856e-02 8.076068945229053497e-03
1.745136082172393799e-02 -1.063041388988494873e-02 -7.013519760221242905e-03 -1.016475539654493332e-02 -4.822738934308290482e-03 -1.440452877432107925e-02 1.075277291238307953e-02 1.577151007950305939e-02 -1.796185038983821869e-02 6.416714284569025040e-03
2.089017257094383240e-02 -5.235331133008003235e-03 -6.238771136850118637e-03 2.072262391448020935e-02 -2.078227140009403229e-02 1.860715448856353760e-02 -1.375903841108083725e-02 1.906505227088928223e-02 2.887386828660964966e-03 1.349978893995285034e-02
1.598348282277584076e-02 -9.543234482407569885e-03 -9.436881169676780701e-03 1.336940331384539604e-03 5.834570154547691345e-03 -7.483418565243482590e-03 4.441846627742052078e-03 -3.308659885078668594e-03 7.533286232501268387e-03 -7.434611208736896515e-03
7.344137877225875854e-03 -1.269830390810966492e-02 -5.743564106523990631e-03 -1.281133014708757401e-02 -1.774647645652294159e-02 -6.352886557579040527e-04 2.054680511355400085e-02 -1.912225782871246338e-02 -4.105420783162117004e-03 -1.598561182618141174e-02
1.840999722480773926e-02 -2.341854013502597809e-02 2.023326791822910309e-02 -1.897395960986614227e-02 -1.011125557124614716e-02 1.956017687916755676e-02 -1.647418923676013947e-02 -6.676575168967247009e-03 -8.334795944392681122e-03 4.623745044227689505e-04
1.809270866215229034e-02 5.453927442431449890e-03 -1.601958088576793671e-02 1.195330478367395699e-04 1.757258176803588867e-02 1.531514339148998260e-03 -8.106126450002193451e-03 -5.632313434034585953e-03 -1.437456085113808513e-04 -1.227504108101129532e-03
-5.396139807999134064e-03 1.783166080713272095e-04 1.603066176176071167e-02 -6.781630218029022217e-03 7.269151043146848679e-03 3.709781914949417114e-03 -1.157306786626577377e-02 -2.001318521797657013e-02 1.109180971980094910e-02 -2.103255689144134521e-02
-6.171555723994970322e-03 2.144984202459454536e-03 2.308805286884307861e-02 1.821643672883510590e-02 1.721785776317119598e-02 -6.220714654773473740e-03 -2.681622654199600220e-02 -2.193843014538288116e-02 2.623002603650093079e-02 8.892543264664709568e-04
1.128757558763027191e-02 -2.627392485737800598e-02 -1.049854420125484467e-02 1.076963450759649277e-02 -1.061039231717586517e-02 -1.569645851850509644e-02 -2.210403094068169594e-03 -4.508392885327339172e-03 -2.264810167253017426e-02 1.084327790886163712e-02
2.010404597967863083e-03 -1.259149285033345222e-03 -4.419911187142133713e-03 -1.103594806045293808e-02 1.391097158193588257e-02 -3.519368171691894531e-02 2.799642039462924004e-03 -2.571648801676928997e-04 -2.758988365530967712e-02 2.148402109742164612e-02
-2.710892586037516594e-03 7.869906723499298096e-03 -1.899408176541328430e-02 -1.377335842698812485e-02 -1.475441362708806992e-02 9.514651261270046234e-03 -3.369919257238507271e-03 -1.149819605052471161e-02 8.678709156811237335e-03 1.712856069207191467e-02
-2.055882243439555168e-03 -1.109789963811635971e-02 -9.995986707508563995e-03 -1.803106442093849182e-02 -9.441761299967765808e-03 1.785729266703128815e-02 -1.859452575445175171e-02 2.310979552567005157e-02 1.369794365018606186e-03 -1.181744132190942764e-02
-1.645377092063426971e-02 8.081830106675624847e-03 -1.695509999990463257e-02 -1.892695948481559753e-02 2.019964903593063354e-02 2.045239321887493134e-02 -1.505169272422790527e-02 1.311445143073797226e-02 -1.691463775932788849e-02 1.817138306796550751e-02
1.782709918916225433e-02 -4.027392715215682983e-03 -1.392557867802679539e-03 2.102887816727161407e-02 2.329822070896625519e-02 1.758069917559623718e-02 1.122929039411246777e-03 1.501581259071826935e-02 1.622336916625499725e-02 1.383045455440878868e-03
-3.298288211226463318e-03 6.775805726647377014e-03 1.762609556317329407e-02 -1.740271225571632385e-02 -7.002145051956176758e-03 -1.576186716556549072e-02 -4.722291603684425354e-03 -7.030175998806953430e-03 1.433093100786209106e-02 -1.800437085330486298e-02
-7.389039732515811920e-03 -2.160474844276905060e-02 1.311835739761590958e-02 -2.446981333196163177e-02 1.502079889178276062e-02 -1.073651015758514404e-02 -1.287463121116161346e-02 1.456475933082401752e-03 -2.208692207932472229e-02 6.298838998191058636e-04
-1.649065688252449036e-02 -6.445682607591152191e-03 6.134225521236658096e-03 -8.161534555256366730e-03 1.820264942944049835e-02 2.975671365857124329e-02 1.798590831458568573e-02 6.003712769597768784e-03 -3.124439716339111328e-02 -6.344063673168420792e-03
1.550326030701398849e-02 1.736276224255561829e-02 -1.564825326204299927e-02 -1.358954515308141708e-02 2.020899206399917603e-03 2.021707221865653992e-02 -1.946019195020198822e-02 -2.525524422526359558e-02 1.696522161364555359e-02 1.666183397173881531e-02
9.972713887691497803e-03 1.873194985091686249e-02 1.977215521037578583e-02 -2.048444375395774841e-02 2.278963569551706314e-03 3.803468309342861176e-03 -4.597443155944347382e-03 2.309013158082962036e-02 2.324278932064771652e-03 -1.595302671194076538e-02
-6.829917430877685547e-03 1.894545555114746094e-02 -3.658874426037073135e-03 -2.849436551332473755e-02 6.663694512099027634e-03 2.954581938683986664e-02 2.985763596370816231e-03 -1.092756632715463638e-02 1.154531445354223251e-02 -1.469595008529722691e-03
-1.019927021116018295e-02 -1.017257105559110641e-02 1.489817071706056595e-02 -1.602954231202602386e-02 -3.923382144421339035e-03 -2.128788270056247711e-02 1.039560302160680294e-03 2.475553192198276520e-02 -2.380947954952716827e-02 5.975837819278240204e-03
9.245276451110839844e-03 -9.092682041227817535e-03 -2.065532654523849487e-02 -1.976392604410648346e-02 -2.482494339346885681e-03 -1.228740252554416656e-02 1.075486838817596436e-02 -1.003967691212892532e-02 -1.540251448750495911e-02 2.021298557519912720e-02
1.104236114770174026e-03 4.483029711991548538e-03 -5.214050877839326859e-03 1.151723694056272507e-02 -1.301456335932016373e-02 -1.103550847619771957e-02 -1.901905611157417297e-02 -1.357935462146997452e-02 -2.164081670343875885e-03 -3.459800034761428833e-03
-1.485380902886390686e-02 -4.899930208921432495e-04 -3.257108852267265320e-03 -1.477329060435295105e-03 -2.482490614056587219e-03 -6.849916651844978333e-03 -2.004224807024002075e-03 -8.197098970413208008e-03 3.603603690862655640e-03 3.734622150659561157e-04
1.651358604431152344e-02 7.973773404955863953e-03 2.209385158494114876e-03 -9.604721330106258392e-03 -9.002042934298515320e-03 -3.322567790746688843e-04 3.790168091654777527e-03 1.184404920786619186e-02 -1.739652827382087708e-03 3.922285046428442001e-03
-1.991701684892177582e-02 -1.276814378798007965e-02 7.331342902034521103e-03 2.824204415082931519e-02 8.342074230313301086e-03 -1.817181520164012909e-02 -1.101887435652315617e-03 6.492937449365854263e-03 6.173373665660619736e-03 3.579420968890190125e-03
-9.499100269749760628e-04 -4.680084064602851868e-03 1.082754787057638168e-02 -1.725804992020130157e-02 -1.203131675720214844e-02 1.900796964764595032e-02 1.095577329397201538e-02 -1.497535966336727142e-02 7.435450330376625061e-03 -1.323111355304718018e-04
1.592176780104637146e-02 -2.286509796977043152e-02 3.718602238222956657e-03 -1.108099147677421570e-02 3.487438894808292389e-03 6.500813644379377365e-03 -2.951007708907127380e-02 -2.943568164482712746e-03 -1.789669319987297058e-02 7.707205135375261307e-03
2.662429818883538246e-03 -2.407061867415904999e-02 -3.710351418703794479e-03 4.541985224932432175e-03 1.642666198313236237e-02 1.279893796890974045e-02 -9.888729080557823181e-03 -1.609795913100242615e-02 4.340827930718660355e-03 -1.057828497141599655e-02
-6.926114670932292938e-03 -7.418491877615451813e-03 -1.212223432958126068e-02 -1.646698825061321259e-02 7.925592362880706787e-03 7.940643467009067535e-03 8.125845342874526978e-04 -1.311034429818391800e-02 2.811577357351779938e-02 -2.319668885320425034e-03
1.081464160233736038e-02 -8.535786531865596771e-03 -1.180675253272056580e-02 -1.864698529243469238e-02 -1.499214023351669312e-02 -1.263706851750612259e-02 2.013827115297317505e-02 1.388617977499961853e-02 1.724880561232566833e-02 -4.071307368576526642e-03
1.508274581283330917e-03 -9.498209692537784576e-03 4.354728385806083679e-03 6.354121025651693344e-03 -1.121571846306324005e-02 -1.955531165003776550e-02 1.391083840280771255e-02 -1.407929114066064358e-03 3.455008845776319504e-03 1.137415412813425064e-03
-1.515842601656913757e-02 -1.882169395685195923e-02 2.672375645488500595e-03 6.012343335896730423e-03 1.624311693012714386e-02 6.715934257954359055e-03 1.268196478486061096e-02 -7.277024444192647934e-03 -1.688478887081146240e-02 2.047772333025932312e-02
-8.471176028251647949e-03 -4.152761772274971008e-03 -9.520619059912860394e-04 1.232125516980886459e-02 1.898574084043502808e-02 5.295928101986646652e-03 -6.694348528981208801e-03 8.441317477263510227e-04 -1.658584363758563995e-02 -1.289685815572738647e-02
-9.105477947741746902e-04 -7.214853540062904358e-03 -1.851125992834568024e-02 1.480612903833389282e-03 4.903058055788278580e-03 -1.375939976423978806e-02 9.749865159392356873e-03 -1.901442743837833405e-02 -8.617524988949298859e-03 -1.797619089484214783e-02
-2.135915122926235199e-02 -2.215792424976825714e-02 -4.405174404382705688e-03 -6.084201391786336899e-03 -5.558653734624385834e-03 -2.182414568960666656e-02 -1.448568422347307205e-02 7.400839589536190033e-03 -1.783711020834743977e-03 -4.622011911123991013e-04
-2.507486008107662201e-02 8.620831649750471115e-04 4.555152263492345810e-03 -2.200069092214107513e-02 -1.142386719584465027e-02 1.947913691401481628e-02 -7.601478137075901031e-03 -5.518487305380403996e-04 2.753891237080097198e-02 -2.082914486527442932e-02
-1.131689548492431641e-02 8.019536733627319336e-03 -5.751953460276126862e-03 5.183670204132795334e-03 -3.107722848653793335e-03 9.018190205097198486e-03 -2.088244445621967316e-02 1.541656628251075745e-02 -1.104528270661830902e-02 -8.552632294595241547e-03
-2.576365368440747261e-03 -8.226415142416954041e-03 -1.881621964275836945e-02 -6.332147866487503052e-03 1.735307089984416962e-02 1.731674931943416595e-02 5.913539789617061615e-03 3.769085509702563286e-03 -5.635920446366071701e-03 -1.755058392882347107e-02
-8.118943311274051666e-03 1.796425133943557739e-02 1.058891136199235916e-02 1.521894824691116810e-03 2.204855531454086304e-02 -1.045937463641166687e-02 -2.390780486166477203e-02 1.392804551869630814e-02 -2.102547325193881989e-02 -1.119248569011688232e-02
1.475957036018371582e-02 7.384784054011106491e-03 -1.442138757556676865e-02 1.989919133484363556e-02 9.866969659924507141e-03 -1.294760406017303467e-02 -8.755584247410297394e-03 -3.186966932844370604e-04 2.998110372573137283e-03 -1.164840161800384521e-02
-1.393375918269157410e-02 9.485017508268356323e-04 1.161764562129974365e-02 1.445448398590087891e-02 9.948380291461944580e-03 -1.987865567207336426e-02 1.089208945631980896e-02 -1.173557434231042862e-02 -9.961333125829696655e-03 6.746690720319747925e-03
-1.736913993954658508e-02 1.176383346319198608e-02 -6.469959393143653870e-03 1.384943630546331406e-02 -2.297247527167201042e-03 4.512339830398559570e-03 1.821630983613431454e-03 -1.194004062563180923e-02 1.646406599320471287e-03 1.520594768226146698e-02
1.825270056724548340e-02 -1.603613980114459991e-02 -1.846004277467727661e-02 1.440864056348800659e-03 -1.034979708492755890e-02 2.063087001442909241e-02 6.797760725021362305e-04 1.238670572638511658e-02 1.790735125541687012e-02 1.357783004641532898e-02
1.585420221090316772e-03 -1.375552825629711151e-02 7.219040766358375549e-03 -1.496178470551967621e-02 1.624363288283348083e-02 -2.044484764337539673e-02 1.919458061456680298e-02 -1.825725100934505463e-02 2.568840980529785156e-03 -7.232762873172760010e-04
1.347742509096860886e-02 1.901744748465716839e-03 -1.168837770819664001e-03 2.379345521330833435e-02 -4.166997037827968597e-03 2.128395251929759979e-02 1.524411374703049660e-03 -8.372722193598747253e-03 -3.130071097984910011e-03 -1.229306776076555252e-02
-8.023144619073718786e-05 -1.895073801279067993e-02 3.209861461073160172e-03 9.617850184440612793e-03 1.752179488539695740e-02 1.995170116424560547e-02 -1.706273853778839111e-02 9.125633165240287781e-03 -1.224511768668889999e-02 1.204992830753326416e-02
1.611014269292354584e-02 -1.091844495385885239e-02 -2.423449652269482613e-03 -7.846449501812458038e-03 1.327371969819068909e-02 -2.784997457638382912e-03 6.592785008251667023e-03 -3.079471923410892487e-02 4.904567729681730270e-03 8.878492750227451324e-03
1.895535551011562347e-02 -1.411142665892839432e-02 -1.236560288816690445e-02 8.884092792868614197e-03 -4.342778120189905167e-03 3.362084925174713135e-02 -1.733059063553810120e-02 -1.868283562362194061e-02 -1.801021583378314972e-02 -3.812230133917182684e-04
6.183511577546596527e-03 -3.458525985479354858e-02 -8.116271346807479858e-03 4.665093962103128433e-03 -1.345122139900922775e-02 -5.507699679583311081e-03 -1.318518538028001785e-02 -6.181539967656135559e-03 1.160919899120926857e-03 -6.549293175339698792e-03
-1.608655042946338654e-02 -1.163276750594377518e-02 -1.030840817838907242e-02 -9.883504360914230347e-03 9.212951175868511200e-03 7.742209360003471375e-03 1.792294904589653015e-02 -2.085457369685173035e-02 1.227996870875358582e-02 1.690270565450191498e-02
1.406168565154075623e-03 1.897812908282503486e-04 -1.826974749565124512e-02 1.263807876966893673e-03 -7.601692341268062592e-03 -2.890533767640590668e-03 -5.549220368266105652e-03 1.700016856193542480e-02 1.154977828264236450e-02 1.805453747510910034e-02
-1.296625752002000809e-02 -8.974783122539520264e-03 1.159351225942373276e-02 -8.485728874802589417e-03 1.970641873776912689e-02 1.482316292822360992e-02 -1.739366166293621063e-02 1.573191210627555847e-02 5.903874523937702179e-03 6.902580498717725277e-04
1.524369046092033386e-02 -2.718013897538185120e-02 -1.327232364565134048e-02 1.097930967807769775e-02 9.527020156383514404e-03 2.202441543340682983e-02 -2.082783030346035957e-04 4.623372573405504227e-03 1.858364231884479523e-02 3.727078670635819435e-03
1.178901642560958862e-03 -2.023134194314479828e-02 -1.233177538961172104e-02 1.785822212696075439e-02 1.874253898859024048e-02 -1.633069664239883423e-02 -3.995100036263465881e-03 -2.352107316255569458e-03 1.896852627396583557e-02 1.579299569129943848e-02
7.324526552110910416e-03 -3.749633952975273132e-02 8.314129896461963654e-03 9.885373525321483612e-03 1.845549046993255615e-02 2.580633386969566345e-02 -1.342853531241416931e-02 4.616653546690940857e-03 1.573419012129306793e-02 4.683259874582290649e-03
-1.365659292787313461e-03 6.028965581208467484e-03 -1.633644290268421173e-02 8.368615061044692993e-03 -1.806166209280490875e-02 1.602256484329700470e-02 5.097963847219944000e-03 7.034888956695795059e-03 -1.013026572763919830e-02 -2.422891184687614441e-02
1.855892315506935120e-02 -7.626428268849849701e-03 7.555916905403137207e-03 1.388600841164588928e-02 7.572411559522151947e-03 -1.308309752494096756e-02 -1.295262482017278671e-02 -2.129854634404182434e-03 -7.850211113691329956e-04 9.977158159017562866e-03
-6.571417208760976791e-03 1.208665315061807632e-02 1.632162369787693024e-02 -2.891618292778730392e-03 1.091542094945907593e-02 1.353755220770835876e-02 2.328741597011685371e-03 -7.741098757833242416e-03 1.424029935151338577e-03 -8.713004179298877716e-03
7.834593765437602997e-03 9.199758991599082947e-03 2.152321487665176392e-02 -1.444874983280897141e-02 5.718354135751724243e-03 4.974361509084701538e-03 -5.405684001743793488e-03 1.281305495649576187e-02 3.489999508019536734e-04 -1.478330511599779129e-02
-1.870827563107013702e-02 -2.279184944927692413e-02 1.425973232835531235e-02 -1.153838820755481720e-02 -1.203579548746347427e-02 -1.309643313288688660e-02 -1.971109956502914429e-02 9.778596460819244385e-03 -1.731021446175873280e-03 -1.548613142222166061e-02
-5.323952063918113708e-03 -7.135717198252677917e-03 1.906160265207290649e-03 8.413020521402359009e-03 1.726736873388290405e-02 6.175026297569274902e-03 -6.289036013185977936e-03 -5.470657721161842346e-03 7.734298706054687500e-03 2.049649134278297424e-02
-7.082168944180011749e-03 -3.741815686225891113e-02 1.833621226251125336e-02 -1.193803176283836365e-02 1.711971685290336609e-02 -1.297970302402973175e-02 7.780179381370544434e-03 -1.495149452239274979e-02 -1.846065279096364975e-03 1.297185011208057404e-02
-1.982765458524227142e-02 9.751487523317337036e-03 1.094166189432144165e-02 -1.177247613668441772e-02 3.623751923441886902e-03 5.540285259485244751e-03 4.816962406039237976e-03 1.447635143995285034e-02 -1.278458535671234131e-02 -8.886124007403850555e-03
8.198911324143409729e-03 -1.240960694849491119e-02 1.981687173247337341e-02 -4.575476050376892090e-03 -2.069640718400478363e-02 -1.132885925471782684e-02 3.203380852937698364e-03 1.693738251924514771e-02 1.930423825979232788e-02 -3.979369997978210449e-03
6.282547954469919205e-03 -1.932693296112120152e-03 2.241734415292739868e-02 -1.574630662798881531e-02 4.115914925932884216e-03 1.766646653413772583e-02 1.746261119842529297e-02 1.236899569630622864e-02 -1.787108369171619415e-02 7.916560396552085876e-03
-1.809095405042171478e-02 -1.838275790214538574e-02 1.865521445870399475e-02 1.316276192665100098e-02 -1.822616904973983765e-04 8.301571011543273926e-03 -8.261661045253276825e-03 -1.444901712238788605e-02 1.949682459235191345e-02 -1.080961059778928757e-02
2.390295499935746193e-03 6.771252024918794632e-03 -1.524983346462249756e-02 1.643397100269794464e-02 -2.619962394237518311e-02 -2.079662634059786797e-03 -7.458674255758523941e-03 4.386796150356531143e-03 9.802146814763545990e-03 1.353185437619686127e-02
2.753844670951366425e-02 -1.636698580114170909e-04 2.400727011263370514e-02 1.390571426600217819e-02 -5.805279128253459930e-03 1.361463963985443115e-02 1.182531658560037613e-02 8.374397642910480499e-03 4.564371891319751740e-03 6.839970592409372330e-03
1.541509199887514114e-02 8.529224433004856110e-03 9.234620258212089539e-03 -1.124653033912181854e-02 -1.492421142756938934e-02 2.652857080101966858e-02 7.213265169411897659e-03 8.516387315467000008e-04 1.767521165311336517e-02 -4.653535783290863037e-03
1.682800007984042168e-03 1.298960298299789429e-02 -2.405888214707374573e-02 3.226514672860503197e-03 1.034319167956709862e-03 5.176307633519172668e-03 -1.198291793116368353e-04 -1.144498772919178009e-02 -1.370172016322612762e-03 2.041561342775821686e-02
1.557137258350849152e-02 -1.907853968441486359e-02 -2.110703475773334503e-02 1.267946325242519379e-02 1.533016283065080643e-02 1.266803219914436340e-02 -1.071342080831527710e-02 1.336830575019121170e-02 1.437608432024717331e-02 1.079999003559350967e-02
-4.007783718407154083e-03 -3.418671898543834686e-03 1.980321481823921204e-02 2.659990079700946808e-02 3.088905708864331245e-03 1.533674634993076324e-02 -7.673337589949369431e-03 -9.659745730459690094e-03 1.668686233460903168e-02 1.631607674062252045e-02
-1.012570690363645554e-02 -1.688758283853530884e-02 1.254293229430913925e-02 2.214224077761173248e-02 2.006540633738040924e-02 4.330933094024658203e-03 -2.010882459580898285e-02 2.163783647119998932e-02 2.007694169878959656e-02 -1.058649923652410507e-02
8.363289758563041687e-03 4.110502079129219055e-03 1.660275086760520935e-02 1.076644659042358398e-02 -2.061774581670761108e-02 -6.580539979040622711e-03 -1.839284598827362061e-02 -1.169410254806280136e-02 -1.699981465935707092e-02 5.868038162589073181e-03
-1.272964663803577423e-02 -2.472410909831523895e-02 1.630125194787979126e-02 -2.245681919157505035e-02 1.432247553020715714e-02 1.547447964549064636e-02 -1.333643961697816849e-02 -2.494415268301963806e-02 6.908336188644170761e-03 -6.841791328042745590e-03
-8.128307759761810303e-03 -1.012436230666935444e-03 2.126172557473182678e-02 1.116220001131296158e-02 -1.908342540264129639e-02 -4.482594318687915802e-03 8.798388880677521229e-04 1.904924400150775909e-02 -6.289967801421880722e-03 -1.384033821523189545e-02
-1.708033145405352116e-03 -4.233550280332565308e-03 1.871760562062263489e-02 1.821815967559814453e-02 7.257163524627685547e-04 1.995556522160768509e-03 1.926175877451896667e-02 3.982920199632644653e-03 -8.917235769331455231e-03 -5.267564207315444946e-03
-1.137964520603418350e-02 -2.634849026799201965e-02 -1.024825219064950943e-02 -1.448929216712713242e-02 1.854034885764122009e-02 2.151366509497165680e-02 9.531977586448192596e-03 3.223475767299532890e-03 1.200391165912151337e-02 1.837189123034477234e-02
-7.644920842722058296e-04 7.891877554357051849e-03 1.931754499673843384e-02 -1.876301947049796581e-03 -7.834236137568950653e-03 -1.909700036048889160e-02 -1.177976001054048538e-02 -1.571364514529705048e-02 -1.345032174140214920e-02 4.993268754333257675e-03
-1.246540155261754990e-02 -2.680631540715694427e-02 -8.119297213852405548e-03 1.670131832361221313e-02 -1.277959905564785004e-02 -6.949596572667360306e-03 -2.902107080444693565e-03 -9.834269993007183075e-03 1.700112409889698029e-02 6.560337729752063751e-03
1.919109746813774109e-02 9.887959808111190796e-03 -1.400159485638141632e-02 -1.140411011874675751e-02 -1.668177545070648193e-03 -2.043523825705051422e-02 1.267120614647865295e-02 -9.647151455283164978e-03 1.887755841016769409e-02 -6.215863861143589020e-03
-1.580183953046798706e-02 -6.536189630423905328e-06 1.456271298229694366e-02 -2.007320895791053772e-02 1.227810978889465332e-02 1.110322494059801102e-02 8.088997565209865570e-03 -5.010969471186399460e-03 -1.650091260671615601e-02 1.442764978855848312e-02
1.133297011256217957e-02 -1.753655076026916504e-02 3.951374441385269165e-03 1.498410105705261230e-02 -6.846106611192226410e-03 -1.448330376297235489e-02 1.830447465181350708e-03 -1.073199044913053513e-02 1.031607389450073242e-04 1.481758803129196167e-02
-1.228048838675022125e-02 -9.247245267033576965e-03 7.513280957937240601e-03 -3.860604017972946167e-03 7.311925292015075684e-03 1.978398859500885010e-02 -1.860744692385196686e-02 -1.037949696183204651e-03 1.580714434385299683e-02 -1.424889639019966125e-02
1.851234398782253265e-02 -3.567269444465637207e-02 1.983433216810226440e-02 1.439720671623945236e-02 -8.073112927377223969e-03 4.561583045870065689e-03 4.366545006632804871e-03 -7.724524941295385361e-03 1.621359027922153473e-02 -3.811772447079420090e-03
1.251557841897010803e-02 1.736344024538993835e-02 -1.506893150508403778e-02 -1.859638839960098267e-03 4.811706021428108215e-03 -1.413297746330499649e-02 5.201073363423347473e-03 -1.161305326968431473e-02 -9.181378409266471863e-03 1.961269229650497437e-02
2.239518612623214722e-02 -2.546002715826034546e-02 1.490981690585613251e-02 -2.309265546500682831e-02 1.180468685925006866e-02 2.068538032472133636e-02 -9.336049668490886688e-03 -2.288841456174850464e-02 6.053260527551174164e-03 -6.246524862945079803e-03
6.550421938300132751e-03 -2.791460789740085602e-02 3.449265146628022194e-03 1.241014245897531509e-02 -1.602962985634803772e-02 4.627794492989778519e-03 -2.046601474285125732e-02 -2.291015116497874260e-03 8.397668716497719288e-05 1.785149797797203064e-02
-1.348541863262653351e-02 -2.071757102385163307e-03 1.730874180793762207e-02 -1.548177469521760941e-02 -1.647127605974674225e-02 -2.500679157674312592e-02 1.032572821713984013e-03 -2.235198207199573517e-02 3.283628495410084724e-03 5.962070543318986893e-03
1.013739779591560364e-02 -2.090055122971534729e-02 -1.664893701672554016e-02 -1.817197352647781372e-02 -8.529628627002239227e-03 1.074119471013545990e-02 -1.254320237785577774e-02 2.420212328433990479e-02 -2.185604069381952286e-03 7.347391801886260509e-04
-1.431521587073802948e-02 1.280495058745145798e-02 -1.595819182693958282e-02 2.587843872606754303e-02 -2.431942149996757507e-03 -1.046956703066825867e-02 -1.303074136376380920e-02 2.746433718129992485e-03 6.767270620912313461e-03 -2.231166698038578033e-02
2.307515125721693039e-03 -7.807922083884477615e-03 -5.828065332025289536e-04 1.462731417268514633e-02 1.507534086704254150e-02 2.125172317028045654e-02 1.203727070242166519e-02 1.738097332417964935e-02 1.469891332089900970e-02 -1.473323162645101547e-02
2.180002257227897644e-02 -1.806470379233360291e-02 -1.596380583941936493e-02 2.624174952507019043e-02 2.273387834429740906e-02 -4.329936637077480555e-04 -1.021823007613420486e-02 1.234827656298875809e-02 -3.656338434666395187e-03 1.420441456139087677e-02
6.543342489749193192e-03 -8.257286623120307922e-03 6.499048322439193726e-03 4.081767518073320389e-03 5.262069869786500931e-03 -8.178292773663997650e-03 7.591030560433864594e-03 -1.657733693718910217e-03 1.892058178782463074e-02 1.269844919443130493e-02
1.001970842480659485e-02 -3.418314456939697266e-02 1.992517337203025818e-02 4.848267417401075363e-03 -5.172197706997394562e-03 -1.654488779604434967e-02 -2.363806217908859253e-02 3.525444539263844490e-03 -2.573499223217368126e-03 -1.886297762393951416e-02
-1.548351068049669266e-02 -4.671660251915454865e-03 1.817904971539974213e-02 -4.421404562890529633e-03 -1.583584584295749664e-02 -1.004858314990997314e-02 1.818577200174331665e-02 1.761154085397720337e-02 -3.282095864415168762e-02 -2.134753391146659851e-02
-9.399072267115116119e-03 -5.887237377464771271e-03 6.569765508174896240e-03 -2.074987255036830902e-02 9.059147909283638000e-03 -5.233258008956909180e-03 -8.510638959705829620e-03 1.509613543748855591e-02 1.679193973541259766e-02 5.969425663352012634e-03
-1.446628011763095856e-02 -3.200897015631198883e-03 -8.241835981607437134e-03 -2.651562355458736420e-02 1.817722804844379425e-02 -1.073748897761106491e-02 -2.654792927205562592e-02 -2.976347925141453743e-03 -4.654596094042062759e-03 -1.725091226398944855e-02
-5.085117882117629051e-04 -1.193313207477331161e-02 9.526859037578105927e-03 -1.024917000904679298e-03 -6.103415042161941528e-03 1.704569533467292786e-02 -1.533035188913345337e-02 -2.468713372945785522e-02 -1.906629092991352081e-02 -2.585046924650669098e-03
9.650214575231075287e-03 -1.269883383065462112e-02 -1.500391587615013123e-02 7.677261251956224442e-03 -7.475833408534526825e-03 1.659645698964595795e-02 -1.070942636579275131e-02 -1.371791865676641464e-02 1.106114219874143600e-02 1.021294947713613510e-02
-7.488016970455646515e-03 2.734534442424774170e-03 1.090828329324722290e-02 -1.618577353656291962e-02 9.172614663839340210e-04 -5.139715969562530518e-03 1.446620747447013855e-02 9.724553674459457397e-04 -6.611341610550880432e-03 6.290171295404434204e-03
-9.367351420223712921e-03 -2.925508306361734867e-04 1.176789030432701111e-02 1.471439190208911896e-02 1.350388675928115845e-02 1.665153913199901581e-02 3.361859417054802179e-04 9.665185585618019104e-03 2.099129138514399529e-03 3.923692740499973297e-03
2.012345939874649048e-02 5.008745938539505005e-03 -7.979841902852058411e-03 9.111383929848670959e-03 1.035666093230247498e-02 7.716920226812362671e-04 -9.835955686867237091e-03 -1.979700289666652679e-02 1.800571382045745850e-02 -2.122789621353149414e-03
-7.799678482115268707e-03 1.979703828692436218e-02 4.564370959997177124e-03 1.199571415781974792e-02 -3.537204116582870483e-03 1.178370416164398193e-02 1.592303812503814697e-02 3.759255632758140564e-03 -1.605614274740219116e-02 -9.564440697431564331e-04
8.322811685502529144e-03 -1.653198525309562683e-02 7.210458628833293915e-03 -1.111541874706745148e-02 1.181606203317642212e-02 -1.517848484218120575e-02 2.037510130321606994e-04 -1.787127926945686340e-02 2.239919081330299377e-02 1.821196265518665314e-02
-2.081137150526046753e-02 1.916226744651794434e-02 -2.836877480149269104e-03 1.337066665291786194e-02 -8.565214462578296661e-03 1.270805299282073975e-02 1.710443943738937378e-02 -5.573285743594169617e-03 -3.189468756318092346e-03 1.507329940795898438e-02
-9.109012782573699951e-03 -9.503381326794624329e-03 -1.470134407281875610e-02 -2.110025472939014435e-02 -7.088273763656616211e-03 1.084816642105579376e-02 4.307966679334640503e-03 1.000356022268533707e-02 -7.813926786184310913e-03 1.403526775538921356e-02
-5.238421726971864700e-03 -3.081090375781059265e-02 1.521523762494325638e-02 2.794556086882948875e-03 -6.794882472604513168e-03 -1.302736718207597733e-02 -5.911322776228189468e-03 6.511826068162918091e-03 -1.757910475134849548e-02 1.727735996246337891e-02
-1.449054107069969177e-02 4.772454267367720604e-04 5.528120789676904678e-03 1.386105082929134369e-02 -1.606804132461547852e-02 -3.833073889836668968e-03 -1.703611388802528381e-02 -2.301145717501640320e-02 2.472016029059886932e-02 3.107313241343945265e-04
-1.923803053796291351e-02 -7.287163287401199341e-03 -1.041232608258724213e-02 3.719207830727100372e-03 -9.062290191650390625e-03 1.583369076251983643e-02 8.294234052300453186e-03 2.095214277505874634e-02 -4.757724702358245850e-03 -7.103817071765661240e-03
-7.291468326002359390e-03 1.190532185137271881e-02 -9.859126992523670197e-03 1.337162218987941742e-02 -1.405574288219213486e-02 5.565569736063480377e-03 -6.209647282958030701e-03 1.560187526047229767e-02 -7.823104970157146454e-03 -1.748780533671379089e-02
-1.657101325690746307e-02 -2.669993415474891663e-02 5.684395786374807358e-03 1.631225459277629852e-02 4.839687608182430267e-03 2.716607414186000824e-02 6.755008362233638763e-03 1.240461785346269608e-02 1.237503811717033386e-02 -2.696029469370841980e-02
-1.628236472606658936e-02 -1.033814623951911926e-02 8.521308191120624542e-03 1.051973178982734680e-02 3.020737320184707642e-03 -1.451009139418601990e-02 1.769151724874973297e-02 -6.755020003765821457e-03 -5.277488846331834793e-03 -1.857085525989532471e-02
1.333061791956424713e-02 -1.624527201056480408e-02 -1.333671994507312775e-02 -2.694125287234783173e-03 -3.452963137533515692e-04 -2.027490548789501190e-02 -3.349053440615534782e-03 -8.919788524508476257e-03 1.753865554928779602e-02 -8.959762752056121826e-03
1.340680755674839020e-02 -2.741145342588424683e-02 5.882572149857878685e-04 -2.704180777072906494e-02 7.378580048680305481e-03 -2.332883514463901520e-02 1.140700653195381165e-02 -1.503651146776974201e-03 -4.433687310665845871e-03 1.442077010869979858e-02
-2.626864807098172605e-05 8.882426773197948933e-04 2.009689621627330780e-02 -3.502960549667477608e-03 5.151455756276845932e-03 -3.379050642251968384e-02 1.086067780852317810e-02 1.626631058752536774e-02 -2.658802829682826996e-02 -1.981182489544153214e-03
-1.678087934851646423e-02 -9.640574455261230469e-03 1.345742121338844299e-02 -1.686308532953262329e-04 1.114233583211898804e-02 -3.861980512738227844e-03 9.852439165115356445e-03 1.187378540635108948e-02 1.702208071947097778e-02 1.125508546829223633e-02
1.467617042362689972e-02 -1.100324094295501709e-02 1.628841273486614227e-02 -3.313653543591499329e-02 -1.654215529561042786e-02 -2.636793302372097969e-03 -2.565473318099975586e-02 2.239160053431987762e-02 -8.356912061572074890e-03 2.386964485049247742e-02
6.263949442654848099e-03 -2.065790258347988129e-02 2.100064419209957123e-02 -8.501957170665264130e-03 1.494094729423522949e-03 1.848277449607849121e-02 -1.717419922351837158e-02 -1.419064495712518692e-02 -2.674320712685585022e-02 1.344645768404006958e-02
-6.419778335839509964e-03 -2.175005525350570679e-02 2.330195624381303787e-03 1.330752205103635788e-02 1.110736560076475143e-02 -5.284488201141357422e-03 1.611731573939323425e-02 1.217160280793905258e-02 1.418484840542078018e-02 -1.349212229251861572e-02
-1.922614686191082001e-02 -1.904223114252090454e-02 4.339829087257385254e-03 -6.413972005248069763e-03 -1.860773190855979919e-03 1.290202140808105469e-02 2.732783555984497070e-03 1.455213874578475952e-02 -2.631690353155136108e-03 -1.906393654644489288e-02
1.895873248577117920e-02 -7.716022897511720657e-03 2.401773445308208466e-02 -1.722979126498103142e-03 1.054630614817142487e-02 1.831630058586597443e-02 1.237666141241788864e-02 -9.917755611240863800e-03 -3.326076082885265350e-03 -1.524822413921356201e-02
1.575208827853202820e-02 -1.629537530243396759e-02 7.986027747392654419e-03 2.388954162597656250e-03 -1.297139097005128860e-02 1.578536629676818848e-02 -9.971374645829200745e-03 -1.560773141682147980e-02 -1.354873180389404297e-03 6.760658696293830872e-03
1.540305092930793762e-03 -8.000582456588745117e-03 -8.041281253099441528e-03 -1.501800119876861572e-02 3.261731937527656555e-03 -2.177063375711441040e-03 3.500679507851600647e-03 -1.907543465495109558e-02 -7.880330085754394531e-04 1.879909634590148926e-02
-1.266507245600223541e-02 -3.160435939207673073e-03 2.210788801312446594e-02 -3.119870088994503021e-02 -1.004949398338794708e-02 -1.739758439362049103e-02 -1.286324579268693924e-03 1.424250844866037369e-02 2.356449887156486511e-02 5.771623458713293076e-03
7.275396957993507385e-03 1.906672865152359009e-02 -1.320238038897514343e-02 -5.257587879896163940e-03 2.190872281789779663e-02 1.563450694084167480e-02 4.849173128604888916e-04 2.530096098780632019e-03 6.462287157773971558e-03 3.210218623280525208e-03
-1.350589189678430557e-02 -1.502523384988307953e-02 1.475315261632204056e-02 -2.295728540048003197e-03 -2.955144154839217663e-04 -3.118354082107543945e-02 -1.597828790545463562e-02 1.533391140401363373e-02 8.635132573544979095e-03 2.658877149224281311e-02
1.104844734072685242e-02 6.369144539348781109e-04 -1.171895116567611694e-02 -1.657632924616336823e-02 -6.406510714441537857e-03 -1.592296920716762543e-02 1.144704595208168030e-02 6.003217771649360657e-03 1.852338202297687531e-02 8.732235059142112732e-03
-1.135088875889778137e-02 2.700483193621039391e-03 1.312487758696079254e-02 4.509459715336561203e-03 -1.155725494027137756e-02 1.862946525216102600e-02 -5.892890039831399918e-03 2.357117366045713425e-03 -4.943917971104383469e-03 -1.379869133234024048e-02
-1.763421483337879181e-02 -5.008464679121971130e-03 -9.781997650861740112e-03 1.685289666056632996e-02 -4.044901579618453979e-04 -1.184796262532472610e-02 -3.576643299311399460e-03 7.348844315856695175e-03 -2.291969954967498779e-03 6.117335986346006393e-03
-1.467182021588087082e-02 4.325163085013628006e-03 6.141384597867727280e-03 -8.580368594266474247e-04 1.609508134424686432e-02 1.673602685332298279e-02 -9.428356774151325226e-03 -3.458528313785791397e-03 -7.174266036599874496e-03 1.169798802584409714e-02
7.316848728805780411e-03 2.737557282671332359e-03 -5.020629148930311203e-03 -6.037919316440820694e-03 3.055868903174996376e-03 1.893021538853645325e-02 -7.725793868303298950e-03 6.532546831294894218e-04 1.824880577623844147e-02 8.741076104342937469e-03
1.308137830346822739e-02 -7.883329875767230988e-03 4.805974895134568214e-04 -3.686114680022001266e-03 -9.059588424861431122e-03 7.263645995408296585e-03 1.743149012327194214e-03 2.148262225091457367e-03 -1.457248535007238388e-02 1.733352988958358765e-02
-2.073833905160427094e-02 -1.206767000257968903e-02 5.545094609260559082e-04 -7.391849532723426819e-03 1.300759240984916687e-02 -1.607204787433147430e-02 -9.407438337802886963e-04 -9.467429481446743011e-03 -1.066420041024684906e-02 -4.016986116766929626e-03
-8.180561475455760956e-03 -4.490407183766365051e-02 -1.613260060548782349e-02 1.021618675440549850e-02 -1.776926778256893158e-02 6.163349840790033340e-03 3.758731298148632050e-03 5.889405962079763412e-03 -7.936874404549598694e-03 2.892733551561832428e-02
-7.942728698253631592e-03 4.663304425776004791e-03 -5.594166461378335953e-03 9.989726357161998749e-03 -4.450073465704917908e-03 1.430199015885591507e-02 -7.534762844443321228e-03 -1.660994067788124084e-02 5.693345796316862106e-03 -2.018122375011444092e-02
1.911245286464691162e-02 -1.710038445889949799e-02 1.404338330030441284e-02 -1.981110684573650360e-02 -5.339235533028841019e-03 2.100352942943572998e-02 -3.284309525042772293e-03 -1.424943283200263977e-02 -2.483193762600421906e-02 -1.041593309491872787e-02
1.270340476185083389e-02 1.538793556392192841e-02 -8.480167947709560394e-03 -4.777228459715843201e-03 2.140530757606029510e-02 1.188557688146829605e-02 -4.862204194068908691e-03 -1.078625209629535675e-02 5.688355769962072372e-03 8.096973178908228874e-04
-1.643095724284648895e-02 -2.604313427582383156e-03 -1.359079382382333279e-03 3.281841753050684929e-03 1.308828778564929962e-02 4.985506180673837662e-03 4.266649950295686722e-03 -7.362922769971191883e-04 -2.963846735656261444e-02 6.027843337506055832e-03
-9.272086317650973797e-04 -2.056659944355487823e-02 -9.901795536279678345e-03 -9.750352182891219854e-05 1.226839050650596619e-02 -1.333602052181959152e-02 8.505688747391104698e-04 2.351763844490051270e-02 1.090353727340698242e-02 3.805773332715034485e-03
1.820959150791168213e-04 6.041172891855239868e-03 -1.739362999796867371e-02 -3.009943291544914246e-03 -1.724880747497081757e-02 -1.587975397706031799e-02 1.181582361459732056e-02 -1.061127707362174988e-02 -1.132270880043506622e-02 3.753282129764556885e-03
-1.306350715458393097e-02 -2.679810300469398499e-02 -1.489731669425964355e-02 -9.428136982023715973e-03 1.267675682902336121e-02 -1.035312563180923462e-02 -1.588257960975170135e-02 9.680794551968574524e-03 -1.368668163195252419e-03 2.491365559399127960e-02
1.111172139644622803e-02 1.156194135546684265e-02 1.248585805296897888e-02 -1.168354414403438568e-02 1.678551360964775085e-02 8.224532008171081543e-03 1.539900526404380798e-02 9.446518495678901672e-03 1.866536587476730347e-02 -1.052139606326818466e-02
-6.685091182589530945e-03 1.002786308526992798e-02 2.057405188679695129e-03 5.034491419792175293e-03 2.021473273634910583e-02 1.300416141748428345e-02 2.703692764043807983e-03 -1.808048598468303680e-02 -2.008776366710662842e-02 1.423620805144309998e-02
1.905890926718711853e-02 6.230521015822887421e-03 -1.260422402992844582e-03 -2.646449394524097443e-02 9.518307633697986603e-03 -4.899148829281330109e-03 -2.145843766629695892e-02 -9.357182309031486511e-03 4.183603916317224503e-03 -7.481836713850498199e-03
-2.396496012806892395e-02 -1.363993156701326370e-02 2.227552235126495361e-03 2.060979977250099182e-02 2.868420910090208054e-03 1.157252490520477295e-02 -1.158006675541400909e-02 -9.918571449816226959e-03 1.147213205695152283e-02 -3.066988661885261536e-03
1.164298411458730698e-02 1.365909911692142487e-02 2.258571423590183258e-02 1.188260689377784729e-02 2.396721392869949341e-03 2.346852421760559082e-02 -2.333911508321762085e-02 -1.464624982327222824e-02 1.076587010174989700e-02 -8.288503624498844147e-03
1.697443239390850067e-02 -1.213123183697462082e-02 -2.115691453218460083e-02 -3.213866427540779114e-02 -1.141526829451322556e-02 -1.375638414174318314e-02 1.346764061599969864e-02 -1.256933901458978653e-02 -1.714340178295969963e-03 3.125295042991638184e-02
-1.719283498823642731e-02 -2.321567572653293610e-02 -2.293369034305214882e-03 1.788384863175451756e-03 1.651007495820522308e-02 2.716385386884212494e-02 3.944333177059888840e-03 -2.458668872714042664e-02 -1.785724796354770660e-02 -6.113623967394232750e-04
-1.030418369919061661e-02 -1.983964256942272186e-02 -7.072179112583398819e-03 -3.651757026091217995e-03 -2.210600534453988075e-03 2.329459041357040405e-02 7.895241491496562958e-03 2.715128357522189617e-04 -9.477174025960266590e-04 2.579475007951259613e-02
1.258121430873870850e-02 9.161615744233131409e-03 1.759005151689052582e-02 -8.201827295124530792e-03 -9.416423738002777100e-03 -1.041909307241439819e-02 5.620970390737056732e-03 -1.221851271111518145e-04 1.911350898444652557e-02 -5.909852683544158936e-03
-1.386787369847297668e-02 -1.714303903281688690e-02 -6.461811251938343048e-03 -7.937382906675338745e-03 -1.223667408339679241e-03 -2.300205267965793610e-02 -1.589982770383358002e-02 1.909618079662322998e-02 9.456016123294830322e-03 3.733816090971231461e-03
9.924125857651233673e-03 5.859137978404760361e-03 -3.691720543429255486e-03 7.609960157424211502e-03 5.076632834970951080e-03 1.884289272129535675e-02 -1.866511814296245575e-02 1.338159106671810150e-02 2.454280387610197067e-03 -2.335076406598091125e-02
-1.407958194613456726e-02 -1.382085029035806656e-02 -1.373813673853874207e-02 -5.812472663819789886e-03 4.819296300411224365e-04 1.500915363430976868e-02 -1.060501579195261002e-02 -1.607336848974227905e-02 -3.849659115076065063e-03 -9.995309635996818542e-03
-1.396695338189601898e-02 -1.180396415293216705e-02 -2.372179005760699511e-05 -1.364822220057249069e-02 3.377713030204176903e-03 -1.423155982047319412e-02 -5.384812131524085999e-03 -1.044319942593574524e-02 -6.578017957508563995e-03 -7.595659233629703522e-03
-6.444980856031179428e-03 -1.875101774930953979e-02 -7.144975475966930389e-03 -7.689790800213813782e-03 -2.387536317110061646e-02 8.103674277663230896e-03 1.850614324212074280e-02 6.063777487725019455e-03 1.519099716097116470e-02 -2.637146972119808197e-02
-1.349850744009017944e-02 2.080817148089408875e-02 1.109587773680686951e-02 -1.092980708926916122e-02 7.767159491777420044e-03 -1.394565869122743607e-02 1.827464625239372253e-02 -1.097055990248918533e-02 1.466905698180198669e-03 -1.916748844087123871e-02
1.568704470992088318e-02 1.239778846502304077e-02 -7.571205496788024902e-03 -2.650795318186283112e-02 -1.667816750705242157e-02 -1.113193016499280930e-02 -2.511814702302217484e-03 2.011087909340858459e-02 -1.088721677660942078e-02 3.393111983314156532e-03
-2.293911948800086975e-02 -1.329921185970306396e-02 -1.850734278559684753e-02 -4.685710184276103973e-03 -8.005564101040363312e-03 1.071725971996784210e-02 -1.527659595012664795e-02 -2.079232782125473022e-02 1.162396650761365891e-02 -1.133433543145656586e-02
4.007890529464930296e-04 5.680515430867671967e-03 1.468748785555362701e-02 6.812417414039373398e-03 1.039396692067384720e-02 -5.670059472322463989e-03 3.108707489445805550e-03 8.967406116425991058e-03 1.029308326542377472e-02 -2.616642974317073822e-02
-8.631140924990177155e-03 3.853002563118934631e-03 -1.556404586881399155e-02 6.287248805165290833e-03 1.765843480825424194e-04 1.587377488613128662e-02 7.377691566944122314e-03 9.148476645350456238e-03 -6.864663213491439819e-03 1.270012930035591125e-03
1.438623107969760895e-02 1.642573624849319458e-03 1.004506181925535202e-02 -1.325086224824190140e-02 4.776763729751110077e-03 1.450074743479490280e-02 -1.351395994424819946e-02 1.310049206949770451e-03 4.929094211547635496e-05 -8.942613494582474232e-04
6.039239466190338135e-03 6.126645952463150024e-03 -1.935159973800182343e-02 1.879982650279998779e-02 7.805170491337776184e-03 2.029914781451225281e-02 -1.346695795655250549e-02 -1.351718045771121979e-02 -2.071518450975418091e-03 2.988347783684730530e-03
-2.036931179463863373e-02 -1.378098875284194946e-02 -8.460386656224727631e-03 1.195297762751579285e-02 1.065882295370101929e-02 -2.396333962678909302e-03 1.566341519355773926e-02 2.595376223325729370e-03 -1.414087973535060883e-02 -1.951621286571025848e-02
1.499824970960617065e-02 -2.442869881633669138e-04 -3.969071432948112488e-03 -2.112247794866561890e-02 -9.976191446185112000e-03 -9.427235461771488190e-03 -1.317749079316854477e-02 9.308828040957450867e-03 -9.268896654248237610e-03 -5.652104038745164871e-03
-1.368616521358489990e-02 -1.805853471159934998e-02 -8.600028231739997864e-03 -1.764488220214843750e-02 2.046330645680427551e-02 7.286665961146354675e-03 1.311502978205680847e-02 7.543314248323440552e-03 2.934204414486885071e-03 -9.288174100220203400e-03
-1.783053274266421795e-03 1.366754807531833649e-02 -1.055306661874055862e-02 -2.143573388457298279e-02 1.752234250307083130e-02 -6.964727304875850677e-03 -6.109303794801235199e-03 1.668855734169483185e-02 -2.574028074741363525e-02 -4.986848216503858566e-03
-4.067914560437202454e-03 -1.687026210129261017e-02 -9.704493917524814606e-03 -7.365537021541967988e-05 -1.297063939273357391e-02 8.251589722931385040e-03 2.005204744637012482e-02 -1.912356540560722351e-02 8.886839263141155243e-03 1.629919931292533875e-02
1.499608904123306274e-02 -1.922885188832879066e-03 -8.265214972198009491e-03 -1.021059695631265640e-02 -3.075424581766128540e-03 1.333922264166176319e-04 1.834600605070590973e-02 -7.352763786911964417e-03 -1.004066411405801773e-02 5.948678124696016312e-03
-1.436684932559728622e-02 7.688738405704498291e-04 -6.000624503940343857e-03 -1.035251747816801071e-02 1.648247055709362030e-02 1.009801123291254044e-02 1.217059604823589325e-02 2.180545125156641006e-03 1.841155439615249634e-02 7.037032046355307102e-04
5.769737181253731251e-04 -1.316740363836288452e-02 -1.514199934899806976e-02 -1.168324146419763565e-02 -1.299206539988517761e-02 7.532292976975440979e-03 1.496574748307466507e-02 9.356538765132427216e-03 -1.221481524407863617e-02 -1.812546700239181519e-02
4.049337003380060196e-03 -7.241949904710054398e-03 4.639291670173406601e-03 -1.944122835993766785e-02 6.536776199936866760e-03 1.676400378346443176e-02 -2.921915240585803986e-02 1.268388144671916962e-02 5.799194332212209702e-03 1.472804136574268341e-02
-1.181929465383291245e-02 9.374726563692092896e-03 1.549667399376630783e-02 -4.040561150759458542e-03 1.483582309447228909e-03 -1.596741937100887299e-02 -1.438682340085506439e-02 2.255897270515561104e-03 -8.771934546530246735e-03 -9.827506728470325470e-03
-3.052080515772104263e-03 1.350021455436944962e-03 2.063379436731338501e-02 5.662996321916580200e-03 -1.240417640656232834e-02 -1.721446588635444641e-02 1.261550281196832657e-02 2.498047193512320518e-03 -1.185925095342099667e-03 -1.590291410684585571e-02
1.139223948121070862e-02 -2.818013168871402740e-02 1.401152741163969040e-02 -1.665221713483333588e-02 -2.001493424177169800e-02 -1.335957646369934082e-02 1.116239652037620544e-02 -1.854579150676727295e-02 8.363942615687847137e-03 3.311427310109138489e-03
5.608086008578538895e-03 6.076843477785587311e-03 -1.071380265057086945e-02 2.838327363133430481e-02 -4.757393151521682739e-03 -1.854066923260688782e-02 8.175556547939777374e-03 -2.271513082087039948e-02 1.272656489163637161e-02 -1.178784947842359543e-02
9.999629110097885132e-04 7.477216422557830811e-03 1.100972294807434082e-02 -1.506594382226467133e-02 -5.472876131534576416e-03 -1.517955865710973740e-02 9.338486939668655396e-03 -1.642091386020183563e-02 -1.648842170834541321e-02 1.751085370779037476e-02
-1.356951426714658737e-02 -2.498520910739898682e-02 -1.589988172054290771e-02 -3.072800673544406891e-02 1.816326752305030823e-02 1.075853034853935242e-02 -7.941324263811111450e-03 -1.510593295097351074e-02 -3.785429289564490318e-04 1.028222404420375824e-02
-3.365479037165641785e-02 8.426463231444358826e-03 -1.078853383660316467e-02 1.693249307572841644e-02 5.762505345046520233e-03 -5.988804157823324203e-03 1.310668769292533398e-03 -2.132672816514968872e-02 1.376638840883970261e-02 -7.896952331066131592e-03
-8.837666362524032593e-03 -1.684973575174808502e-02 6.120169535279273987e-03 -6.603173911571502686e-03 1.709330826997756958e-02 1.721070893108844757e-02 -9.997251443564891815e-03 -7.747061550617218018e-03 1.149224489927291870e-02 6.942876614630222321e-03
-1.307959854602813721e-02 1.797671243548393250e-02 -3.412077203392982483e-03 1.813429966568946838e-02 8.504291996359825134e-03 4.886059090495109558e-03 2.078641206026077271e-02 -1.338821277022361755e-02 2.066982537508010864e-02 2.483379095792770386e-03
-4.438066389411687851e-03 -3.845436871051788330e-02 1.571298390626907349e-02 9.791844524443149567e-03 6.547187454998493195e-03 -1.032076124101877213e-02 -1.313693169504404068e-02 -1.755074970424175262e-02 -7.703740615397691727e-03 1.435240916907787323e-02
-4.024848341941833496e-03 1.175960153341293335e-02 4.613654688000679016e-03 -7.645797915756702423e-03 -4.174776375293731689e-03 -5.035148933529853821e-03 -1.138902269303798676e-02 1.471833884716033936e-02 -8.312650956213474274e-03 -1.614685170352458954e-02
-1.571392454206943512e-02 1.807324960827827454e-02 1.272442564368247986e-02 -1.151054445654153824e-02 5.338737741112709045e-03 1.119112595915794373e-02 -1.654682867228984833e-02 1.759303733706474304e-03 6.611773744225502014e-03 -1.520763896405696869e-02
-7.180202286690473557e-03 -1.378168351948261261e-02 8.025520481169223785e-03 -2.227434888482093811e-02 -2.370343729853630066e-02 1.014885865151882172e-02 9.439758956432342529e-03 -1.594271324574947357e-02 -1.096483599394559860e-02 -4.084528889507055283e-03
-2.291468670591711998e-03 2.046830579638481140e-02 8.783802390098571777e-03 -4.636323079466819763e-03 2.202954143285751343e-02 -6.160059012472629547e-03 1.190072670578956604e-02 1.134926453232765198e-02 1.940964534878730774e-02 -5.613416433334350586e-03
1.008802466094493866e-02 -2.137021627277135849e-03 2.222982607781887054e-02 3.027203492820262909e-02 2.011468447744846344e-02 -7.085392251610755920e-03 -1.043818239122629166e-02 1.710950396955013275e-02 6.830789148807525635e-03 -8.233447559177875519e-03
7.475724909454584122e-03 -1.146592665463685989e-03 -1.034573279321193695e-02 -1.549877412617206573e-02 9.043160825967788696e-03 -2.430423907935619354e-02 -1.421722583472728729e-02 1.778545789420604706e-02 -1.199398282915353775e-02 -7.273172377608716488e-04
-1.806175522506237030e-02 -2.774241380393505096e-02 -2.557917311787605286e-02 8.822067640721797943e-03 3.483412414789199829e-02 -4.501968622207641602e-03 1.138522196561098099e-02 1.823784038424491882e-02 -8.763863705098628998e-03 -5.364285316318273544e-04
1.684916764497756958e-02 -4.866719711571931839e-03 -1.049865153618156910e-03 -1.019730139523744583e-02 -1.491832826286554337e-02 3.414803883060812950e-03 1.203696709126234055e-03 1.342351734638214111e-02 1.499398518353700638e-02 -1.322461874224245548e-03
1.125717163085937500e-02 -1.119757443666458130e-02 5.569350440055131912e-03 2.763355337083339691e-02 2.203494310379028320e-03 -3.991760779172182083e-03 1.953075453639030457e-02 -4.255879670381546021e-03 -1.152094826102256775e-02 -1.823421684093773365e-03
6.508217658847570419e-03 6.950510665774345398e-03 4.909881390631198883e-03 7.880179211497306824e-03 -1.690555922687053680e-02 -1.297667715698480606e-02 -2.397269941866397858e-02 -1.172904670238494873e-02 6.305008195340633392e-03 -4.151270259171724319e-03
-5.238418467342853546e-03 -3.374338382855057716e-03 -2.450281754136085510e-03 -1.576791144907474518e-02 -2.375048585236072540e-03 4.556732717901468277e-03 -1.052734442055225372e-02 1.601524464786052704e-02 1.478946115821599960e-02 1.015849690884351730e-02
-1.328217214904725552e-03 4.786724457517266273e-04 1.165463682264089584e-02 7.867613807320594788e-03 1.377462130039930344e-02 6.018584594130516052e-03 -1.062156911939382553e-02 -9.208560921251773834e-03 3.893379122018814087e-03 -6.770759820938110352e-03
3.945509903132915497e-03 -3.433927148580551147e-02 -6.219272501766681671e-03 3.547507571056485176e-03 -7.003946666372939944e-05 -1.795658469200134277e-02 -3.834721283055841923e-04 -9.753433056175708771e-03 6.441276520490646362e-03 6.371118593961000443e-03
-3.008177271112799644e-03 8.921287953853607178e-04 -6.649117451161146164e-03 -8.230323903262615204e-03 -1.775763556361198425e-02 6.091842427849769592e-03 5.071136183687485754e-05 1.466869749128818512e-02 3.673673141747713089e-03 -5.810130387544631958e-03
-1.067603938281536102e-02 9.821405634284019470e-03 -3.607951104640960693e-03 1.395356282591819763e-02 -9.132807143032550812e-03 9.949825704097747803e-03 -2.027104049921035767e-02 -8.484425954520702362e-03 -9.908178821206092834e-03 1.647120714187622070e-02
2.391980029642581940e-02 -2.671873569488525391e-02 -1.696553267538547516e-02 -1.999326609075069427e-02 7.020649965852499008e-03 9.962866082787513733e-03 1.042685844004154205e-02 8.570509031414985657e-03 4.248029086738824844e-03 2.206566743552684784e-03
-1.878246106207370758e-02 -9.831968694925308228e-03 1.010700501501560211e-02 2.565608546137809753e-02 9.393257088959217072e-03 -9.112294646911323071e-04 -2.977866865694522858e-02 -4.746152553707361221e-03 1.523581519722938538e-02 4.144145641475915909e-03
2.317290566861629486e-02 3.912106622010469437e-03 -6.317785941064357758e-03 -1.852608658373355865e-02 -4.528168588876724243e-03 1.814521849155426025e-02 -1.173197478055953979e-02 1.906228251755237579e-02 -2.197025902569293976e-02 -1.013803761452436447e-03
-7.787688635289669037e-03 1.356685906648635864e-02 1.477973908185958862e-02 1.477483287453651428e-02 1.910355314612388611e-02 -5.625586956739425659e-03 8.434314280748367310e-03 5.702489987015724182e-03 2.008224651217460632e-02 3.400538116693496704e-04
1.295458991080522537e-02 -2.981423214077949524e-02 2.642488852143287659e-02 1.585732027888298035e-02 1.736365631222724915e-02 -1.779964566230773926e-02 -2.314379811286926270e-02 5.137475673109292984e-03 -6.864342838525772095e-03 -1.649548113346099854e-02
-1.288852375000715256e-02 1.610380783677101135e-02 -1.969532854855060577e-02 -1.781206205487251282e-02 3.148645162582397461e-03 1.234946399927139282e-02 -3.028744831681251526e-03 -1.657505519688129425e-02 -1.452676951885223389e-03 -1.686477661132812500e-02
-2.167410962283611298e-02 -9.386846795678138733e-03 -2.476856112480163574e-03 2.275988273322582245e-02 8.281443268060684204e-03 9.187011048197746277e-03 -1.291587948799133301e-03 -4.092983901500701904e-03 1.020142808556556702e-03 2.892086282372474670e-03
-6.723426748067140579e-03 -1.352367736399173737e-02 5.905576050281524658e-03 5.276498850435018539e-03 -1.292069442570209503e-02 -1.254090014845132828e-02 -4.978703800588846207e-03 -2.346016932278871536e-03 -1.796414144337177277e-02 5.172573961317539215e-03
-4.566670395433902740e-04 -2.616262063384056091e-03 -9.040401317179203033e-03 -3.023110562935471535e-03 -1.444593071937561035e-02 1.236390322446823120e-02 2.018661051988601685e-02 2.083554863929748535e-05 -7.124505937099456787e-03 -2.600561827421188354e-03
1.192766940221190453e-04 6.445663166232407093e-04 -1.744336215779185295e-03 -9.415113367140293121e-03 1.883066818118095398e-02 -2.286469563841819763e-03 2.579318918287754059e-02 8.692299015820026398e-03 -1.683749025687575340e-03 -4.328147508203983307e-03
1.301813498139381409e-02 2.385399769991636276e-03 -3.062951145693659782e-03 -1.427956018596887589e-02 1.774399133864790201e-04 4.282850422896444798e-04 1.383658032864332199e-03 4.966061678715050220e-04 8.585138712078332901e-04 -9.630254469811916351e-03
1.241080183535814285e-02 -1.596728526055812836e-02 2.349573560059070587e-02 -2.721372991800308228e-02 1.126807089895009995e-02 -2.520158514380455017e-02 1.073369476944208145e-02 5.501048173755407333e-03 -3.102273494005203247e-02 -2.458329079672694206e-03
3.813483985140919685e-03 -3.209448978304862976e-02 1.561889611184597015e-02 -4.464759025722742081e-03 2.223344985395669937e-03 7.304507773369550705e-03 -1.481393468566238880e-03 -1.092404313385486603e-02 4.694702569395303726e-03 3.048299066722393036e-02
-1.481418777257204056e-02 -1.623295806348323822e-02 4.494813736528158188e-03 2.689074538648128510e-02 -1.209898013621568680e-02 -1.560641918331384659e-03 -1.430787239223718643e-02 1.701879873871803284e-02 -2.792834304273128510e-03 9.561970946379005909e-04
-1.104616466909646988e-02 -2.315329946577548981e-02 1.543383579701185226e-02 2.399655990302562714e-02 8.961997926235198975e-03 6.358462385833263397e-03 -6.380063947290182114e-03 -1.696526259183883667e-02 7.059108465909957886e-03 2.033047936856746674e-02
1.973884180188179016e-02 1.111231371760368347e-02 -8.900715038180351257e-03 5.155535880476236343e-03 -3.406496252864599228e-03 1.868783310055732727e-02 -2.051557786762714386e-02 1.971196196973323822e-02 -4.355926997959613800e-03 2.516507229302078485e-04
8.401835337281227112e-03 -1.149445865303277969e-02 1.642872765660285950e-02 1.704740524291992188e-02 2.797085419297218323e-02 -1.285975240170955658e-02 -4.097120836377143860e-03 -6.892472505569458008e-03 1.950629800558090210e-02 2.992346417158842087e-03
-1.994196884334087372e-02 -6.913988851010799408e-03 -1.575519144535064697e-02 9.052755311131477356e-03 3.224004060029983521e-02 -2.024416252970695496e-02 -1.067263819277286530e-02 -1.142780389636754990e-02 -3.218666883185505867e-03 1.925154589116573334e-03
-3.075139038264751434e-02 -1.070485915988683701e-02 4.934065509587526321e-03 4.045934416353702545e-03 1.489153690636157990e-02 -6.038323510438203812e-03 -5.298845935612916946e-03 1.874548383057117462e-03 3.996616229414939880e-03 -1.274976413697004318e-02
-1.927861198782920837e-02 -1.378157176077365875e-02 -9.857369586825370789e-03 4.480814561247825623e-03 -5.968181416392326355e-03 -1.325205527245998383e-02 -9.952632710337638855e-03 -8.566680364310741425e-03 -1.357682049274444580e-05 8.784860372543334961e-03
2.132819266989827156e-03 4.393873270601034164e-03 -1.183840353041887283e-02 -2.226847922429442406e-03 5.716479383409023285e-03 1.865738444030284882e-02 -1.253881584852933884e-02 2.412599511444568634e-02 -1.178527018055319786e-03 1.770931645296514034e-03
4.163206089287996292e-03 2.593271201476454735e-03 -1.507377531379461288e-02 1.390076708048582077e-02 1.558361947536468506e-02 3.907358739525079727e-03 -1.304158940911293030e-02 -1.952515915036201477e-02 -3.542165271937847137e-03 -8.181128650903701782e-03
1.383228879421949387e-02 9.844593703746795654e-03 1.867191493511199951e-02 -1.900864578783512115e-02 -1.587927900254726410e-02 4.075091797858476639e-03 1.251148246228694916e-02 8.675761520862579346e-03 1.709642820060253143e-02 -1.632771641016006470e-02
-5.676301196217536926e-03 9.127436205744743347e-03 -3.161085769534111023e-03 -1.429258100688457489e-02 1.153283566236495972e-02 1.490212976932525635e-02 -2.784572541713714600e-03 4.641106352210044861e-03 -7.973405532538890839e-03 -1.441255677491426468e-02
9.049311629496514797e-04 6.620252504944801331e-03 2.455538138747215271e-02 2.898944355547428131e-02 9.266482666134834290e-03 8.038911968469619751e-03 -9.937315247952938080e-03 -8.731408976018428802e-03 -5.122237373143434525e-03 8.868625387549400330e-03
-1.731796748936176300e-02 9.849557653069496155e-03 -1.148928701877593994e-02 1.627738773822784424e-02 -1.906477473676204681e-02 -1.266970112919807434e-02 -1.594408974051475525e-02 -1.068243104964494705e-02 -5.502900108695030212e-03 -1.294041331857442856e-02
1.313059031963348389e-02 1.269058138132095337e-02 -1.311411056667566299e-02 1.643783226609230042e-02 1.484259590506553650e-02 1.431377977132797241e-02 7.124681025743484497e-03 -2.572456374764442444e-03 -1.850900053977966309e-02 -6.154872477054595947e-03
-1.254668738692998886e-02 -1.702219992876052856e-02 7.440566550940275192e-03 5.990659818053245544e-03 4.800475202500820160e-03 -1.873968541622161865e-02 -7.269795518368482590e-03 2.389922592556104064e-04 -7.437225431203842163e-03 2.132082730531692505e-02
-3.607986960560083389e-03 6.256617605686187744e-03 -1.922241598367691040e-02 2.040885388851165771e-02 2.797680161893367767e-02 1.051085069775581360e-03 -1.498842425644397736e-02 -7.722298614680767059e-03 1.540454104542732239e-02 -1.280541066080331802e-02
-3.366742283105850220e-03 -1.248199678957462311e-02 6.161200813949108124e-03 -1.528206933289766312e-02 1.420773565769195557e-02 -2.350349910557270050e-03 1.033939979970455170e-02 -6.119831930845975876e-03 3.042612224817276001e-03 -9.466978721320629120e-03
1.592679321765899658e-02 8.621538057923316956e-03 1.370030734688043594e-02 1.752885058522224426e-02 -7.474044337868690491e-03 3.649229416623711586e-03 2.206365577876567841e-02 -1.621751673519611359e-02 -1.134774927049875259e-02 -9.643744677305221558e-03
-2.714727073907852173e-03 -2.194277243688702583e-03 1.020095311105251312e-02 -7.543571293354034424e-03 3.332726284861564636e-02 3.303104313090443611e-03 1.633384078741073608e-02 -8.669965900480747223e-03 9.405962191522121429e-03 1.473690383136272430e-03
-1.438366528600454330e-02 6.330083124339580536e-03 -1.357017923146486282e-02 -1.209398917853832245e-02 -1.858915202319622040e-02 1.575623825192451477e-02 4.644718486815690994e-03 5.431151017546653748e-03 1.559877209365367889e-02 -1.860956981545314193e-04
1.966992206871509552e-02 1.575719565153121948e-02 4.451629240065813065e-03 5.520558450371026993e-03 2.389075467362999916e-03 3.591835498809814453e-03 1.405452098697423935e-02 3.164890455082058907e-03 -1.297596562653779984e-02 -4.198742564767599106e-03
-1.808457076549530029e-02 -2.526312367990612984e-03 -6.546427030116319656e-03 2.926393970847129822e-02 4.750509280711412430e-03 1.408950611948966980e-02 8.356682024896144867e-03 -1.911890134215354919e-02 9.891293011605739594e-03 2.698086760938167572e-02
-1.182559132575988770e-02 -2.292643859982490540e-02 1.634667068719863892e-02 -8.074604906141757965e-03 -1.771041192114353180e-02 -8.794656954705715179e-03 -1.797941885888576508e-02 -1.843058504164218903e-02 1.909501105546951294e-02 -1.253555808216333389e-02
-1.797254011034965515e-02 9.900746867060661316e-03 -5.511008203029632568e-04 -1.813938841223716736e-02 6.965149194002151489e-03 1.210515666753053665e-02 1.717651030048727989e-04 5.088068544864654541e-03 -2.718419767916202545e-02 3.621115582063794136e-03
2.414232818409800529e-03 -1.576065085828304291e-02 1.409622281789779663e-02 -1.271594036370515823e-02 2.934239059686660767e-02 -3.384869312867522240e-03 2.528992109000682831e-02 2.539364807307720184e-02 -3.051040507853031158e-02 -4.563977476209402084e-03
1.538365031592547894e-04 1.961941085755825043e-02 -9.489624761044979095e-03 2.171892113983631134e-02 9.507151320576667786e-03 1.046437770128250122e-02 -9.296302683651447296e-03 -1.906352699734270573e-03 -2.820275956764817238e-03 2.098746597766876221e-03
3.576075658202171326e-03 1.525523513555526733e-02 4.109693691134452820e-03 9.025204926729202271e-04 1.733219623565673828e-02 1.698177307844161987e-03 1.004067622125148773e-02 -1.998420804738998413e-03 9.759876877069473267e-03 1.691094040870666504e-02
2.060921490192413330e-02 -1.708810217678546906e-02 -2.187148667871952057e-02 4.689550027251243591e-03 5.537064746022224426e-03 2.871779026463627815e-03 2.500920370221138000e-02 -3.171189920976758003e-03 1.381614618003368378e-02 -8.726757019758224487e-03
-7.413180079311132431e-03 1.606068760156631470e-02 1.118804141879081726e-02 1.880710758268833160e-02 1.938076131045818329e-02 -1.650512032210826874e-02 -7.145245559513568878e-03 -9.480618871748447418e-03 1.806647330522537231e-02 -1.841934956610202789e-02
8.701972663402557373e-03 -6.927929352968931198e-03 -1.596181839704513550e-02 -6.163498037494719028e-04 -1.476861536502838135e-02 -1.312370877712965012e-02 3.322295844554901123e-03 -4.986013285815715790e-03 -3.689455566927790642e-03 1.801835000514984131e-02
-1.185801438987255096e-02 -1.195650640875101089e-02 -2.042822353541851044e-02 2.084576711058616638e-02 2.369984984397888184e-03 2.689786255359649658e-03 1.692466810345649719e-02 4.153007641434669495e-03 1.218877453356981277e-02 -1.191200222820043564e-02
2.404183708131313324e-02 5.221706349402666092e-03 -1.210655830800533295e-02 5.545829772017896175e-04 1.058019604533910751e-02 3.519382327795028687e-03 8.093442767858505249e-03 1.985333394259214401e-03 7.539654150605201721e-03 9.623221121728420258e-03
6.587693467736244202e-03 9.693743661046028137e-03 -6.300564855337142944e-04 -9.826094843447208405e-03 1.475385576486587524e-02 1.706033200025558472e-02 1.191999018192291260e-02 8.372895419597625732e-03 5.740340799093246460e-03 -1.398303825408220291e-02
1.098482310771942139e-02 -5.266685038805007935e-03 4.244850948452949524e-03 -1.661136001348495483e-02 1.169357448816299438e-03 1.126006618142127991e-02 1.250062882900238037e-02 -4.965696483850479126e-03 4.343576729297637939e-04 8.020183071494102478e-03
3.872519358992576599e-03 1.133927423506975174e-02 9.663507225923240185e-04 -1.729653030633926392e-02 -2.530862018465995789e-02 5.714586935937404633e-03 1.967569580301642418e-03 -9.846760891377925873e-03 8.489034138619899750e-03 -3.622855059802532196e-03
-2.078292518854141235e-02 -5.732816178351640701e-03 -9.997241199016571045e-03 -1.043084170669317245e-02 7.777656428515911102e-03 1.489231083542108536e-02 -1.777308993041515350e-02 1.744192466139793396e-02 1.206484343856573105e-02 1.460918784141540527e-02
-1.850853860378265381e-02 1.068801432847976685e-02 -7.711055688560009003e-03 -1.366760861128568649e-02 2.447980642318725586e-02 -1.869439333677291870e-02 -1.140162069350481033e-02 1.892088353633880615e-02 -2.368411794304847717e-02 1.518180593848228455e-02
1.315936446189880371e-02 3.277252893894910812e-03 1.793540641665458679e-02 5.561400204896926880e-03 -2.369999140501022339e-02 5.528369918465614319e-03 -8.399942889809608459e-03 9.916448965668678284e-03 -1.673985272645950317e-02 1.568500511348247528e-02
-4.032133147120475769e-03 -1.948851160705089569e-03 -3.826649859547615051e-03 1.678312942385673523e-02 3.349281474947929382e-02 -3.568872052710503340e-04 -1.093633193522691727e-02 -8.402281440794467926e-03 -1.259944681078195572e-02 -1.904342672787606716e-03
-2.055335207842290401e-04 -1.250747032463550568e-02 5.809531547129154205e-03 1.630425825715065002e-02 7.409847807139158249e-03 -2.253275597468018532e-04 -2.422417281195521355e-03 1.479517389088869095e-02 -1.319462782703340054e-03 -1.359351165592670441e-02
-1.931338047143071890e-04 -2.145196869969367981e-02 4.812951665371656418e-03 2.049463242292404175e-02 -5.805606488138437271e-03 -1.756448857486248016e-02 -7.640908006578683853e-03 -1.738336496055126190e-02 -1.162847131490707397e-02 1.702376641333103180e-02
-8.227541111409664154e-03 -3.455039812251925468e-03 1.859809458255767822e-02 4.988842643797397614e-03 1.467472407966852188e-02 -1.409382279962301254e-02 1.265631988644599915e-02 -1.744018308818340302e-02 -2.352212788537144661e-03 1.848334260284900665e-02
9.347882610200031195e-07 -1.923804916441440582e-02 -1.241832785308361053e-02 1.002256385982036591e-02 1.705781556665897369e-03 1.930079236626625061e-02 -2.180666662752628326e-02 4.371431132312864065e-04 -1.042273081839084625e-02 2.299797721207141876e-02
1.326370984315872192e-02 -4.212056752294301987e-03 -1.080835051834583282e-02 3.018220886588096619e-03 -1.062363293021917343e-02 2.758300304412841797e-02 -1.286413427442312241e-02 -1.567764580249786377e-02 -1.161292660981416702e-02 -1.286048674955964088e-03
-2.265564538538455963e-02 -4.217667505145072937e-02 -3.988081123679876328e-03 4.123784136027097702e-03 2.870925469323992729e-03 -1.568388380110263824e-02 2.757194451987743378e-02 2.126813493669033051e-02 -1.822428405284881592e-02 1.256424374878406525e-02
5.139018874615430832e-03 2.487031742930412292e-03 -3.439064836129546165e-03 7.293079048395156860e-03 -6.611053831875324249e-03 5.585852079093456268e-03 -1.361799519509077072e-02 -1.178544014692306519e-02 -4.166997503489255905e-03 9.189937263727188110e-03
6.471051834523677826e-03 1.955223083496093750e-02 7.292149588465690613e-03 -6.187853403389453888e-03 1.360801979899406433e-02 -7.693269290030002594e-03 -1.073305960744619370e-02 1.479721069335937500e-02 -1.587824337184429169e-02 1.548247784376144409e-02
8.587552234530448914e-03 -1.123108714818954468e-02 1.391880773007869720e-02 -2.533277124166488647e-02 8.736479212529957294e-04 -1.457015983760356903e-02 9.415354579687118530e-03 2.908066660165786743e-02 9.506163187325000763e-04 2.134629758074879646e-03
-2.740763686597347260e-02 -1.330758351832628250e-02 -1.251827552914619446e-02 -4.434847738593816757e-03 2.421378158032894135e-02 -2.066928520798683167e-02 -3.952482249587774277e-03 -4.016998689621686935e-03 4.997256328351795673e-04 -1.144523173570632935e-02
9.592145681381225586e-03 -1.982079632580280304e-02 3.356573404744267464e-03 1.218480896204710007e-02 -1.871508546173572540e-02 -1.229352317750453949e-02 1.561031676828861237e-04 -5.448544863611459732e-03 -1.076203864067792892e-02 6.295713596045970917e-03
-2.079663611948490143e-02 -2.043955028057098389e-02 1.663947477936744690e-02 -1.755196787416934967e-02 3.900574520230293274e-03 -2.055970765650272369e-02 1.993968710303306580e-02 -1.190045941621065140e-02 1.415902376174926758e-02 -2.610499039292335510e-03
-1.553744357079267502e-02 1.983107998967170715e-03 8.068642579019069672e-03 -5.788641516119241714e-03 -7.686686236411333084e-03 -1.007821690291166306e-02 -1.199355535209178925e-02 -5.634601693600416183e-03 2.134334994480013847e-03 -4.093554802238941193e-03
-1.499271765351295471e-02 7.131796330213546753e-03 7.508721202611923218e-03 1.210591197013854980e-02 -2.391450107097625732e-05 -1.954974792897701263e-02 -1.194868423044681549e-02 -1.693238504230976105e-02 -5.557947792112827301e-03 -1.724690198898315430e-03
1.525503396987915039e-02 1.956757530570030212e-02 1.524502411484718323e-02 1.840926334261894226e-02 1.167531684041023254e-02 -7.991430349647998810e-03 5.344135686755180359e-03 1.188444718718528748e-02 -2.105303294956684113e-02 8.125688880681991577e-03
1.034842710942029953e-02 8.044333197176456451e-03 -1.027455180883407593e-02 1.982481032609939575e-02 -2.090781554579734802e-02 -1.607554219663143158e-02 3.306323196738958359e-03 1.601293683052062988e-02 -1.276103500276803970e-02 4.100371617823839188e-03
-1.997116953134536743e-03 9.271059185266494751e-03 -5.644866265356540680e-03 1.047182083129882812e-02 -1.174548524431884289e-03 1.422221586108207703e-02 7.005520164966583252e-04 -1.047938223928213120e-02 1.203624531626701355e-02 -7.249481976032257080e-03
1.154969818890094757e-02 -1.170578598976135254e-02 -2.079174853861331940e-02 1.077704504132270813e-02 1.758806407451629639e-03 -1.754295453429222107e-02 -4.148603882640600204e-03 1.275944057852029800e-02 4.821028560400009155e-03 6.081193685531616211e-03
-4.214248154312372208e-03 -5.443463567644357681e-03 1.426182221621274948e-02 -4.922362975776195526e-03 -4.808947909623384476e-03 -1.110378373414278030e-02 -9.335600771009922028e-03 -6.768734194338321686e-03 -1.196769997477531433e-03 7.430464494973421097e-03
-1.477504428476095200e-02 -2.635302022099494934e-02 2.472932264208793640e-02 3.567734733223915100e-03 2.455666661262512207e-02 -9.841143153607845306e-03 -9.473770856857299805e-03 -1.917615532875061035e-02 -6.552207283675670624e-03 -1.525026559829711914e-02
-1.466615707613527775e-03 7.644952740520238876e-03 2.022020891308784485e-02 -5.998156964778900146e-03 -1.234150584787130356e-02 3.787059104070067406e-04 -7.597168907523155212e-03 -1.032921485602855682e-02 -1.301653217524290085e-02 9.139635600149631500e-03
6.603293586522340775e-03 -3.470239415764808655e-02 -3.754480043426156044e-03 7.735149003565311432e-03 -2.265512011945247650e-02 -5.673651583492755890e-03 -1.691708527505397797e-02 -7.871616631746292114e-03 -1.181416120380163193e-02 -1.116825733333826065e-02
-1.503386627882719040e-02 -2.839251048862934113e-02 1.941184140741825104e-02 -2.789223100990056992e-03 -8.131246082484722137e-03 -1.450380031019449234e-02 4.430059809237718582e-03 3.061595838516950607e-03 2.553746104240417480e-02 1.749387755990028381e-02
4.972206428647041321e-03 4.343701992183923721e-03 -3.635217144619673491e-04 8.718635886907577515e-03 9.887900203466415405e-03 -7.853971794247627258e-03 -7.614363450556993484e-03 -3.643255215138196945e-03 -1.727242488414049149e-05 -5.483074113726615906e-03
1.221035048365592957e-02 -1.215456705540418625e-02 -3.062002360820770264e-03 1.009891554713249207e-02 -2.323774620890617371e-03 -1.697046123445034027e-02 2.807531319558620453e-02 -9.957563132047653198e-03 -1.263714861124753952e-02 -1.818925887346267700e-02
-1.797023788094520569e-02 -3.953070193529129028e-02 9.115323424339294434e-03 -9.158388711512088776e-03 1.490253210067749023e-02 -6.175956805236637592e-04 6.260915193706750870e-03 1.619692519307136536e-02 -2.075486443936824799e-02 -3.676484804600477219e-03
-1.569334976375102997e-02 -2.529121004045009613e-02 -2.922561718150973320e-03 -6.926075438968837261e-04 -4.836307838559150696e-03 5.097635090351104736e-03 -2.524014934897422791e-02 -1.241848524659872055e-02 -7.887903600931167603e-03 -3.335105953738093376e-03
4.735373426228761673e-03 7.632900029420852661e-03 -1.320186187513172626e-03 1.179637014865875244e-02 2.853240817785263062e-03 7.674004882574081421e-03 -7.490060292184352875e-03 6.314827129244804382e-03 -8.446164429187774658e-04 9.166998788714408875e-03
7.956570014357566833e-03 -2.712482027709484100e-02 4.458413925021886826e-03 4.274235572665929794e-03 -9.231969714164733887e-03 -1.560037396848201752e-02 4.699705634266138077e-03 1.556583214551210403e-02 -7.980562746524810791e-03 2.108735591173171997e-02
-2.473925612866878510e-02 -1.146048586815595627e-02 7.993588224053382874e-03 1.874171383678913116e-02 7.444245740771293640e-03 -2.144142286852002144e-03 -2.160483272746205330e-04 -2.066423883661627769e-03 2.241711877286434174e-02 -1.658530905842781067e-02
1.062816753983497620e-02 -2.308701165020465851e-02 1.142989145591855049e-03 2.402784302830696106e-03 -7.760252803564071655e-03 1.136626955121755600e-02 -9.597093798220157623e-03 2.314724586904048920e-02 -1.121038664132356644e-02 -1.025721244513988495e-02
-9.685348719358444214e-03 1.780222356319427490e-02 1.806364953517913818e-02 1.246119663119316101e-02 -7.862788625061511993e-03 -9.873472154140472412e-04 -1.446160860359668732e-02 -3.694612532854080200e-04 1.158150285482406616e-02 -1.438387297093868256e-02
3.474701894447207451e-03 -1.816617697477340698e-02 1.383600942790508270e-02 1.553305983543395996e-02 -1.485776714980602264e-02 -8.667766116559505463e-03 1.293540745973587036e-02 -5.832946859300136566e-03 -8.198174647986888885e-03 5.301535595208406448e-03
1.396124833263456821e-03 -1.848016679286956787e-02 1.404896844178438187e-02 2.052813023328781128e-02 -1.093629747629165649e-03 -1.300886645913124084e-02 9.756777435541152954e-04 -2.044916525483131409e-02 -1.426020823419094086e-02 -1.751707866787910461e-03
8.857667446136474609e-03 -1.003908924758434296e-02 1.390086486935615540e-02 -4.677698016166687012e-03 1.821385696530342102e-03 -1.409649848937988281e-03 9.308412671089172363e-03 1.963461190462112427e-02 1.911194622516632080e-02 2.728812396526336670e-04
6.627224851399660110e-03 -2.565933158621191978e-03 2.692127600312232971e-03 -5.345900543034076691e-03 -1.420649420469999313e-02 2.797737717628479004e-03 2.431205287575721741e-02 5.027880426496267319e-03 -1.783596724271774292e-02 1.850467524491250515e-03
1.085237879306077957e-02 -7.729749195277690887e-03 1.901918277144432068e-02 -1.018736511468887329e-03 -2.981238998472690582e-03 -1.983571797609329224e-02 1.179180666804313660e-02 1.652652397751808167e-02 5.561467260122299194e-04 -1.139397360384464264e-02
-7.324687205255031586e-03 -9.217295795679092407e-03 -5.298105534166097641e-03 -1.944738626480102539e-02 6.129829213023185730e-03 -9.118486195802688599e-03 2.061605826020240784e-02 1.504595950245857239e-02 -1.216795668005943298e-02 -4.349975846707820892e-03
1.118398550897836685e-02 4.554832819849252701e-03 -5.285172723233699799e-03 2.650970360264182091e-03 7.437161169946193695e-03 -1.275159977376461029e-02 -1.196471415460109711e-02 2.196766249835491180e-02 1.327803079038858414e-02 1.064105518162250519e-02
-5.048310849815607071e-03 2.211959473788738251e-02 -1.281087379902601242e-02 -2.527441829442977905e-04 -1.246483717113733292e-02 -2.565348334610462189e-02 2.843803353607654572e-02 -1.570302061736583710e-02 9.212598670274019241e-04 -3.659431240521371365e-04
2.071786671876907349e-03 1.847349666059017181e-02 1.672899723052978516e-02 1.512719085440039635e-03 5.752219352871179581e-03 -3.558215219527482986e-03 -8.123222738504409790e-03 7.588670123368501663e-04 8.311611600220203400e-03 -4.429224878549575806e-03
-4.549812059849500656e-03 8.659173035994172096e-04 2.535650273784995079e-03 2.962324023246765137e-02 -2.041783370077610016e-02 1.880900561809539795e-02 -1.521690562367439270e-02 -3.616226138547062874e-03 1.063225604593753815e-02 1.666732504963874817e-02
-8.859397843480110168e-03 4.918944323435425758e-04 2.233354002237319946e-02 -2.237707842141389847e-03 1.160299591720104218e-02 -2.112404629588127136e-02 1.646662317216396332e-02 -1.218909211456775665e-02 1.117825508117675781e-02 1.194033958017826080e-02
-1.097949221730232239e-02 -5.636502522975206375e-03 1.638578623533248901e-02 9.695799089968204498e-03 -1.039042323827743530e-02 -1.131309941411018372e-02 5.993377417325973511e-03 -1.425223518162965775e-02 5.769964773207902908e-03 1.756423152983188629e-02
-1.166439335793256760e-02 1.158619578927755356e-02 7.368211634457111359e-03 -1.788894087076187134e-02 -2.082503214478492737e-02 2.098031528294086456e-02 1.493227086029946804e-03 1.798585429787635803e-02 -6.609602831304073334e-03 7.381243631243705750e-04
1.648535206913948059e-02 -6.890011951327323914e-03 -1.691131293773651123e-02 1.438440848141908646e-02 -7.705647032707929611e-03 -6.846803706139326096e-03 -2.128197997808456421e-02 2.202832140028476715e-02 -3.063247306272387505e-03 -1.557470113039016724e-02
-7.468948024325072765e-04 1.052048336714506149e-02 7.825990207493305206e-03 -1.570842927321791649e-03 -1.996850036084651947e-02 -3.572371788322925568e-03 -1.023085042834281921e-02 1.103659905493259430e-02 -1.257276814430952072e-02 -1.174565963447093964e-02
8.422975428402423859e-03 -2.150615211576223373e-03 -1.402048300951719284e-02 -1.331519149243831635e-02 3.828486427664756775e-03 -1.934256590902805328e-02 -8.134488016366958618e-04 -2.407690137624740601e-02 -1.581373065710067749e-02 -8.790966123342514038e-03
-1.008692011237144470e-02 -8.783773519098758698e-03 3.244672901928424835e-03 -1.761395670473575592e-02 3.141121705994009972e-03 -1.744204759597778320e-02 -5.135601386427879333e-03 2.416412346065044403e-02 4.097534343600273132e-03 8.818108588457107544e-03
-2.111840806901454926e-02 2.974045462906360626e-02 3.437463194131851196e-03 -6.590258795768022537e-03 -4.767910111695528030e-03 -5.573497037403285503e-04 -4.009389132261276245e-02 -2.680910751223564148e-02 1.909697242081165314e-02 -2.031045779585838318e-02
2.097197063267230988e-02 -1.877160370349884033e-02 8.792408742010593414e-03 1.534031983464956284e-02 -7.918666116893291473e-03 1.305426843464374542e-02 -4.257910884916782379e-03 4.733490757644176483e-03 -1.641933433711528778e-02 2.045232057571411133e-02
-1.439326629042625427e-02 -6.112652830779552460e-03 -7.328729145228862762e-03 1.371740549802780151e-02 1.018250174820423126e-02 -9.022788144648075104e-03 -8.360649459064006805e-03 -1.170404348522424698e-02 1.699902489781379700e-02 -9.149752557277679443e-03
8.472699671983718872e-03 7.506576832383871078e-03 -1.224327180534601212e-02 -5.433070939034223557e-03 1.197605114430189133e-02 7.314112037420272827e-03 -3.510864218696951866e-03 3.091292688623070717e-03 8.701791055500507355e-03 3.932162653654813766e-03
5.841273348778486252e-03 -6.234682165086269379e-03 -1.226332224905490875e-02 -3.394946455955505371e-03 -1.150860637426376343e-02 -8.619553409516811371e-03 -6.475849077105522156e-03 -8.532137610018253326e-03 -1.027434598654508591e-02 -8.143456652760505676e-03
1.848313212394714355e-02 1.909397542476654053e-05 1.958768442273139954e-02 -1.596939936280250549e-02 1.417976617813110352e-02 1.302458718419075012e-02 1.148718968033790588e-02 9.900355711579322815e-03 1.678328961133956909e-03 -2.066813968122005463e-02
2.078197523951530457e-02 4.356299992650747299e-03 -1.917386800050735474e-02 3.346478566527366638e-03 -4.856092389672994614e-03 1.955660991370677948e-04 2.859011758118867874e-03 -8.620381355285644531e-03 -8.522968739271163940e-03 1.265091728419065475e-02
-1.033352455124258995e-03 3.585468977689743042e-03 -1.953914761543273926e-06 -5.194984376430511475e-03 1.183176506310701370e-02 -1.632752828299999237e-02 -3.988567739725112915e-03 -2.093653194606304169e-02 2.227969467639923096e-03 2.252886071801185608e-03
-1.940024900250136852e-03 -2.777638658881187439e-02 -1.563040353357791901e-02 1.498420536518096924e-02 1.302927359938621521e-02 -9.445481002330780029e-03 -6.773042492568492889e-03 3.168078511953353882e-02 9.373532608151435852e-03 -2.646277658641338348e-02
4.546134732663631439e-03 -1.459627691656351089e-02 -1.507154945284128189e-02 4.156366339884698391e-04 -3.406373551115393639e-03 -2.269132807850837708e-02 3.539709374308586121e-03 -7.752011879347264767e-04 -2.052275091409683228e-02 6.063983310014009476e-03
-2.239856682717800140e-02 3.040759824216365814e-02 -5.243718624114990234e-05 1.825973391532897949e-03 9.973123669624328613e-03 -3.566200146451592445e-03 -9.210437536239624023e-03 8.227396756410598755e-03 -3.387685865163803101e-03 -2.358916215598583221e-02
-1.482600928284227848e-03 -1.283119898289442062e-02 5.050983163528144360e-04 -4.694129806011915207e-03 -9.144537150859832764e-03 -6.153499707579612732e-03 -5.340311210602521896e-03 7.362741511315107346e-03 -1.803746633231639862e-02 -4.122790414839982986e-03
-1.832684129476547241e-02 -1.497252564877271652e-02 -1.431096065789461136e-02 1.979737356305122375e-02 1.923370873555541039e-03 -1.262190565466880798e-02 -2.042868547141551971e-02 1.483984291553497314e-02 5.843114573508501053e-03 1.031005103141069412e-02
-1.871788129210472107e-02 6.302261725068092346e-03 4.980816040188074112e-03 -1.352685876190662384e-02 1.451695524156093597e-02 -1.911002583801746368e-02 -6.184784229844808578e-03 -2.756192162632942200e-02 -1.087262853980064392e-02 -7.474218495190143585e-03
