-4.104330763220787048e-02 -1.375606167130172253e-03 -1.525554507970809937e-01 -1.672236174345016479e-01 1.816752552986145020e-02 1.020239666104316711e-01 5.097468569874763489e-02 -1.569270938634872437e-01 1.085953190922737122e-01 5.897203460335731506e-02
5.967857316136360168e-03 -1.271098945289850235e-02 3.513421118259429932e-02 -6.091863289475440979e-02 -1.961068958044052124e-01 9.510153532028198242e-02 -3.956088796257972717e-03 -1.007116734981536865e-01 1.042504981160163879e-01 9.438385814428329468e-02
7.675745338201522827e-02 -1.112103536725044250e-01 -4.905325174331665039e-02 3.623646497726440430e-02 8.502911776304244995e-02 1.436056345701217651e-01 -1.228269748389720917e-02 1.154672056436538696e-01 -1.341476291418075562e-01 8.609218150377273560e-02
-2.809439599514007568e-01 1.558805853128433228e-01 1.169643551111221313e-01 2.787347882986068726e-02 -2.319590151309967041e-01 -7.880502194166183472e-02 -1.653142571449279785e-01 1.217595189809799194e-01 9.245500713586807251e-02 5.589294061064720154e-02
-9.672284871339797974e-02 2.155454456806182861e-01 -1.001883819699287415e-01 -1.148359924554824829e-01 -8.920011669397354126e-02 -9.992794692516326904e-02 -1.131850779056549072e-01 -1.009913682937622070e-01 7.371530681848526001e-02 7.462602108716964722e-02
-1.622330695390701294e-01 3.985202405601739883e-03 7.709647063165903091e-03 2.672285772860050201e-02 -1.196118071675300598e-01 -7.048881798982620239e-02 3.260035440325737000e-02 7.895660586655139923e-03 1.141453459858894348e-01 -1.007924750447273254e-01
-1.031297296285629272e-01 -7.813315093517303467e-02 -4.291540011763572693e-02 6.340195238590240479e-02 -9.089733660221099854e-02 6.539347022771835327e-02 1.349705010652542114e-01 -6.657626479864120483e-02 -1.090358793735504150e-01 -1.113525480031967163e-01
7.174354046583175659e-02 -2.305492991581559181e-03 -1.160414442420005798e-01 -1.072973534464836121e-01 -4.515096545219421387e-02 -2.910297550261020660e-02 -1.220435127615928650e-01 3.660935536026954651e-02 -1.830209232866764069e-02 -7.788683474063873291e-02
-1.316648274660110474e-01 4.441415145993232727e-02 -3.437628597021102905e-02 -8.686674386262893677e-02 -6.112354248762130737e-02 -1.083060055971145630e-01 9.362099319696426392e-02 -9.549143910408020020e-02 5.457198712974786758e-03 -6.506323814392089844e-02
1.215590611100196838e-01 2.561540110036730766e-03 1.073845699429512024e-01 -1.734590679407119751e-01 6.230458244681358337e-02 -1.054402068257331848e-01 -8.810355328023433685e-03 -1.739543676376342773e-01 1.320941001176834106e-01 -5.961078032851219177e-02
-1.297783851623535156e-01 -3.895454108715057373e-02 1.024582907557487488e-01 -1.870077401399612427e-01 2.771995216608047485e-02 6.438380479812622070e-02 -2.346296757459640503e-01 -7.320150732994079590e-02 -6.981481332331895828e-03 -9.896562993526458740e-02
1.284686625003814697e-01 1.067007258534431458e-01 2.811270207166671753e-02 1.144760400056838989e-01 -2.477695494890213013e-01 -7.278428971767425537e-02 -2.088919579982757568e-01 5.184954404830932617e-02 1.016357317566871643e-01 1.481999605894088745e-01
-4.218474030494689941e-02 -2.873068489134311676e-02 6.060973182320594788e-02 -7.315637916326522827e-02 1.462177038192749023e-01 -4.833285510540008545e-02 -5.112143699079751968e-03 -2.102983929216861725e-02 -1.403004378080368042e-01 -4.799445345997810364e-02
-9.555593132972717285e-02 2.007537707686424255e-02 -9.910102933645248413e-02 -2.924151718616485596e-02 -2.464044466614723206e-02 -1.092732474207878113e-01 -2.019391208887100220e-02 -6.797517836093902588e-02 1.249877065420150757e-01 1.074798032641410828e-01
6.363288313150405884e-02 1.069494187831878662e-01 -1.408866643905639648e-01 8.867044001817703247e-03 1.931696385145187378e-01 9.303357452154159546e-02 5.689121037721633911e-02 7.755129039287567139e-02 3.496936336159706116e-02 -7.791383564472198486e-02
-5.106852948665618896e-02 -1.284251660108566284e-01 4.177210107445716858e-02 -6.969213485717773438e-02 1.133596077561378479e-01 4.520490393042564392e-02 -5.200267210602760315e-02 5.884051322937011719e-02 -1.150098219513893127e-01 -5.332967266440391541e-03
-7.740070670843124390e-02 -4.819242283701896667e-02 -1.173999533057212830e-01 -2.888819389045238495e-02 1.818108260631561279e-01 -3.155513480305671692e-02 -2.124038785696029663e-01 -1.082589626312255859e-01 -1.194209083914756775e-01 1.474082097411155701e-02
1.095875203609466553e-01 1.153684407472610474e-01 -2.568524330854415894e-02 -6.591065227985382080e-02 -7.837186753749847412e-02 -3.595983609557151794e-02 -1.274980232119560242e-02 6.760434806346893311e-02 -4.231235757470130920e-02 1.822115667164325714e-02
-1.223955899477005005e-01 -1.511525213718414307e-01 -1.096668168902397156e-01 -8.803934603929519653e-02 -5.722318217158317566e-02 -1.001952216029167175e-03 4.616593476384878159e-03 -1.067679002881050110e-01 -2.750016748905181885e-02 -8.865787833929061890e-02
-4.838946089148521423e-02 1.076202467083930969e-01 4.149372503161430359e-02 1.211939677596092224e-01 6.195226684212684631e-02 4.014592990279197693e-02 -9.818647988140583038e-03 1.212130561470985413e-01 -1.400859355926513672e-01 -7.389680296182632446e-02
-1.366624534130096436e-01 -7.471492886543273926e-02 -9.199231863021850586e-04 -1.017047092318534851e-01 -1.506060361862182617e-01 -2.080659754574298859e-02 -4.075057432055473328e-02 -9.226940572261810303e-02 -7.071087509393692017e-02 -2.915307879447937012e-02
-1.231453102082014084e-02 -2.263327687978744507e-01 1.963394135236740112e-01 1.340837962925434113e-02 -2.106099873781204224e-01 4.284172132611274719e-02 -1.666507497429847717e-02 6.501057744026184082e-02 -1.189092472195625305e-01 2.931380458176136017e-02
1.837227642536163330e-01 1.767292618751525879e-02 -1.248878911137580872e-01 -7.817893475294113159e-02 1.098248809576034546e-01 6.808621436357498169e-02 -6.162187084555625916e-02 -7.897297292947769165e-02 -3.892728313803672791e-02 1.105007156729698181e-01
1.600618287920951843e-02 7.461206614971160889e-02 -1.651313528418540955e-02 3.843233734369277954e-02 1.357035040855407715e-01 -1.045150868594646454e-02 7.543685287237167358e-02 -4.881166387349367142e-03 4.108171910047531128e-02 2.958661317825317383e-02
-1.317316144704818726e-01 1.100831553339958191e-01 -6.938958913087844849e-02 -1.176514551043510437e-01 1.430310755968093872e-01 -4.872865974903106689e-02 -1.491467505693435669e-01 -1.418131887912750244e-01 -1.163857057690620422e-02 3.835010901093482971e-02
-1.108938455581665039e-01 -8.365163952112197876e-02 1.024418175220489502e-01 -1.422210186719894409e-01 1.194462254643440247e-01 8.112864196300506592e-02 -2.784243971109390259e-02 -1.672133058309555054e-01 7.789114862680435181e-02 1.185676977038383484e-01
1.573315113782882690e-01 -5.735130235552787781e-02 -8.099895715713500977e-02 -9.154121577739715576e-02 9.728451818227767944e-02 9.550885111093521118e-02 -1.439682673662900925e-02 -5.617314204573631287e-02 -1.203849613666534424e-01 1.094381213188171387e-01
4.661814123392105103e-02 -4.799889400601387024e-02 2.249252982437610626e-02 -8.545745909214019775e-02 -1.685249805450439453e-02 -5.435052514076232910e-02 3.737265616655349731e-02 3.174059092998504639e-02 1.801433041691780090e-02 -7.619266957044601440e-02
-7.254560291767120361e-02 1.437512189149856567e-01 -7.699920237064361572e-02 -7.530097663402557373e-02 3.560805693268775940e-02 -1.457706987857818604e-01 -1.479601114988327026e-01 7.139440625905990601e-02 9.342435002326965332e-02 9.372729808092117310e-02
-1.108596026897430420e-01 -2.782810106873512268e-02 -2.552125137299299240e-03 6.760410219430923462e-02 8.415383100509643555e-02 2.753463108092546463e-03 -2.101792721077799797e-03 -1.421966999769210815e-01 5.732863396406173706e-02 1.301531940698623657e-01
-6.337632983922958374e-02 -1.251770406961441040e-01 7.738062739372253418e-02 6.305981427431106567e-02 1.024369522929191589e-02 -8.529473096132278442e-02 -1.423285901546478271e-02 -1.238940954208374023e-01 -1.219885721802711487e-01 -7.185649871826171875e-02
-1.533224135637283325e-01 1.107680350542068481e-01 -5.330686271190643311e-02 6.842181086540222168e-02 -1.021725833415985107e-01 5.142590776085853577e-02 -4.799436032772064209e-02 -6.371489912271499634e-02 -3.778655454516410828e-02 -8.174994587898254395e-02
1.420927885919809341e-02 -1.135508567094802856e-01 -4.317045584321022034e-02 6.678450852632522583e-02 7.203876972198486328e-02 -1.217958927154541016e-01 2.166777476668357849e-02 9.800711274147033691e-02 -4.231699928641319275e-02 1.349400430917739868e-01
-7.437808811664581299e-02 -1.385092437267303467e-01 1.228898391127586365e-01 -4.288059473037719727e-02 -1.006536483764648438e-01 -1.412124931812286377e-01 -7.740502804517745972e-02 1.530767884105443954e-02 7.785335183143615723e-02 -1.013523414731025696e-01
-5.520130693912506104e-02 -1.427609175443649292e-01 1.076075062155723572e-01 1.149609126150608063e-02 -9.537761658430099487e-02 -8.822083473205566406e-02 5.047357827425003052e-02 3.628889098763465881e-02 1.268018484115600586e-01 -8.990119397640228271e-02
-1.912611573934555054e-01 -6.948170810937881470e-02 1.499238312244415283e-01 1.564982682466506958e-01 -3.355888649821281433e-02 2.735354378819465637e-02 -1.581295877695083618e-01 1.633578389883041382e-01 -8.615696430206298828e-02 5.757575482130050659e-02
6.714334338903427124e-02 5.878352373838424683e-02 1.130477786064147949e-01 4.065861552953720093e-02 -1.182440575212240219e-02 -8.632487058639526367e-02 1.103452071547508240e-01 -1.390659213066101074e-01 1.020647734403610229e-01 -9.771478176116943359e-02
7.386364042758941650e-02 -1.546542043797671795e-03 -1.163863614201545715e-01 -3.828153759241104126e-02 -9.745048731565475464e-02 -1.465879827737808228e-01 7.243204396218061447e-03 6.759373843669891357e-02 -4.373248293995857239e-02 -7.119285315275192261e-02
-1.426143050193786621e-01 6.558962911367416382e-02 -6.807733327150344849e-02 -6.793963164091110229e-02 -9.913812577724456787e-02 -3.968238458037376404e-02 1.733191311359405518e-02 8.058354258537292480e-02 3.145733475685119629e-02 -1.186550259590148926e-01
-1.469726562500000000e-01 1.303183585405349731e-01 -1.551322638988494873e-01 -6.743453443050384521e-02 1.315051466226577759e-01 -1.554441154003143311e-01 -1.250205338001251221e-01 3.936646133661270142e-02 -1.707099527120590210e-01 2.824368141591548920e-02
1.182559877634048462e-01 -2.612231858074665070e-02 1.191000044345855713e-01 1.225655898451805115e-01 -1.184155791997909546e-01 9.685657173395156860e-02 -3.764406591653823853e-02 -1.418439149856567383e-01 2.519609406590461731e-02 3.927223011851310730e-02
-1.049804985523223877e-01 4.369731247425079346e-02 -1.108843460679054260e-01 -1.390025317668914795e-01 1.255521178245544434e-01 2.307876944541931152e-03 7.232277095317840576e-02 -5.766247212886810303e-02 3.061945736408233643e-02 9.856471419334411621e-02
5.850426107645034790e-02 1.383350044488906860e-01 1.289538890123367310e-01 -7.950766384601593018e-02 -5.591402202844619751e-02 -1.511265635490417480e-01 1.111290305852890015e-01 -1.424966305494308472e-01 1.294767670333385468e-02 7.864330708980560303e-02
-9.182479977607727051e-02 6.477596610784530640e-02 -6.867363303899765015e-02 3.354781866073608398e-02 -1.196763738989830017e-01 -9.436727501451969147e-03 3.663355857133865356e-02 -1.767185283824801445e-03 -9.720288962125778198e-02 -7.801151275634765625e-02
-3.705000132322311401e-02 -1.836471818387508392e-02 1.928884387016296387e-01 1.575339883565902710e-01 2.231409959495067596e-02 -1.411283910274505615e-01 -1.084371283650398254e-01 2.193944156169891357e-01 7.727814372628927231e-03 -7.650955766439437866e-02
7.323028147220611572e-02 -6.007247045636177063e-02 3.391503915190696716e-02 9.902628511190414429e-02 -1.262611895799636841e-02 5.074620991945266724e-02 2.744769677519798279e-02 1.928817853331565857e-02 1.107068881392478943e-01 1.305929124355316162e-01
-1.259580403566360474e-01 -1.282501686364412308e-02 -1.311089545488357544e-01 -9.975570440292358398e-02 -1.022242233157157898e-01 1.256443113088607788e-01 9.934858232736587524e-02 7.192699611186981201e-02 -1.818873174488544464e-02 7.475671172142028809e-02
7.288628816604614258e-02 1.201229393482208252e-01 2.045507309958338737e-03 1.305609345436096191e-01 1.179211661219596863e-01 -1.489199995994567871e-01 -1.912340894341468811e-02 7.571874558925628662e-02 6.669984757900238037e-02 -4.359765350818634033e-02
-3.052777610719203949e-03 -1.820304691791534424e-01 -2.069504261016845703e-01 -5.444403737783432007e-03 -2.219781838357448578e-02 1.490583419799804688e-01 -1.815433353185653687e-01 -8.410467952489852905e-02 -1.636068671941757202e-01 1.546554714441299438e-01
-6.404123455286026001e-02 1.815971285104751587e-01 -9.784808754920959473e-02 -1.736941486597061157e-01 1.571417227387428284e-02 -2.255162969231605530e-02 -1.174213271588087082e-02 -3.077057190239429474e-02 -2.619087696075439453e-02 1.136313099414110184e-02
-6.687451153993606567e-02 5.983529612421989441e-02 1.394232213497161865e-01 -2.250101976096630096e-02 -5.397530645132064819e-02 -4.748700652271509171e-03 1.776799932122230530e-02 -3.111518174409866333e-02 -8.226556330919265747e-02 -6.998916715383529663e-02
8.468533307313919067e-02 1.037746667861938477e-01 7.675612717866897583e-02 2.416048757731914520e-02 1.222100183367729187e-01 -9.670879691839218140e-02 -4.637935757637023926e-02 6.971137970685958862e-02 1.317674666643142700e-01 1.195634528994560242e-01
-9.823555499315261841e-02 1.222835630178451538e-01 -7.602208852767944336e-02 6.246317550539970398e-02 -1.184429451823234558e-01 4.287075623869895935e-02 1.239658817648887634e-01 -6.621307134628295898e-02 3.473230823874473572e-02 -1.189808771014213562e-01
-6.658080965280532837e-02 -8.363122493028640747e-02 -1.774295717477798462e-01 1.240063458681106567e-02 2.360989898443222046e-01 4.125007614493370056e-02 1.243736781179904938e-02 -3.381899371743202209e-02 -1.153951436281204224e-01 -1.175216287374496460e-01
-9.303042292594909668e-02 1.784571632742881775e-02 6.017597019672393799e-02 -2.660738117992877960e-02 -3.194922581315040588e-02 -1.128994077444076538e-01 1.373576968908309937e-01 3.268751874566078186e-02 -1.297312527894973755e-01 -7.073035836219787598e-02
7.371741533279418945e-02 -1.022273227572441101e-01 -1.384652256965637207e-01 -7.479949295520782471e-02 9.561849385499954224e-02 -1.591027155518531799e-02 -6.885242182761430740e-03 1.214193403720855713e-01 7.745488733053207397e-02 -6.603132933378219604e-02
-6.111105158925056458e-02 -1.646055281162261963e-01 1.135963276028633118e-01 1.294194608926773071e-01 -2.850257754325866699e-01 1.310920715332031250e-01 -1.023173704743385315e-01 -1.516338884830474854e-01 -7.999564707279205322e-02 1.045945435762405396e-01
-5.239646509289741516e-02 -2.298056520521640778e-02 -9.412878751754760742e-02 -1.463931053876876831e-01 7.201989740133285522e-02 -9.369894862174987793e-02 -1.583018526434898376e-02 1.694599986076354980e-01 -8.518483489751815796e-02 7.436304539442062378e-02
3.167434409260749817e-02 3.381290286779403687e-02 6.164795160293579102e-02 -1.112259104847908020e-01 7.224871218204498291e-02 -4.373119026422500610e-02 4.678154364228248596e-02 1.000814214348793030e-01 1.340518891811370850e-01 3.536637872457504272e-02
5.745863169431686401e-02 1.448625028133392334e-01 -3.347447887063026428e-02 -1.241455078125000000e-01 2.177803516387939453e-01 -3.663740307092666626e-02 1.756388098001480103e-01 -1.750830262899398804e-01 5.510113760828971863e-02 6.563443224877119064e-03
9.717652946710586548e-02 -1.342081874608993530e-01 -4.487148299813270569e-02 5.291925743222236633e-02 -7.889425754547119141e-02 -2.075544744729995728e-02 7.742663472890853882e-02 -1.807881332933902740e-02 3.035440854728221893e-02 -1.124867275357246399e-01
-1.622936129570007324e-01 3.462427854537963867e-02 -2.026291750371456146e-02 -6.535769253969192505e-02 -6.705347448587417603e-02 1.260744631290435791e-01 -4.912983626127243042e-02 -5.532505735754966736e-02 9.919763542711734772e-03 -3.176920488476753235e-02
7.239793241024017334e-02 1.314626336097717285e-01 1.555105019360780716e-02 5.487719923257827759e-02 4.751698300242424011e-02 5.034937709569931030e-02 1.218482926487922668e-01 1.381219625473022461e-01 1.118589714169502258e-01 -5.436569079756736755e-02
1.105484515428543091e-01 9.318655729293823242e-02 -9.053652733564376831e-02 2.824056334793567657e-02 8.388930559158325195e-02 -1.094090789556503296e-01 -1.408723592758178711e-01 2.433229237794876099e-02 -3.921886160969734192e-02 -9.925477951765060425e-02
2.836372144520282745e-02 -1.036275923252105713e-02 -1.023056134581565857e-01 -9.004660695791244507e-02 -9.045115113258361816e-02 -1.461350172758102417e-01 -1.450622528791427612e-01 4.959452897310256958e-02 1.767904497683048248e-02 -1.066990941762924194e-01
2.218025736510753632e-02 -1.377935856580734253e-01 -1.460466068238019943e-03 -4.855611361563205719e-03 3.250002488493919373e-02 -3.059801273047924042e-02 -1.101853027939796448e-01 1.452634632587432861e-01 -1.079638674855232239e-02 -7.634453009814023972e-03
3.026450984179973602e-02 7.241290807723999023e-02 1.826728433370590210e-01 -1.589788496494293213e-01 8.065862208604812622e-02 6.171221286058425903e-02 -2.771534211933612823e-02 -1.308151334524154663e-01 -6.105067953467369080e-02 -2.183768898248672485e-02
-1.633678674697875977e-01 7.106478512287139893e-02 -7.856527715921401978e-02 -2.020768970251083374e-01 1.399296075105667114e-01 9.770664572715759277e-02 4.754843562841415405e-02 -4.661156982183456421e-02 -3.818271681666374207e-02 8.439005352556705475e-03
-1.367232948541641235e-01 1.093496102839708328e-02 1.147204935550689697e-01 -1.194102540612220764e-01 -1.644377112388610840e-01 -1.086030006408691406e-01 -1.157639995217323303e-01 -5.232388526201248169e-02 -1.501886844635009766e-01 1.480916440486907959e-01
-1.302640885114669800e-01 3.468887880444526672e-02 -1.090619266033172607e-01 3.586145490407943726e-02 9.430947154760360718e-02 -4.520145803689956665e-02 3.055352717638015747e-02 2.604672044981271029e-05 -1.159904226660728455e-01 -1.087017823010683060e-02
-4.837971553206443787e-02 9.449259191751480103e-02 9.434913098812103271e-02 1.667820364236831665e-01 -1.053876802325248718e-01 -6.074430048465728760e-02 -1.313205510377883911e-01 -1.039878204464912415e-01 -5.977476388216018677e-02 -1.274467259645462036e-01
-2.088610082864761353e-01 1.222994849085807800e-01 -2.440761476755142212e-01 -1.720315515995025635e-01 1.785448491573333740e-01 -2.217968925833702087e-02 8.400212973356246948e-02 6.236370280385017395e-02 -5.972451716661453247e-02 -3.295061364769935608e-02
-9.566362015902996063e-03 -8.659974485635757446e-02 -5.964478477835655212e-02 1.139596104621887207e-01 9.613259136676788330e-02 4.026200994849205017e-02 -8.035255223512649536e-02 -4.892200976610183716e-02 6.947643123567104340e-03 -6.005757022649049759e-04
-2.734679877758026123e-01 1.109075471758842468e-01 -1.519887298345565796e-01 -1.119290739297866821e-01 -1.982025615870952606e-02 -6.098679453134536743e-02 -1.442316621541976929e-01 2.270880341529846191e-01 -1.124539691954851151e-02 -3.992072306573390961e-03
-6.789401918649673462e-02 -7.598879933357238770e-02 -4.072058945894241333e-02 8.016082644462585449e-02 -1.932895928621292114e-01 5.551967397332191467e-02 1.687697879970073700e-02 -1.628260165452957153e-01 -1.090747788548469543e-01 3.511032089591026306e-02
-1.288106888532638550e-01 -4.492597281932830811e-02 1.141269505023956299e-01 -1.456293314695358276e-01 1.145178303122520447e-01 8.323758840560913086e-02 -8.069316297769546509e-02 8.356381207704544067e-02 -5.633720010519027710e-02 -9.235746413469314575e-02
1.820536330342292786e-02 -1.451640427112579346e-01 1.079768687486648560e-01 -6.012827157974243164e-02 -1.433786600828170776e-01 -9.452617913484573364e-02 1.097346935421228409e-02 1.392203383147716522e-02 1.439573019742965698e-01 4.184920340776443481e-02
-2.367706596851348877e-02 7.150348741561174393e-03 -1.242323592305183411e-01 -1.545539051294326782e-01 -5.414719134569168091e-02 1.605359464883804321e-01 1.039368957281112671e-01 -1.257161647081375122e-01 1.387739479541778564e-01 1.083778962492942810e-01
-1.560856252908706665e-01 6.375993043184280396e-02 -6.382934749126434326e-02 4.322716966271400452e-02 6.980756670236587524e-02 6.232042238116264343e-02 -1.278723627328872681e-01 -5.414549261331558228e-02 -1.061718612909317017e-01 2.029163017868995667e-02
-4.757888964377343655e-04 9.419297426939010620e-02 -1.049373447895050049e-01 -9.345927834510803223e-02 -1.195914521813392639e-01 4.986871406435966492e-02 -1.740159466862678528e-02 -1.455632895231246948e-01 -1.203374043107032776e-01 2.525839209556579590e-02
2.076498046517372131e-02 5.514191091060638428e-02 -2.064677029848098755e-01 -7.670259475708007812e-02 1.378072202205657959e-01 1.922181807458400726e-02 2.927988395094871521e-02 -2.463624440133571625e-02 1.299199927598237991e-02 1.414808183908462524e-01
-1.064671501517295837e-01 5.578048899769783020e-02 -7.277809828519821167e-02 -7.683584839105606079e-02 1.697977334260940552e-01 -6.367471069097518921e-02 3.560637356713414192e-03 -8.189823478460311890e-02 -7.403780519962310791e-02 -1.468368172645568848e-01
1.821726560592651367e-01 -1.603877842426300049e-01 2.730999886989593506e-02 -3.728435561060905457e-02 9.913042187690734863e-02 -6.836189277237281203e-05 6.808044761419296265e-02 -1.594206243753433228e-01 -6.639927625656127930e-02 -5.148241668939590454e-02
4.980823397636413574e-02 -5.456024780869483948e-02 -1.175532713532447815e-01 -6.810209900140762329e-02 -1.117714121937751770e-01 -4.718489572405815125e-02 -7.674882560968399048e-02 3.833974525332450867e-02 -1.008798256516456604e-01 -2.415350172668695450e-03
-5.679325386881828308e-02 -7.167703658342361450e-02 -4.523867275565862656e-03 -7.772543281316757202e-02 -1.268751770257949829e-01 3.329708799719810486e-02 1.068560779094696045e-01 -1.150402575731277466e-01 -6.987914443016052246e-02 -6.987143307924270630e-02
-5.394732207059860229e-02 -1.965915858745574951e-01 -8.750127162784337997e-04 1.369650959968566895e-01 -2.937262654304504395e-01 -3.815489262342453003e-02 -1.511006057262420654e-01 1.050675734877586365e-01 -1.340760141611099243e-01 -6.313962489366531372e-02
-6.248163804411888123e-02 6.477408111095428467e-02 7.442926056683063507e-03 -4.061411693692207336e-02 -8.074320107698440552e-02 1.343171149492263794e-01 -7.732184231281280518e-02 -9.502388536930084229e-02 -1.313039660453796387e-02 1.132959797978401184e-01
-1.425184756517410278e-01 -4.742564260959625244e-02 1.710708439350128174e-02 -5.730110034346580505e-02 -1.045471057295799255e-01 3.814360871911048889e-02 6.230854243040084839e-02 -1.704808920621871948e-01 2.124108374118804932e-03 -3.209179267287254333e-02
-1.428160071372985840e-01 7.941668480634689331e-02 -1.105528920888900757e-01 -1.259519308805465698e-01 -1.093449071049690247e-01 4.052720218896865845e-02 2.215738780796527863e-02 -6.726683676242828369e-02 2.470917813479900360e-02 9.310725331306457520e-02
-1.008388698101043701e-01 -1.181775704026222229e-01 2.140904664993286133e-01 -1.673627346754074097e-01 -2.473502755165100098e-01 -9.135883301496505737e-02 8.859247714281082153e-02 -6.933704018592834473e-02 4.111836105585098267e-02 -2.618353664875030518e-01
-1.131833270192146301e-01 -2.248608972877264023e-03 7.898531854152679443e-02 -3.091509267687797546e-02 2.748527750372886658e-02 1.200257018208503723e-01 8.018074929714202881e-02 -1.426944732666015625e-01 1.991849206387996674e-02 1.181608885526657104e-01
1.870609074831008911e-01 -1.886607259511947632e-01 4.478601366281509399e-02 -9.989392012357711792e-02 -8.814642578363418579e-02 8.185535669326782227e-02 4.083923250436782837e-02 -1.113198697566986084e-01 7.536772638559341431e-02 7.055258005857467651e-02
6.864996999502182007e-02 -8.249258249998092651e-02 9.130682051181793213e-02 1.470681726932525635e-01 4.268921911716461182e-02 -9.401082247495651245e-02 -6.038515642285346985e-02 -1.278876662254333496e-01 2.383157424628734589e-02 -1.463717222213745117e-01
4.624315351247787476e-02 8.928144723176956177e-02 -1.268773227930068970e-01 6.073606386780738831e-02 1.008614674210548401e-01 -7.168592512607574463e-02 1.631749048829078674e-02 -4.775700718164443970e-02 4.190430045127868652e-02 4.457176662981510162e-03
-5.493321269750595093e-02 2.630821429193019867e-02 -2.553254365921020508e-01 -3.740155324339866638e-02 2.200476229190826416e-01 3.830208629369735718e-02 9.839934855699539185e-02 -1.175237298011779785e-01 -2.203002758324146271e-02 -1.061789542436599731e-01
-3.195321932435035706e-02 -1.527307033538818359e-01 1.149406805634498596e-01 6.342899799346923828e-02 -1.495357453823089600e-01 6.308256834745407104e-02 -9.388869255781173706e-02 1.000000163912773132e-02 1.283692568540573120e-01 -1.138235479593276978e-01
1.930719614028930664e-01 -1.210542097687721252e-01 4.303586110472679138e-02 -6.489343941211700439e-02 -3.970301244407892227e-03 -8.012504875659942627e-02 -6.616795901209115982e-03 -1.810726076364517212e-01 -7.661477476358413696e-02 -1.037743762135505676e-01
-1.734810173511505127e-01 1.381808519363403320e-01 -1.203973889350891113e-01 -5.945332720875740051e-02 -4.670675843954086304e-02 7.643298804759979248e-02 -7.534808665513992310e-02 -4.973204433917999268e-02 2.630585804581642151e-02 1.230814233422279358e-01
-2.432188987731933594e-01 -9.449730813503265381e-02 -1.578845232725143433e-01 -1.816228926181793213e-01 -1.219532564282417297e-01 1.014984771609306335e-01 -4.605657979846000671e-02 1.350073665380477905e-01 -7.413683086633682251e-02 -1.308999508619308472e-01
-1.461434513330459595e-01 -2.123841457068920135e-02 3.788812831044197083e-02 -9.943004697561264038e-03 -4.024529829621315002e-02 1.118572875857353210e-01 -1.292821168899536133e-01 -8.129439316689968109e-03 1.001237481832504272e-01 -9.704103320837020874e-02
-9.039822220802307129e-02 1.262416988611221313e-01 -4.245870560407638550e-02 -1.133660376071929932e-01 -3.371272981166839600e-02 -1.277381777763366699e-01 8.107742667198181152e-02 -1.185332462191581726e-01 -2.609614096581935883e-02 2.906817384064197540e-02
1.615910418331623077e-02 1.154845729470252991e-01 -1.973904967308044434e-01 -2.655435800552368164e-01 1.468435376882553101e-01 1.157158240675926208e-01 1.146036833524703979e-01 -1.582763157784938812e-02 -1.533811260014772415e-02 8.555532246828079224e-02
2.186886221170425415e-02 2.057879865169525146e-01 2.947991713881492615e-02 2.806040644645690918e-02 2.169580012559890747e-01 -8.868008852005004883e-02 8.369463682174682617e-02 -6.699104607105255127e-02 -6.465455144643783569e-02 -8.457856625318527222e-02
2.149997651576995850e-02 -1.410274058580398560e-01 -9.120992571115493774e-02 -1.703862845897674561e-01 -4.821315780282020569e-02 -1.457790732383728027e-01 -2.044255286455154419e-02 -1.486190855503082275e-01 -1.435541212558746338e-01 1.022166535258293152e-01
-1.337043493986129761e-01 -8.854222297668457031e-02 3.333758562803268433e-03 -4.029909521341323853e-02 2.779542654752731323e-02 -1.368772387504577637e-01 -1.246320158243179321e-01 5.420924723148345947e-02 -3.927239403128623962e-02 2.719749137759208679e-02
-3.919064998626708984e-02 1.277900636196136475e-01 -6.767103821039199829e-02 -1.116317808628082275e-01 -1.015293300151824951e-01 -3.676179051399230957e-02 -1.568497270345687866e-01 8.786640316247940063e-02 -1.387753635644912720e-01 4.157164320349693298e-02
-1.537836790084838867e-01 1.281977295875549316e-01 1.247775703668594360e-01 -3.751558437943458557e-02 1.658435538411140442e-02 7.311746478080749512e-02 1.140985116362571716e-01 -9.051293134689331055e-02 1.285610198974609375e-01 4.128191620111465454e-02
1.139339804649353027e-02 -4.675000905990600586e-02 1.209674477577209473e-01 1.098273694515228271e-01 4.240433871746063232e-02 5.586880445480346680e-02 2.234435081481933594e-02 1.249342262744903564e-01 -8.501541614532470703e-02 -1.153426766395568848e-01
-1.282724142074584961e-01 6.851224601268768311e-02 -9.703222662210464478e-02 -1.003073379397392273e-01 3.776627406477928162e-02 -9.977444261312484741e-02 -1.438063383102416992e-02 3.240131214261054993e-02 -1.097129881381988525e-01 -1.293064802885055542e-01
-1.382826864719390869e-01 6.760431081056594849e-02 -4.296826198697090149e-02 7.076189853250980377e-03 -5.878462642431259155e-02 -5.694826692342758179e-02 -8.564358204603195190e-02 -1.212341338396072388e-01 -4.573086276650428772e-02 -1.901127584278583527e-02
-1.233630776405334473e-01 -5.689227581024169922e-02 9.582817554473876953e-02 -2.781149744987487793e-01 -1.246747933328151703e-02 -6.833834946155548096e-02 1.947660148143768311e-01 -7.241486757993698120e-02 1.608066707849502563e-01 -1.546919643878936768e-01
-3.005523607134819031e-02 -1.493161320686340332e-01 1.866387128829956055e-01 1.500463634729385376e-01 -1.562573015689849854e-01 1.458864808082580566e-01 6.346137821674346924e-02 -1.772345751523971558e-01 -2.217152388766407967e-03 3.458086401224136353e-02
1.472797393798828125e-01 -1.778907775878906250e-01 -2.130733579397201538e-01 8.994638174772262573e-02 7.432530820369720459e-02 3.095498681068420410e-02 -1.631266325712203979e-01 8.008791506290435791e-02 -1.659635007381439209e-01 1.331387162208557129e-01
-8.268830180168151855e-02 -7.421194016933441162e-02 6.402510404586791992e-02 -1.101001873612403870e-01 -1.420232504606246948e-01 -2.517186291515827179e-02 1.401088945567607880e-02 1.000700704753398895e-02 5.469532683491706848e-02 -1.093347147107124329e-01
-1.759261935949325562e-01 -1.253956258296966553e-01 -1.291447728872299194e-01 9.734743088483810425e-02 -1.200751215219497681e-01 -1.721255034208297729e-01 -8.455713093280792236e-02 -1.559986919164657593e-01 -1.639542281627655029e-01 7.366205751895904541e-02
2.423474378883838654e-02 -7.427513599395751953e-02 3.324265033006668091e-02 1.133948639035224915e-01 -3.489799797534942627e-02 -6.371519714593887329e-02 1.238621547818183899e-01 2.462607808411121368e-03 3.643150627613067627e-02 6.265455484390258789e-02
1.040098220109939575e-01 1.918164547532796860e-03 -3.136884048581123352e-02 4.732757806777954102e-02 1.440078951418399811e-02 -1.605968549847602844e-02 8.015157282352447510e-02 -9.920947253704071045e-02 4.289295524358749390e-02 -1.343696117401123047e-01
-1.945987790822982788e-01 1.977445632219314575e-01 -2.105795443058013916e-01 -4.929990693926811218e-02 -5.712068453431129456e-02 9.790831245481967926e-03 -5.487078055739402771e-02 -2.286935038864612579e-02 7.012560218572616577e-02 2.910331264138221741e-02
-2.280402742326259613e-02 5.729182437062263489e-02 -1.357479542493820190e-01 -2.427877634763717651e-01 7.950686663389205933e-02 -6.432048976421356201e-02 -8.791875094175338745e-02 8.970489352941513062e-02 -8.017761260271072388e-02 -7.457870244979858398e-02
-8.343759924173355103e-02 -5.858641117811203003e-02 -1.387995034456253052e-01 1.001089513301849365e-01 1.157061755657196045e-01 -2.327771857380867004e-02 2.073716185986995697e-02 -1.062914654612541199e-01 1.028112396597862244e-01 1.044261753559112549e-01
1.201303899288177490e-01 -5.441114678978919983e-02 4.493130743503570557e-02 5.615313723683357239e-02 -6.203480064868927002e-02 3.958403691649436951e-02 -4.219784215092658997e-02 -8.036635071039199829e-02 -1.437849700450897217e-01 3.274766728281974792e-02
1.435261666774749756e-01 -1.042098551988601685e-01 1.437382251024246216e-01 1.140424981713294983e-01 -6.700226664543151855e-02 -1.369142532348632812e-01 -1.411930564790964127e-02 1.269137710332870483e-01 5.231799441389739513e-04 -1.204304397106170654e-01
4.221045598387718201e-02 4.599431902170181274e-02 -8.173806220293045044e-02 -8.009950071573257446e-02 -1.247334033250808716e-01 1.121700480580329895e-01 7.591442018747329712e-02 -1.389470398426055908e-01 -1.122102141380310059e-02 -1.132448762655258179e-01
-1.449342668056488037e-01 -8.227219432592391968e-02 6.651199422776699066e-03 8.698747307062149048e-02 -4.207991063594818115e-03 -6.606914103031158447e-02 1.014664620161056519e-01 -1.175754051655530930e-02 2.539216354489326477e-02 2.174094691872596741e-02
-8.699003607034683228e-02 -3.015494160354137421e-02 1.170346885919570923e-01 -1.535916794091463089e-02 4.403205215930938721e-02 -4.767974466085433960e-02 -1.243312209844589233e-01 -2.985584549605846405e-02 -7.763526588678359985e-02 -8.628147095441818237e-02
6.559218466281890869e-02 1.279977858066558838e-01 -9.968858957290649414e-02 -1.835908368229866028e-02 1.378337144851684570e-01 -5.187605507671833038e-03 -9.235112369060516357e-02 -1.029454022645950317e-01 1.336522102355957031e-01 1.188321858644485474e-01
1.308401226997375488e-01 -8.871988207101821899e-02 -1.329986155033111572e-01 -9.243961423635482788e-03 1.261948049068450928e-01 -1.212406158447265625e-01 -1.169430240988731384e-01 3.921766206622123718e-02 -3.821035102009773254e-02 1.049613952636718750e-01
-1.524347364902496338e-01 2.952791377902030945e-02 -1.364758163690567017e-01 -2.808969933539628983e-03 -9.040481597185134888e-02 -6.630051136016845703e-02 -1.446897983551025391e-01 -5.575387552380561829e-02 -8.893522620201110840e-02 -5.668251216411590576e-02
-1.448494344949722290e-01 8.257987909018993378e-03 -5.610859952867031097e-03 -1.799821704626083374e-01 1.242572069168090820e-01 1.503436416387557983e-01 1.590212136507034302e-01 9.445635974407196045e-02 -6.921666115522384644e-02 6.801430881023406982e-02
-1.447674483060836792e-01 -3.391570225358009338e-02 -7.158850878477096558e-02 4.259055480360984802e-02 1.418152898550033569e-01 -1.638369262218475342e-01 -1.579567193984985352e-01 -7.221647351980209351e-02 -1.250579655170440674e-01 6.428811699151992798e-02
-7.548233028501272202e-03 -1.984245702624320984e-02 1.425878554582595825e-01 9.150954335927963257e-02 -1.415614634752273560e-01 -9.344008564949035645e-02 -4.216834157705307007e-02 -1.064293552190065384e-02 7.560624927282333374e-02 2.646461687982082367e-02
9.538243710994720459e-02 7.081644982099533081e-02 5.444950610399246216e-02 5.696764588356018066e-02 -6.319011747837066650e-02 4.178214818239212036e-02 7.152474671602249146e-02 -3.204513341188430786e-02 6.070366129279136658e-02 6.284265965223312378e-02
-8.812690526247024536e-02 2.454405650496482849e-02 -8.769678324460983276e-02 -6.181605160236358643e-03 5.670305341482162476e-02 2.910835295915603638e-02 -4.317924380302429199e-03 -7.347623258829116821e-02 -8.896867185831069946e-02 -9.801381081342697144e-02
-1.017653867602348328e-01 -9.452103823423385620e-02 -8.332324028015136719e-02 1.114002838730812073e-01 -8.233844488859176636e-02 -1.670755892992019653e-01 -7.524137198925018311e-02 3.087477013468742371e-02 3.161761164665222168e-02 6.567738950252532959e-02
1.969153527170419693e-03 7.129392120987176895e-03 1.025079637765884399e-01 -3.861495852470397949e-02 8.367721736431121826e-02 -2.486319467425346375e-02 -1.167360916733741760e-01 9.420661628246307373e-02 1.992147229611873627e-02 8.065040409564971924e-02
-9.067406877875328064e-03 1.580313891172409058e-01 2.982027456164360046e-02 9.775289148092269897e-02 1.029493361711502075e-01 4.910102859139442444e-02 -7.169691473245620728e-02 -8.807572722434997559e-02 1.126284301280975342e-01 5.910424888134002686e-02
-7.082040607929229736e-02 -1.222690045833587646e-01 -7.272784411907196045e-02 8.682934194803237915e-02 -1.499799489974975586e-01 7.728663086891174316e-02 -7.510854303836822510e-02 3.650834783911705017e-02 6.693065166473388672e-02 -6.958726793527603149e-02
-5.159460753202438354e-02 -1.337260939180850983e-02 8.353054523468017578e-02 8.888651430606842041e-02 -1.406479068100452423e-02 -4.284026101231575012e-02 8.365952223539352417e-02 2.122633159160614014e-02 1.021089181303977966e-01 7.076101750135421753e-02
6.757247261703014374e-03 -1.384523510932922363e-01 -1.266584824770689011e-02 -1.151046827435493469e-01 -7.376226037740707397e-02 1.385480463504791260e-01 2.238943055272102356e-02 1.254144757986068726e-01 -2.032919228076934814e-02 -7.324876636266708374e-02
-1.816553920507431030e-01 -1.922130002640187740e-03 1.683466732501983643e-01 1.361903697252273560e-01 -1.828527599573135376e-01 1.410638839006423950e-01 9.826707839965820312e-02 3.021936118602752686e-02 -7.913370430469512939e-02 -3.608971089124679565e-02
-1.195032224059104919e-01 -1.103239133954048157e-01 -1.515721082687377930e-01 -1.239066198468208313e-01 -6.383011490106582642e-02 -7.243551313877105713e-02 -1.534031033515930176e-01 3.120981156826019287e-02 1.011555939912796021e-01 -7.063126564025878906e-02
1.193153113126754761e-01 8.752970397472381592e-02 -1.059675291180610657e-01 -1.056648418307304382e-02 -1.034909486770629883e-01 -7.758995890617370605e-02 -9.962075948715209961e-02 1.829520799219608307e-02 -1.109909266233444214e-01 6.041758228093385696e-03
1.307041347026824951e-01 4.558194428682327271e-02 6.197647005319595337e-02 -1.176246330142021179e-01 1.148313134908676147e-01 5.813714489340782166e-02 1.539531499147415161e-01 -1.289006136357784271e-02 1.209254711866378784e-01 -1.284422725439071655e-01
1.205605454742908478e-02 2.524687722325325012e-02 1.234438642859458923e-01 -1.780918240547180176e-02 1.088824123144149780e-01 -1.183288171887397766e-01 1.283333301544189453e-01 3.932975232601165771e-02 -2.782798185944557190e-02 -5.817717686295509338e-02
-1.130508333444595337e-01 -8.525987714529037476e-02 1.240064054727554321e-01 -1.348185688257217407e-01 9.536820650100708008e-02 5.957359075546264648e-02 -1.248646676540374756e-01 4.808961227536201477e-02 6.863094866275787354e-02 1.206709593534469604e-01
-7.249182462692260742e-02 -5.566883087158203125e-02 -1.050838232040405273e-01 -7.725728303194046021e-02 -1.059748530387878418e-01 2.470974065363407135e-02 1.135225370526313782e-01 1.090273633599281311e-01 -9.014247357845306396e-02 -5.460809171199798584e-02
-1.510656177997589111e-01 -1.150147765874862671e-01 1.640594750642776489e-01 1.011271998286247253e-01 1.126730516552925110e-01 6.830864585936069489e-03 1.619726866483688354e-01 1.038655266165733337e-02 -8.639930188655853271e-02 -2.194944620132446289e-01
1.118576452136039734e-01 -1.073629409074783325e-01 -8.726433664560317993e-02 1.262305825948715210e-01 1.010607928037643433e-01 1.227376088500022888e-01 3.614356741309165955e-02 -3.809271007776260376e-02 -4.239119216799736023e-02 3.298903116956353188e-03
1.149419024586677551e-01 -1.077118292450904846e-01 1.089768037199974060e-01 3.418717533349990845e-02 -1.763515360653400421e-02 -1.433944702148437500e-01 2.194540947675704956e-02 2.744555659592151642e-02 3.253369778394699097e-02 8.232973515987396240e-02
-1.903183609247207642e-01 -7.629012316465377808e-02 -8.599261194467544556e-02 -5.129585787653923035e-02 -8.558338135480880737e-02 -1.129305511713027954e-01 -3.735863417387008667e-02 -4.808970261365175247e-03 -4.748349077999591827e-03 -7.204210851341485977e-03
1.772010326385498047e-01 -2.375124692916870117e-01 1.606534607708454132e-02 1.617463678121566772e-01 -3.803040459752082825e-02 5.488507822155952454e-02 -1.816643588244915009e-02 -9.680012613534927368e-02 -9.198379516601562500e-02 -4.653678089380264282e-02
4.408267140388488770e-02 -3.670130670070648193e-02 -7.464092224836349487e-02 -1.242209821939468384e-01 -1.387955397367477417e-01 7.983937114477157593e-02 1.393740177154541016e-01 9.411204606294631958e-02 -1.541934758424758911e-01 2.899086661636829376e-02
8.004193007946014404e-02 -1.059614568948745728e-01 3.739039227366447449e-02 8.415834046900272369e-03 1.111779958009719849e-01 -9.279568493366241455e-02 1.097699906677007675e-02 1.113671213388442993e-01 3.429558500647544861e-02 -6.765004992485046387e-02
-5.166071653366088867e-02 9.229289740324020386e-02 -1.040722280740737915e-01 -3.607071191072463989e-02 -8.931938558816909790e-02 2.378164976835250854e-02 -1.144748274236917496e-02 6.344347260892391205e-03 8.651773631572723389e-02 -1.024314239621162415e-01
-6.257847696542739868e-02 1.596176326274871826e-01 1.311534345149993896e-01 -4.553479701280593872e-02 -9.725238382816314697e-02 -1.224633120000362396e-02 -1.627303957939147949e-01 1.749020963907241821e-01 1.144203096628189087e-01 1.116149201989173889e-01
1.084157302975654602e-01 -4.226591810584068298e-02 8.991489559412002563e-02 -9.841278940439224243e-02 5.459874123334884644e-02 -4.679252952337265015e-02 -1.795986294746398926e-02 -1.374918967485427856e-01 2.032091468572616577e-02 1.865084655582904816e-02
2.553553506731987000e-02 2.642003260552883148e-02 9.524396061897277832e-02 8.064723759889602661e-02 2.599515207111835480e-02 5.107209831476211548e-02 -4.643373191356658936e-02 -1.503388583660125732e-01 9.250219911336898804e-03 1.219245791435241699e-01
-4.094859957695007324e-02 -1.144562363624572754e-01 -4.833656549453735352e-02 1.660709618590772152e-03 -4.504383355379104614e-02 -1.003203019499778748e-01 -1.407235115766525269e-01 -8.298706263303756714e-03 -1.269188970327377319e-01 -1.404131203889846802e-01
-9.035170823335647583e-02 1.611941158771514893e-01 4.592072963714599609e-02 -1.038077473640441895e-01 -2.083113789558410645e-02 5.130529031157493591e-02 -7.297097146511077881e-02 9.306937456130981445e-02 -1.044043675065040588e-01 1.490058749914169312e-01
3.612186387181282043e-02 -1.399831175804138184e-01 7.263576984405517578e-02 4.254962503910064697e-02 -2.765197865664958954e-02 -4.601574316620826721e-02 1.009414494037628174e-01 5.117986723780632019e-02 -7.139807194471359253e-02 -1.263885498046875000e-01
-6.172224134206771851e-02 -1.464323997497558594e-01 -1.056047976016998291e-01 -1.073859632015228271e-01 -5.617722868919372559e-02 1.343726553022861481e-02 -1.192090213298797607e-01 1.433718949556350708e-01 -7.345522940158843994e-02 -9.619815647602081299e-02
-1.292299330234527588e-01 -5.712870880961418152e-02 -1.322425752878189087e-01 3.817299008369445801e-02 -6.178904324769973755e-02 -1.060966625809669495e-01 1.238929778337478638e-01 -6.604121625423431396e-02 2.585957944393157959e-02 9.421907365322113037e-02
-1.212150156497955322e-01 -2.142822742462158203e-02 -9.876912087202072144e-02 -1.178328320384025574e-01 -6.257309578359127045e-03 1.239592581987380981e-01 -1.040631607174873352e-01 -3.429972752928733826e-02 1.301049143075942993e-01 6.041723489761352539e-02
5.085613951086997986e-02 1.320178955793380737e-01 -3.806776180863380432e-02 1.559932529926300049e-01 -1.361689120531082153e-01 -1.683449894189834595e-01 -1.803755313158035278e-01 1.449996978044509888e-01 1.067949086427688599e-01 6.804417818784713745e-02
7.993329316377639771e-02 -2.923032455146312714e-02 5.431047827005386353e-02 -1.707670986652374268e-01 5.207030847668647766e-02 -1.581972688436508179e-01 -5.513169243931770325e-02 3.134977770969271660e-03 -9.305694699287414551e-02 -1.444665342569351196e-01
-1.717454791069030762e-01 1.712443381547927856e-01 -6.113153696060180664e-02 6.379958242177963257e-02 1.731290598399937153e-03 -1.169018596410751343e-01 -6.049785763025283813e-02 -1.847704313695430756e-02 -4.960128664970397949e-02 -2.318301238119602203e-02
3.976803272962570190e-02 -1.137011423707008362e-01 -1.101222485303878784e-01 2.542023733258247375e-02 1.089706048369407654e-01 -1.495528519153594971e-01 3.547969460487365723e-02 1.780841150321066380e-03 -1.197502240538597107e-01 -5.290940403938293457e-02
3.780514374375343323e-02 -1.327366232872009277e-01 3.302326798439025879e-02 -5.119188129901885986e-02 9.838905185461044312e-02 -1.089186519384384155e-01 -1.634968668222427368e-01 -6.620977818965911865e-02 -4.140404611825942993e-02 5.264494568109512329e-02
1.792812719941139221e-02 1.467933803796768188e-01 -2.334651350975036621e-02 -1.492784172296524048e-01 -7.166727446019649506e-03 -2.000464797019958496e-01 9.020958095788955688e-02 1.502021402120590210e-01 1.321997642517089844e-01 -3.531014174222946167e-02
4.649031534790992737e-02 -9.757180698215961456e-03 1.947712600231170654e-01 -4.366738349199295044e-02 -7.712596654891967773e-02 -1.058561205863952637e-01 1.280632466077804565e-01 -1.225652694702148438e-01 5.459985509514808655e-02 -1.099641025066375732e-01
2.808214351534843445e-02 2.180351875722408295e-02 2.430037781596183777e-02 -1.011357530951499939e-01 8.791158907115459442e-03 -8.039025217294692993e-02 -1.211598962545394897e-01 -1.425018459558486938e-01 4.594041407108306885e-02 1.045789644122123718e-01
-1.815785281360149384e-02 -1.340489536523818970e-01 9.508328139781951904e-02 2.473195642232894897e-02 -1.291783303022384644e-01 1.071745082736015320e-01 -6.901098042726516724e-02 -9.719369001686573029e-03 -5.110901966691017151e-02 -1.293191313743591309e-01
-2.694374322891235352e-02 3.130142390727996826e-02 -3.179530054330825806e-02 -1.487243473529815674e-01 -1.237417086958885193e-01 -5.173550173640251160e-02 -1.196953095495700836e-02 1.385581046342849731e-01 4.671324510127305984e-03 8.645506203174591064e-02
3.865526616573333740e-02 -5.332753062248229980e-02 -1.955106854438781738e-02 -7.115057855844497681e-02 1.463323682546615601e-01 -4.563359916210174561e-02 1.108586937189102173e-01 -1.596112386323511600e-03 3.062875755131244659e-02 -1.413083821535110474e-01
-4.198365285992622375e-02 -1.040680408477783203e-01 -1.512661576271057129e-01 1.212550792843103409e-03 1.266248226165771484e-01 1.640776358544826508e-02 5.882075801491737366e-02 8.147957921028137207e-02 -3.514921292662620544e-02 7.848218083381652832e-02
-9.431857615709304810e-02 -5.392207205295562744e-02 -5.955560505390167236e-02 -8.768649399280548096e-02 1.360350102186203003e-01 -3.689357638359069824e-02 9.732831269502639771e-02 -1.161314398050308228e-01 -1.163345128297805786e-01 -1.493464708328247070e-01
-8.097410202026367188e-02 -2.297296375036239624e-02 -1.010661646723747253e-01 -1.082747578620910645e-01 2.847993187606334686e-02 2.743460005149245262e-03 -3.560596378520131111e-03 1.060727834701538086e-01 -1.855123415589332581e-02 -5.980299413204193115e-02
7.851325720548629761e-02 -1.464160084724426270e-01 3.041055798530578613e-02 -1.773572713136672974e-01 4.907950013875961304e-02 5.286973342299461365e-02 1.298936009407043457e-01 -2.133789062500000000e-01 1.304007917642593384e-01 6.618104130029678345e-02
1.156549975275993347e-01 -1.221013814210891724e-01 1.293109059333801270e-01 4.396123066544532776e-02 -2.970367670059204102e-01 -1.171624287962913513e-02 -1.152972057461738586e-01 -8.111027628183364868e-02 6.353154778480529785e-02 8.599191159009933472e-02
1.317549645900726318e-01 -8.972657471895217896e-02 -7.193612307310104370e-02 3.805203363299369812e-02 -1.718655414879322052e-02 2.128904312849044800e-02 -1.244584098458290100e-01 -6.357241421937942505e-02 -6.237439811229705811e-02 -1.150895059108734131e-01
-1.463751047849655151e-01 1.245680525898933411e-01 5.199309438467025757e-02 4.285364970564842224e-02 5.334051698446273804e-02 -1.163949966430664062e-01 8.267598599195480347e-02 1.069117039442062378e-01 -9.794648736715316772e-02 1.182572916150093079e-01
-1.136531308293342590e-01 -3.224034979939460754e-02 5.941942799836397171e-03 7.779916375875473022e-02 -5.623940005898475647e-02 -1.343299597501754761e-01 -8.149784058332443237e-02 4.383048042654991150e-02 1.301045566797256470e-01 -1.244103759527206421e-01
6.646284367889165878e-03 1.209980845451354980e-01 1.502166315913200378e-02 -7.659161835908889771e-02 -3.595985472202301025e-02 1.887331344187259674e-02 1.145544834434986115e-02 -7.116995006799697876e-02 -9.020191431045532227e-02 -4.026520065963268280e-03
-5.406691133975982666e-02 7.691577076911926270e-02 3.926222026348114014e-02 3.039370477199554443e-02 2.754092449322342873e-03 6.234974041581153870e-02 -1.275659054517745972e-01 -1.433320622891187668e-02 1.220056489109992981e-01 7.287085801362991333e-02
-1.718880534172058105e-01 -4.626780748367309570e-02 5.644957348704338074e-02 3.441454842686653137e-02 2.141293436288833618e-01 -6.690150499343872070e-02 -6.982527673244476318e-02 1.227818801999092102e-01 1.054802909493446350e-01 4.428054392337799072e-02
-4.702263697981834412e-02 1.252250820398330688e-01 4.878075420856475830e-02 -3.110269643366336823e-02 4.629152268171310425e-02 -5.542891565710306168e-03 -1.210788786411285400e-01 7.754792273044586182e-02 -1.094551905989646912e-01 -5.459793284535408020e-02
1.392540782690048218e-01 5.580173432826995850e-02 -5.922627076506614685e-02 -5.988579988479614258e-02 1.076031774282455444e-01 1.053322106599807739e-01 -9.817014634609222412e-02 -1.211095526814460754e-01 -1.097364947199821472e-01 -1.060502082109451294e-01
-1.177787259221076965e-01 7.412852346897125244e-02 -2.864584885537624359e-02 -1.311022788286209106e-01 1.338087022304534912e-02 5.904861167073249817e-02 7.490127533674240112e-02 -1.369270235300064087e-01 -1.132263094186782837e-01 -1.570095270872116089e-01
9.161415509879589081e-03 -1.102160438895225525e-01 -5.192475020885467529e-02 -1.479999125003814697e-01 -3.975323587656021118e-02 -1.007277220487594604e-01 4.261192679405212402e-02 8.424117229878902435e-03 -5.735561251640319824e-02 1.524348650127649307e-02
-6.574201583862304688e-02 -1.432632058858871460e-01 -1.492326799780130386e-02 -6.346926093101501465e-02 -1.033303141593933105e-01 6.784435361623764038e-02 -3.555957227945327759e-02 4.761191084980964661e-03 -9.653846174478530884e-02 -1.200645864009857178e-01
-1.441838741302490234e-01 -3.245240077376365662e-02 -1.285016089677810669e-01 1.639002934098243713e-02 -5.313306674361228943e-02 -1.399851739406585693e-01 4.961818456649780273e-02 -1.303850859403610229e-01 1.369696855545043945e-01 -7.119682151824235916e-03
1.322376821190118790e-02 7.696896791458129883e-02 6.430893391370773315e-02 -1.311165243387222290e-01 5.535957869142293930e-03 4.721334576606750488e-02 -1.291959881782531738e-01 9.265641868114471436e-02 9.909972548484802246e-02 -5.178184807300567627e-02
4.673681035637855530e-02 9.983512572944164276e-03 -1.361363530158996582e-01 -1.096051856875419617e-01 6.517685949802398682e-02 -4.310374706983566284e-02 -4.052260890603065491e-02 2.886048518121242523e-03 4.542681947350502014e-02 7.059810310602188110e-02
2.665127441287040710e-02 -2.710938861127942801e-04 -8.023525774478912354e-02 5.487375333905220032e-02 -6.893523037433624268e-02 -1.039760857820510864e-01 -2.101370878517627716e-02 -4.271768406033515930e-02 8.249602280557155609e-03 1.250284314155578613e-01
1.099755093455314636e-01 -3.734873980283737183e-02 -1.466919481754302979e-01 7.204172015190124512e-02 1.163575127720832825e-01 3.153907880187034607e-02 -6.133009213954210281e-03 3.422918915748596191e-02 2.410558424890041351e-02 3.515005856752395630e-02
-2.604067027568817139e-01 4.884739965200424194e-02 2.817943692207336426e-02 1.387475058436393738e-02 -1.236873939633369446e-01 -5.804364755749702454e-02 5.413408204913139343e-02 -7.248571515083312988e-02 7.530297338962554932e-02 -1.571547985076904297e-01
7.657393813133239746e-02 -1.184095740318298340e-01 8.782917261123657227e-02 -6.411948800086975098e-02 -1.459384802728891373e-02 -1.108326390385627747e-01 7.518434897065162659e-03 -5.546075850725173950e-02 1.288898140192031860e-01 1.149873286485671997e-01
-1.554698646068572998e-01 -1.024266257882118225e-01 -2.346823550760746002e-02 -2.679144032299518585e-02 7.496971637010574341e-02 1.406778693199157715e-01 -1.124180406332015991e-01 6.248115003108978271e-02 8.001418411731719971e-02 -6.077536381781101227e-03
-1.379452347755432129e-01 1.587351411581039429e-01 -1.214229911565780640e-01 8.807447552680969238e-02 -5.187900736927986145e-02 2.750991284847259521e-02 7.968887686729431152e-02 -2.440518466755747795e-03 1.154286786913871765e-01 2.327479980885982513e-02
-1.100538447499275208e-01 -1.329396069049835205e-01 4.553110152482986450e-02 9.346862137317657471e-02 -1.515288930386304855e-02 -1.145880669355392456e-02 9.430748969316482544e-02 -3.905118256807327271e-02 1.235129460692405701e-01 -9.930039942264556885e-02
-1.092759668827056885e-01 -1.474683731794357300e-01 1.004148572683334351e-01 -1.164457350969314575e-01 8.036901056766510010e-02 -7.435481250286102295e-02 2.984815649688243866e-02 9.569967538118362427e-02 -7.278674095869064331e-02 2.486604638397693634e-02
-1.463198065757751465e-01 7.834361493587493896e-02 -1.127220839262008667e-01 1.302458494901657104e-01 -1.213052347302436829e-01 -1.232417821884155273e-01 -1.335174590349197388e-01 1.884433254599571228e-02 -1.271355748176574707e-01 4.758900776505470276e-02
8.860897272825241089e-02 -2.487996593117713928e-02 -5.034262314438819885e-02 -8.253815770149230957e-02 9.154065698385238647e-02 -8.615139871835708618e-02 1.752238161861896515e-02 -1.145601123571395874e-01 6.926240026950836182e-02 3.062674589455127716e-02
-1.444075405597686768e-01 -1.390720251947641373e-02 -2.008660435676574707e-01 -8.073863387107849121e-02 -6.065379083156585693e-02 5.436247680336236954e-03 3.826397005468606949e-03 1.859501004219055176e-01 3.740859404206275940e-02 -8.356244862079620361e-02
3.515834733843803406e-02 1.117909848690032959e-01 -7.647543400526046753e-02 -3.343826532363891602e-02 -7.497735321521759033e-02 -2.243773452937602997e-02 -6.405587308108806610e-03 8.953466080129146576e-03 -9.287324547767639160e-02 5.470237880945205688e-02
-5.257652327418327332e-02 -1.304829567670822144e-01 -9.341048449277877808e-02 -1.143399775028228760e-01 -1.321676280349493027e-02 -4.253290966153144836e-02 1.235001012682914734e-01 -1.604361087083816528e-01 1.042021065950393677e-01 -8.238805085420608521e-02
-1.502553932368755341e-02 7.305580377578735352e-02 5.013405531644821167e-02 -3.484201431274414062e-02 3.516346216201782227e-02 -2.063666470348834991e-02 -1.038846969604492188e-01 4.748146981000900269e-02 -1.446215063333511353e-02 -1.826312243938446045e-01
8.423074334859848022e-02 -3.345384448766708374e-02 -5.081252753734588623e-02 -3.405848890542984009e-02 1.196716167032718658e-02 -4.301386326551437378e-02 -9.163971990346908569e-02 1.162835508584976196e-01 -6.612679362297058105e-02 -1.185360103845596313e-01
1.147657856345176697e-01 -1.856979914009571075e-02 -1.283432394266128540e-01 1.407086849212646484e-01 2.404612489044666290e-02 -1.593001931905746460e-01 -3.676743432879447937e-02 -6.358578801155090332e-02 -3.741868212819099426e-02 -2.475440874695777893e-02
4.358260706067085266e-02 -1.003965362906455994e-01 5.114446207880973816e-02 1.114351823925971985e-01 4.868777096271514893e-02 5.903258174657821655e-02 -8.837237954139709473e-02 -1.145379766821861267e-01 3.083760477602481842e-02 -2.424245327711105347e-02
9.775171428918838501e-02 1.617575436830520630e-02 3.392333537340164185e-02 6.505713332444429398e-03 7.427230477333068848e-02 -1.163164079189300537e-01 -6.900457292795181274e-02 1.725410483777523041e-02 -9.137009084224700928e-02 3.190576657652854919e-02
-1.026917994022369385e-01 3.626963496208190918e-02 3.582688979804515839e-03 5.841940641403198242e-02 1.211373880505561829e-02 -7.961903512477874756e-02 6.615306437015533447e-02 -9.863609820604324341e-02 -2.373986504971981049e-02 1.185538247227668762e-02
5.021233856678009033e-02 -1.368186026811599731e-01 -1.530675143003463745e-01 -1.330941021442413330e-01 -1.108413264155387878e-01 1.176478266716003418e-01 5.558247119188308716e-02 -1.130865141749382019e-01 3.696620091795921326e-02 -5.895503610372543335e-02
1.035419180989265442e-01 -1.531086415052413940e-01 2.838573418557643890e-02 5.255025997757911682e-02 -1.111281141638755798e-01 -5.139899998903274536e-02 -1.287245750427246094e-01 -8.369146287441253662e-02 -4.308002069592475891e-02 -5.917263776063919067e-02
7.957090437412261963e-02 1.039847880601882935e-01 7.622175663709640503e-02 -9.052181243896484375e-02 -5.037290975451469421e-02 2.670696191489696503e-02 -3.921829536557197571e-02 -1.075855717062950134e-01 -4.176642000675201416e-02 -1.483562439680099487e-01
-1.496166437864303589e-01 -2.538193389773368835e-02 -1.129915937781333923e-01 5.458358302712440491e-02 -1.261223852634429932e-01 3.443017601966857910e-02 -9.063310176134109497e-02 -5.660755559802055359e-02 -9.798018634319305420e-02 8.401518315076828003e-02
9.326501935720443726e-02 1.232159063220024109e-01 -1.017424836754798889e-01 -7.902221381664276123e-02 -1.339269876480102539e-01 2.432134002447128296e-02 -1.195616051554679871e-01 -1.436640918254852295e-01 -4.682625085115432739e-02 -5.134706571698188782e-02
6.559348851442337036e-02 9.364733099937438965e-02 1.041973456740379333e-01 1.048763021826744080e-01 -2.168423309922218323e-02 -2.525583282113075256e-02 8.564070612192153931e-02 -6.245153024792671204e-02 -6.970067322254180908e-02 -9.051118046045303345e-02
7.990360260009765625e-02 -3.268129751086235046e-02 1.298012305051088333e-02 -1.608081161975860596e-01 1.628373377025127411e-02 -3.829761222004890442e-02 6.127450987696647644e-02 7.580055296421051025e-02 2.848646976053714752e-02 -8.536713570356369019e-02
-1.525349915027618408e-01 1.417738199234008789e-01 -1.357197761535644531e-01 -1.088397502899169922e-01 -1.204269006848335266e-01 8.267156034708023071e-02 -1.455136537551879883e-01 -7.654327154159545898e-02 -1.048411354422569275e-01 -1.207908689975738525e-01
8.047029376029968262e-02 -1.443673521280288696e-01 -1.144662499427795410e-02 -5.353522300720214844e-02 5.128636583685874939e-02 -1.251778155565261841e-01 -2.179579809308052063e-02 -4.653170332312583923e-02 -1.027854457497596741e-01 -1.202603727579116821e-01
3.761306405067443848e-02 -2.052919566631317139e-02 4.593427479267120361e-02 -1.009687632322311401e-01 -9.596343338489532471e-02 -4.234728962182998657e-02 -1.396264731884002686e-01 7.012820243835449219e-02 -1.086911335587501526e-01 7.976047694683074951e-02
-2.151318080723285675e-02 1.041552945971488953e-01 1.779951751232147217e-01 1.697351932525634766e-01 -3.071871697902679443e-01 -2.214065939188003540e-01 -1.289734244346618652e-01 7.108303904533386230e-02 3.151315078139305115e-02 -1.799587532877922058e-02
1.205691322684288025e-01 -1.283352822065353394e-01 -8.960018306970596313e-02 -1.322882063686847687e-02 -1.284172832965850830e-01 -2.269480563700199127e-02 -3.675161302089691162e-02 2.344744652509689331e-02 -1.260769069194793701e-01 4.943353310227394104e-02
1.314116716384887695e-01 1.299696117639541626e-01 4.519251734018325806e-02 -4.381694272160530090e-02 1.036802977323532104e-01 -2.345913648605346680e-02 -1.098901964724063873e-03 3.430454432964324951e-02 2.000104263424873352e-02 -7.108181715011596680e-02
-6.498044729232788086e-02 -1.182151958346366882e-01 1.384904384613037109e-01 -1.139151453971862793e-01 -1.116309240460395813e-01 3.772313892841339111e-02 -2.849261648952960968e-02 -1.391529887914657593e-01 -1.191931888461112976e-01 9.571062028408050537e-02
9.770947694778442383e-02 -5.339812487363815308e-02 1.136500090360641479e-01 -5.720049142837524414e-02 1.711963117122650146e-02 -1.491763889789581299e-01 1.145899947732686996e-02 5.330311134457588196e-02 -1.665177643299102783e-01 1.467010676860809326e-01
5.271847546100616455e-02 -4.718524962663650513e-02 1.682764850556850433e-02 1.678434386849403381e-02 1.697223447263240814e-02 1.826192834414541721e-03 1.664416305720806122e-02 4.128332436084747314e-02 -1.212088614702224731e-01 -9.796749800443649292e-02
-2.077103964984416962e-02 -1.087408214807510376e-01 9.559502452611923218e-02 1.131421029567718506e-01 2.684150263667106628e-02 -5.907671153545379639e-02 5.076648667454719543e-02 -7.155238837003707886e-02 5.233030021190643311e-02 1.055409316904842854e-03
-1.542297005653381348e-01 -1.200605332851409912e-01 -9.350132197141647339e-03 4.667071253061294556e-02 -6.249539181590080261e-02 -6.987744569778442383e-02 -7.987393438816070557e-02 3.521542251110076904e-02 8.635382354259490967e-02 4.164211824536323547e-02
-3.811745345592498779e-02 1.341157406568527222e-01 -8.500872552394866943e-02 -1.122861653566360474e-01 -6.435799598693847656e-02 3.807194903492927551e-02 -8.058941364288330078e-02 7.410653680562973022e-02 -7.905931770801544189e-02 5.779647827148437500e-02
-2.350971335545182228e-03 -7.924024015665054321e-02 -2.223649621009826660e-02 1.209330484271049500e-01 -7.195141911506652832e-02 -1.289174146950244904e-02 -7.173418253660202026e-02 7.313746958971023560e-02 2.313282340764999390e-02 -5.914412438869476318e-02
1.344387829303741455e-01 8.037354052066802979e-02 -6.994917243719100952e-02 7.644409686326980591e-02 6.158237904310226440e-02 -1.725517772138118744e-02 -1.445133984088897705e-01 -1.265609264373779297e-01 -6.258007884025573730e-02 3.505264967679977417e-02
-8.806443214416503906e-02 -6.897712498903274536e-02 6.776402145624160767e-02 -2.720941603183746338e-02 -8.540269918739795685e-03 8.387661725282669067e-02 5.392629280686378479e-02 5.968514457345008850e-02 -1.455430984497070312e-01 1.554813061375170946e-04
3.211585432291030884e-02 -1.279445886611938477e-01 -5.095578357577323914e-02 1.429599970579147339e-01 -1.842032819986343384e-01 -1.472899615764617920e-01 -1.964052170515060425e-01 1.538060009479522705e-01 3.175320569425821304e-03 -8.781003952026367188e-02
4.425917938351631165e-02 1.196516528725624084e-01 -1.571818888187408447e-01 -2.904977649450302124e-02 -9.520058333873748779e-02 -3.747121617197990417e-02 3.666687011718750000e-02 -6.551966071128845215e-03 1.109479367733001709e-01 8.295273035764694214e-02
-1.379957646131515503e-01 -3.543496131896972656e-02 1.222068294882774353e-01 -7.329753041267395020e-02 1.322463452816009521e-01 5.481023341417312622e-02 -5.627545714378356934e-02 -1.327069103717803955e-01 -2.920199558138847351e-02 5.374382808804512024e-02
-1.266692876815795898e-01 -1.752291917800903320e-01 -7.510873675346374512e-02 -1.718923151493072510e-01 -1.263698637485504150e-01 1.455003619194030762e-01 5.103975906968116760e-02 -1.723509579896926880e-01 -1.815253645181655884e-01 -8.969578891992568970e-03
5.465956032276153564e-02 1.077570468187332153e-01 -7.321704179048538208e-02 -5.955667793750762939e-02 2.390966378152370453e-02 -5.774011835455894470e-02 2.250183839350938797e-03 -1.097192801535129547e-02 3.930956125259399414e-02 -7.177665084600448608e-02
-1.348571293056011200e-02 2.208475023508071899e-02 -2.224695682525634766e-02 -1.529744267463684082e-01 9.931524842977523804e-02 -1.441166698932647705e-01 1.174227613955736160e-02 1.352819353342056274e-01 6.691094487905502319e-02 9.718712419271469116e-02
8.373239636421203613e-02 1.285687685012817383e-01 -7.599146664142608643e-02 3.192446008324623108e-02 -7.107602804899215698e-02 -3.736016340553760529e-03 -6.735072284936904907e-02 -2.485283184796571732e-03 6.581303663551807404e-03 -1.374786794185638428e-01
-1.582625657320022583e-01 -1.739426553249359131e-01 -7.224554568529129028e-02 -1.066063567996025085e-01 -1.187649220228195190e-01 -5.780156701803207397e-02 -5.704478244297206402e-04 -5.617690086364746094e-02 -6.610255688428878784e-02 -3.712226822972297668e-02
-8.694058656692504883e-02 -1.509728431701660156e-01 -7.917598634958267212e-02 -1.824283301830291748e-01 5.417025461792945862e-02 1.804001033306121826e-01 5.998529959470033646e-03 -2.403052449226379395e-01 -7.351991534233093262e-02 -1.006784662604331970e-01
-2.280011475086212158e-01 -1.510892622172832489e-02 -2.775227837264537811e-02 -7.283744961023330688e-02 -6.866498291492462158e-02 2.284103259444236755e-02 -1.338474303483963013e-01 1.730356216430664062e-01 2.429017983376979828e-02 -9.325090795755386353e-02
3.473091498017311096e-02 4.001340270042419434e-02 -7.842579483985900879e-02 -1.428043693304061890e-01 -8.585134148597717285e-02 -1.272418498992919922e-01 -1.590776741504669189e-01 -4.484728351235389709e-02 2.325008856132626534e-03 1.335252374410629272e-01
1.361458748579025269e-01 -1.463674753904342651e-01 -2.139820158481597900e-01 1.830996274948120117e-01 5.454781465232372284e-03 -9.940798394381999969e-03 -2.153770476579666138e-01 7.864862680435180664e-03 2.227574214339256287e-02 1.480226367712020874e-01
5.220181867480278015e-02 -2.443676292896270752e-01 8.357325941324234009e-02 -9.330407530069351196e-02 9.354268759489059448e-02 1.730551272630691528e-01 -5.269916728138923645e-02 4.874319583177566528e-02 -6.701426208019256592e-02 -2.051743306219577789e-02
-1.170502603054046631e-01 1.044064387679100037e-01 7.258637994527816772e-02 1.076014861464500427e-01 -1.415161639451980591e-01 1.175569668412208557e-01 -7.446430623531341553e-03 -4.525595903396606445e-02 -8.378609083592891693e-03 2.476241812109947205e-02
-1.245468929409980774e-01 -1.492665708065032959e-01 -5.376313999295234680e-02 -1.090003550052642822e-01 -1.683499366044998169e-01 6.739597022533416748e-02 1.365851014852523804e-01 1.068680956959724426e-01 3.912137076258659363e-02 1.004523783922195435e-02
8.668920397758483887e-02 8.588807284832000732e-02 -2.755278907716274261e-02 -1.285430341958999634e-01 1.197159066796302795e-01 -1.900382153689861298e-02 -1.146945357322692871e-01 -4.800518974661827087e-02 9.195864200592041016e-02 -3.871325030922889709e-02
2.654779143631458282e-02 -2.632670337334275246e-03 1.825698651373386383e-02 -2.114463783800601959e-02 4.467561468482017517e-02 -9.104586206376552582e-03 -1.123382747173309326e-01 1.700151264667510986e-01 -9.418326616287231445e-02 -3.275094553828239441e-02
8.243940770626068115e-02 1.213555559515953064e-01 -1.351701319217681885e-01 2.381036244332790375e-02 -1.002153605222702026e-01 4.227734357118606567e-02 8.224753290414810181e-02 -8.538465201854705811e-02 6.068761646747589111e-02 1.311832964420318604e-01
2.173107415437698364e-01 -7.531141489744186401e-02 -1.361772865056991577e-01 -7.997716963291168213e-02 -2.951612137258052826e-02 -1.063337996602058411e-01 -4.376907274127006531e-02 -1.136079505085945129e-01 -7.035608403384685516e-03 6.960980594158172607e-02
1.079002744518220425e-03 1.412976831197738647e-01 -2.448740601539611816e-01 1.322574466466903687e-01 1.979143321514129639e-01 -7.541202753782272339e-02 2.284669503569602966e-02 -6.371002644300460815e-02 -3.395688533782958984e-02 6.101107597351074219e-02
1.342821270227432251e-01 1.337331086397171021e-01 -1.031283661723136902e-01 -7.354936748743057251e-02 -1.378460526466369629e-01 6.661083549261093140e-02 -1.253823339939117432e-01 1.111473664641380310e-01 4.452797025442123413e-02 1.008564084768295288e-01
1.236274279654026031e-02 -7.467134296894073486e-02 9.122544527053833008e-02 2.164843678474426270e-02 -1.324162930250167847e-01 -2.665819413959980011e-02 1.243633478879928589e-01 -9.706620872020721436e-02 -1.091345921158790588e-01 2.738665230572223663e-02
