[-1.35697499e-02  7.63250655e-03 -5.03761880e-02 -3.92111540e-02
 -1.01840727e-01  5.23479236e-03  5.06233126e-02 -8.43309388e-02
  3.60051147e-03  3.69776525e-02  2.56178230e-02  2.19551753e-02
 -4.33534803e-03 -4.33985554e-02 -1.83887612e-02  8.30278322e-02
  2.10520271e-02 -4.63510212e-03 -3.66680101e-02 -6.35315850e-02
 -3.46670579e-03  3.43905538e-02 -3.57434414e-02  8.86004567e-02
  3.71108353e-02 -5.09312265e-02 -6.19317964e-02  3.70029807e-02
 -8.00093785e-02 -8.81535874e-04  4.17458974e-02 -8.50953832e-02
 -5.20353429e-02  9.05482937e-03  2.05522645e-02 -7.52765909e-02
  1.29495226e-02  1.56476477e-03  1.05355019e-02 -8.06636959e-02
 -2.59306263e-02 -3.92216220e-02  5.44364005e-02  9.28143226e-03
 -2.13932320e-02 -9.40805078e-02  4.83360421e-03  4.62247394e-02
  2.52987240e-02 -1.99990650e-03  1.36873759e-02 -3.22765782e-02
  1.07173480e-01 -2.05009189e-02 -4.22594063e-02  2.07522279e-03
 -7.20707402e-02  7.10090175e-02  8.45113769e-02  3.42614017e-02
  2.66999975e-02  1.65209896e-03 -5.25353476e-02 -5.59856221e-02
 -2.06399616e-02 -3.15938406e-02 -1.91971716e-02  3.64198573e-02
  7.57959718e-03  5.17930910e-02 -4.76267450e-02 -4.35861945e-02
 -7.90586844e-02  3.51321399e-02 -2.70259008e-02  6.11965405e-03
  5.77534921e-02 -6.88413605e-02  5.95411845e-02 -4.60298136e-02
  2.13970505e-02  8.51098634e-03 -2.05299072e-03 -3.03955246e-02
  1.85132548e-02 -8.04752856e-02 -7.35516027e-02 -1.86637323e-02
  6.27606586e-02  2.60132235e-02  1.44077055e-02 -5.10597415e-02
 -5.86262234e-02 -3.15893292e-02  7.39528611e-02  3.22505124e-02
  1.24444878e-02 -3.31334062e-02  7.14649037e-02 -7.44581521e-02
 -1.62249058e-02  5.54005392e-02  4.78105843e-02 -2.41113417e-02
 -2.81346310e-02 -6.16564937e-02  3.37377600e-02 -4.32451516e-02
  4.72134426e-02 -4.26982879e-04 -2.96030939e-02 -8.22811667e-03
 -5.34402160e-03 -2.42631622e-02 -1.67553332e-02  3.67347524e-02
  1.78605672e-02 -1.25383968e-02 -3.25198472e-02  2.31358968e-02
  8.13626572e-02 -3.14829776e-05  5.05931564e-02  7.02134445e-02
  9.83862020e-03 -3.34611908e-02  4.99091148e-02 -2.53495723e-02
  1.23532452e-02  2.80106273e-02 -6.60313386e-03 -4.35849354e-02
 -2.49984134e-02  4.69597951e-02  3.58657539e-02 -5.44653572e-02
 -5.65457344e-03 -4.35071113e-03 -7.71931559e-03  1.91430897e-02
 -6.62751123e-02 -1.02053182e-02 -5.20517714e-02 -5.87421134e-02
 -4.31531779e-02  5.32164387e-02  3.44551019e-02  5.46687953e-02
  1.59037784e-02  2.77937837e-02 -9.58046019e-02  5.70096225e-02
 -6.63869781e-03  3.95758413e-02  5.95084019e-02 -5.56507744e-02
  6.43550046e-03  5.30795641e-02  8.23583826e-03 -5.75259607e-03
 -6.85515180e-02  2.93821730e-02  4.08248417e-02 -7.84401000e-02
 -1.82675626e-02 -6.14368096e-02 -3.41788717e-02 -3.11289169e-02
 -1.48209771e-02  2.36353837e-02  1.92250032e-03 -3.32387886e-03
 -1.03471912e-02 -5.86824073e-03  1.25344275e-02 -8.43542442e-02
 -1.24031771e-02  6.21653441e-03 -2.30148155e-02  4.35464717e-02
  1.86960511e-02 -5.34198917e-02 -4.02667597e-02 -3.59924138e-02
 -1.50975473e-02  2.51624752e-02 -6.60537332e-02  2.61936765e-02
  1.35365576e-02  3.81413661e-02  6.58287182e-02 -6.63945153e-02
 -2.97807734e-02  6.31397516e-02  3.14484574e-02 -3.50264013e-02
  1.85858421e-02  7.79477656e-02  8.18180218e-02 -9.65220854e-02
 -6.79008104e-03  1.18838353e-02  1.65578332e-02  4.75122444e-02
  3.99797186e-02  1.19466372e-02  2.96126120e-02  1.91536155e-02
  2.72658430e-02  4.63858768e-02  1.73259359e-02  2.36842539e-02
  4.72605489e-02 -8.19095969e-02 -1.20788449e-02 -7.02593848e-02
 -6.25426918e-02  4.09000143e-02  7.33603984e-02  2.61556283e-02
  3.63129228e-02 -5.32639213e-02 -1.85359567e-02  4.10077944e-02
  1.30187487e-02  1.34778963e-02  9.81262401e-02 -2.15327907e-02
  6.73817936e-03 -1.30087361e-02 -1.65137649e-02 -9.56737529e-03
  8.79465602e-03 -7.90594816e-02 -1.64767914e-02  2.45229322e-02
  1.70411021e-02  6.82811588e-02  7.07261935e-02 -1.72595922e-02
 -8.41392800e-02  2.99982838e-02  2.94120237e-02 -3.89559148e-03
 -2.36807372e-02  2.12388635e-02 -1.05546806e-02 -2.29497650e-03
  1.43261896e-02 -3.90391285e-03 -6.09716177e-02 -2.83653699e-02
 -1.69594381e-02  3.43915038e-02  8.03301930e-02 -3.98045518e-02]
[-4.4613548e-02  1.8276878e-02 -5.0896123e-02  4.5757420e-02
 -2.1173749e-02  4.0952213e-02 -6.4149080e-04 -2.1493478e-02
 -4.4682026e-03 -4.3149304e-02  3.9953113e-02  1.1930195e-02
 -6.6751309e-02 -3.8912695e-02  8.3518147e-02  2.7557924e-02
 -4.4712026e-02  4.9662977e-03  1.5190160e-02 -5.1577430e-02
  6.3142478e-02 -4.1257624e-02  2.4459621e-02  2.2498354e-02
 -6.3355789e-02  9.0612232e-04  2.1251183e-02 -2.4762237e-02
 -2.7337916e-02 -1.5959900e-02 -1.9621957e-02 -8.7094799e-02
 -1.3902922e-02 -2.8565483e-02 -7.7619322e-02  4.9802553e-02
  9.1506587e-03 -6.0024034e-02  1.0546043e-01 -5.5174779e-02
  5.6874260e-02  2.3659926e-02 -4.3112248e-02  4.1843612e-02
 -7.6126135e-03 -4.4718716e-02 -4.0968582e-02 -4.9041938e-02
 -5.1477555e-02  2.9319823e-02  1.6296700e-02 -1.4015819e-02
 -5.0344720e-02  2.8833814e-02 -5.2935127e-02 -1.1429605e-02
  9.1646485e-02 -1.7349862e-02 -7.0211701e-02  5.8902476e-02
 -7.8596465e-02  4.5764554e-02 -1.6296398e-02  3.9451692e-02
  6.9694035e-02  1.9585697e-02 -5.5427950e-02 -3.3565782e-02
  5.3325216e-03  5.9735402e-04  8.1784301e-02 -9.1968328e-02
 -1.5976699e-02 -2.1758385e-02 -2.3731554e-04 -2.5300972e-02
 -3.5681255e-02 -1.5996346e-02  5.9659770e-03 -5.4587048e-02
 -7.2378501e-02 -2.0609044e-02  1.3733561e-02  1.0398166e-01
 -4.7362216e-02 -9.5982932e-02  2.0427454e-02 -3.7993278e-02
  4.4559631e-02 -2.2161722e-02 -3.0939505e-02 -3.5555955e-02
  2.7280273e-02  8.0782333e-03  6.6159517e-02 -3.2228008e-02
  5.1106788e-02  4.3474220e-02 -1.5386333e-02 -4.8808105e-02
  1.8111045e-02  4.5557585e-02  7.2682783e-02  4.3630239e-02
 -5.6109042e-03  7.5343447e-03  5.2684888e-02  5.6770004e-02
 -4.6206940e-02  1.7585011e-02  6.0014118e-02 -1.3101721e-02
  1.4806984e-03 -3.6251813e-02 -2.2466116e-02 -4.5662656e-02
 -1.0849108e-02  1.1456771e-02 -3.7613362e-02 -7.5205401e-02
  3.7726920e-02 -8.8991709e-02 -4.7601178e-02  4.9046312e-02
  6.7407496e-02 -2.5973441e-02 -1.4679678e-02 -3.6753975e-02
 -4.6687145e-02 -8.3130196e-02 -7.2008356e-02  1.3293833e-02
  1.2236336e-02 -2.1653783e-02 -2.8846718e-02  8.1277981e-02
  1.8784380e-02 -3.1096760e-02  2.5042744e-02  2.1524549e-02
 -8.7340266e-02 -7.4638858e-02 -3.9011263e-03  4.3283263e-03
 -4.5443937e-02  6.0192510e-02  9.1881743e-03 -3.3400308e-02
  6.2007713e-03 -2.0814702e-02 -1.9911455e-03 -6.9232509e-02
 -1.1997320e-02  6.4633559e-03 -6.5545064e-05 -3.8235493e-02
 -4.1413985e-02  6.5739661e-02 -2.3653114e-02  7.8730285e-03
 -5.4451693e-02  5.3406306e-02 -2.1447275e-02  1.2150601e-02
  3.7761234e-02  4.3107308e-03  3.3113270e-03 -1.2859673e-02
 -2.6909098e-02  3.4822904e-02 -9.0321479e-03  6.2483002e-02
  6.4312696e-02  2.7681387e-03 -7.6031918e-03 -2.1015318e-02
 -4.2469840e-02 -9.2243068e-02 -9.4191646e-03 -1.1557425e-02
  9.9095434e-02  5.3325661e-02  8.3028227e-02  1.5162343e-02
  1.6346496e-02  1.2579624e-02 -8.8496514e-02 -5.0228056e-02
  2.2764524e-02 -1.1550334e-02 -3.0858105e-02  2.5061674e-02
  1.8172082e-02  1.1007938e-02 -3.6516603e-02 -3.4186203e-02
  2.2522310e-02  5.9458185e-02 -6.1381057e-02 -2.9312072e-02
 -6.3815266e-03 -6.4840026e-02  1.4746905e-02  3.2924525e-02
  1.0198128e-02  4.3979350e-02 -2.0135300e-02 -1.5900655e-02
 -5.5612363e-02 -4.8912443e-02 -2.6335251e-02 -6.1544489e-02
 -8.8429019e-02 -2.7479744e-02 -3.5222895e-02  4.1930843e-02
 -5.6717251e-03  1.6087018e-02  3.2451075e-02 -1.4921968e-02
  3.8058657e-02  1.6041163e-02  3.1081809e-02  7.8966483e-02
 -2.3791326e-02 -7.0203580e-02  3.1180000e-02  1.9637968e-03
 -1.6389847e-02  1.0504087e-01 -1.3205189e-02  5.3908944e-02
  3.1711173e-03  1.5331111e-03  4.3979503e-02 -5.1870281e-03
 -4.0764492e-03 -5.9820920e-02 -5.3019408e-02 -4.6477653e-02
  3.7538063e-02  2.4690712e-02 -3.4069128e-02 -1.5076278e-03
  5.3007905e-03  2.4590697e-02  5.5542909e-02 -4.8042685e-02
 -4.3331269e-02  8.0608703e-02  2.9035913e-02 -5.4559946e-02
 -2.7422143e-02 -4.5859188e-02  8.7771729e-02 -8.7759398e-02]
[ 0.04150444 -0.03148401  0.04298012  0.02438301 -0.02505773 -0.01710918
  0.01962236 -0.0525578   0.02912905 -0.01462994  0.04564635  0.05743036
  0.01308521 -0.06505584  0.02289693 -0.02692976  0.02860846 -0.03969083
 -0.02593689 -0.00460734 -0.00844108  0.0567499   0.03127552  0.07104922
  0.03896349 -0.06899662  0.02027421  0.02879924  0.03492801  0.06644395
  0.10518286  0.02436464  0.01363504 -0.00831596 -0.02828655  0.02042572
 -0.00440547 -0.0022892  -0.01358936  0.03597913  0.07601384  0.08029845
  0.02203923 -0.05382295 -0.01246827 -0.08128309 -0.01826913  0.0889396
  0.0480148   0.0596677  -0.08018929 -0.0099559   0.00874409  0.00581516
 -0.080346    0.05624602  0.05501319  0.03760874  0.05849016 -0.00290867
 -0.03893125  0.01095481  0.03697405 -0.03033135 -0.06600145  0.03122621
 -0.0343965   0.02168221 -0.0571687  -0.04566081 -0.02890112 -0.04853021
  0.00203364  0.01191855  0.02990315  0.08462826 -0.07653224  0.00158708
 -0.02803332  0.01211747  0.02905093 -0.08526175  0.01757297  0.01786483
  0.05326268  0.00116745 -0.01174548  0.00357865 -0.01250137 -0.02279373
 -0.01143637 -0.05673784 -0.03007865 -0.03470337 -0.05884027  0.00396775
 -0.04303236 -0.04187357 -0.04190857 -0.10762117 -0.0374966  -0.01451732
 -0.02107459  0.07809146 -0.02016861  0.00835493  0.01333007 -0.08830245
 -0.0670497   0.04026333 -0.02085232 -0.03385515 -0.04508147 -0.02316746
  0.00052397  0.00986728 -0.0002154  -0.0072113   0.05864506  0.0045386
  0.11215475  0.01764092 -0.04650214 -0.04006192 -0.02053669 -0.06817521
  0.03614349  0.00452822 -0.05891378 -0.00530797  0.04773368 -0.03277326
  0.10071939 -0.04715469  0.00800401  0.07225579  0.02915161 -0.03241426
 -0.08950612  0.02227969 -0.06650507 -0.03177983 -0.08022948 -0.10622747
 -0.12168838  0.06919902  0.03175548  0.04623856  0.00917104  0.06714682
  0.02728214  0.04854406 -0.03475623 -0.03306182  0.04698899  0.1171369
 -0.07699789 -0.04761735  0.05309103  0.00677322 -0.07082941  0.00040206
  0.01381328 -0.06479524 -0.00672917  0.01224304  0.06301484 -0.02888672
  0.05940269  0.04746875  0.00262348  0.04693719  0.03881349 -0.08769798
 -0.03473463 -0.00149643 -0.00178092  0.03026953 -0.00576287 -0.08208567
  0.06205502 -0.09183508  0.06129766  0.01394605 -0.05775879  0.02504695
 -0.01775713  0.01900704 -0.055898    0.07104611 -0.06279676 -0.01745209
 -0.03115965 -0.04706485 -0.02158893  0.07264242 -0.04296342 -0.06597614
 -0.00235399  0.0487399  -0.02845    -0.05397031 -0.01325626 -0.01146758
  0.00605543  0.00924913  0.03818848 -0.01344866  0.02878729 -0.06864135
 -0.02020514  0.01032813  0.04794473 -0.04479669 -0.01083345 -0.01831259
 -0.03964215 -0.01450308 -0.01524656  0.00811516 -0.02480646  0.05237937
  0.03749283 -0.00691012 -0.01285873  0.03595456 -0.02213586  0.00209607
 -0.00265568  0.07444465 -0.07544034  0.0741377  -0.04516336  0.01323253
  0.02983927  0.01746117 -0.00753001  0.04225509  0.0624551   0.03652545
 -0.05203211  0.02870472  0.0422172  -0.02501246 -0.06371413 -0.0561168
 -0.06065293  0.03174882 -0.10035351 -0.03131864  0.03660055  0.06305744
  0.04237731 -0.01742141 -0.03479573  0.04136203]
[-0.06538427 -0.01624157  0.05407237  0.01571171  0.06554691  0.0335423
 -0.07249223  0.01889179  0.04193703 -0.05683339 -0.06792485  0.00850294
  0.00837949 -0.0343392   0.05217768  0.00812905 -0.02483963 -0.01655596
  0.09617908  0.05510775 -0.03766323 -0.0247058  -0.01139322  0.09334799
  0.01935096 -0.02171949  0.01743005 -0.07293281  0.07103288  0.04553105
  0.11824556 -0.04735343  0.03168527 -0.01769182 -0.02357825 -0.08260007
  0.02509255 -0.04024843  0.04737492  0.04803424 -0.06814622  0.02256614
 -0.08018389  0.07338601 -0.01029638  0.00408987  0.01220339  0.03234799
  0.01986184  0.01184737  0.02141739 -0.00921908  0.00435505  0.01038738
 -0.08817715 -0.06732283  0.04740607  0.0702948  -0.02238551 -0.07192048
 -0.00458616  0.05362128  0.00181932  0.00340786  0.04038597  0.03605358
  0.00207501 -0.05316476 -0.04825024  0.03816437 -0.04646586 -0.09960084
 -0.02086519 -0.01901168 -0.03643777  0.060371   -0.09944516 -0.01211218
  0.00797267 -0.04211995 -0.03675302 -0.10384525  0.03847526  0.08022207
 -0.07316771 -0.03376952 -0.00144876  0.00751067  0.05902854 -0.00711956
 -0.03523334  0.01168231 -0.02898443 -0.08182565 -0.06640847 -0.00319555
 -0.04057275 -0.06595409  0.0183408   0.05623065  0.00942462 -0.09616906
  0.01903722  0.03921816  0.00901702 -0.01918634  0.05400528 -0.01198278
  0.00521483  0.02144278 -0.02916226 -0.02625838 -0.04436098  0.03108676
  0.02561251  0.0520216   0.00605015  0.0065361   0.01992699  0.03989968
  0.12143962 -0.03207826  0.02133688 -0.03632943  0.1090325   0.00615092
 -0.02194401 -0.01608873  0.05154281  0.03019015 -0.00244084  0.06517726
 -0.00777274  0.01685807  0.02659343 -0.02807282 -0.00033932  0.05055947
  0.00848162 -0.02274604 -0.03067122  0.00203144 -0.00589304 -0.02400674
 -0.06830283 -0.0347456   0.05786935 -0.10693086 -0.0701274   0.01098005
 -0.05308643  0.01933071 -0.00626733  0.03096273 -0.04854142  0.02187652
 -0.06103493 -0.0098494   0.03224974  0.00160134 -0.04213096 -0.01129952
  0.03052707  0.00581293 -0.09257378  0.03045403  0.0612472   0.08041719
 -0.01048201  0.08550073 -0.02880301  0.0426256  -0.0037226  -0.01598474
  0.00068254 -0.03163004 -0.02069885  0.02174868  0.02600644 -0.03875414
  0.07786231  0.02644338 -0.05952899 -0.0166006   0.09417999 -0.01833023
 -0.04293975 -0.07736867 -0.01459963  0.09690616 -0.02326275  0.06017621
 -0.02586412  0.04168361 -0.07560719  0.00947856 -0.04729609  0.04365432
  0.03178848 -0.07679953  0.0241797   0.00175658  0.0620024  -0.04686704
 -0.06219448  0.08415548 -0.02747402  0.02137416 -0.08386844 -0.01895987
 -0.05390988  0.02452249 -0.01053264 -0.0847312   0.00115665  0.02499885
  0.00576688  0.01394674  0.03905327  0.00020338 -0.0241687   0.02392404
 -0.04415675  0.13143152  0.04460511 -0.07994767  0.02144037 -0.07343599
  0.0030257   0.00360306  0.039873    0.05012997 -0.00068535  0.01125274
  0.02905567 -0.01276579  0.05811434 -0.05311484 -0.0713851  -0.09611116
 -0.00865117 -0.0025375  -0.0235298   0.07537423 -0.10006959  0.06372651
 -0.05170899  0.0450132   0.02319239 -0.00942598 -0.05088671  0.06688663
  0.00726436  0.00769199  0.00651578  0.02310544]
[-0.03202492  0.02996255  0.08732995 -0.04079693 -0.0933622  -0.04293548
 -0.05726543 -0.05043403 -0.03069657 -0.00840249  0.05261285 -0.03139621
  0.03440566  0.00706612 -0.04810371  0.0033025  -0.02501959  0.0313894
  0.05256677 -0.04475252 -0.03649159  0.00481929  0.03781809  0.00829005
 -0.0570812   0.04113154  0.01738074  0.04257533  0.01166898 -0.03447809
  0.02162139 -0.06700282 -0.05406249  0.01646507 -0.03543939 -0.01234361
 -0.06161776  0.00284234 -0.03817099  0.01800949  0.10108781  0.04123066
 -0.02763421 -0.02921994  0.00800654  0.00696287 -0.01558634  0.03061191
 -0.01474583 -0.04694794 -0.01499233  0.02426249  0.01699249  0.03831679
  0.0004583   0.04488369  0.00966546 -0.06168972  0.07001082 -0.00061496
 -0.04786528 -0.02575579 -0.00335612 -0.02516703 -0.01269593  0.02606375
 -0.05086002  0.01097725  0.02193094  0.03052407 -0.01173975 -0.09070819
 -0.03931241 -0.03917877 -0.00165393  0.05456705  0.03278921  0.03812865
  0.01753717  0.06938885  0.02124753  0.0239289   0.01032412  0.04542182
 -0.03381458  0.02398308  0.05536209 -0.03261989  0.06504676  0.00114105
  0.05587224 -0.00263772 -0.03683763 -0.00497317  0.04072487 -0.06446254
  0.00743933 -0.05428186  0.00822896 -0.07214922 -0.03386656  0.01825677
 -0.0106917   0.03638745 -0.00323832 -0.00935415 -0.05012142 -0.05916415
  0.01243893  0.02816513  0.04778443 -0.05845892 -0.01166497  0.01307036
  0.00138291 -0.06193578  0.02974804  0.0587334  -0.0117599  -0.04201631
  0.06984708 -0.02506623  0.03610138 -0.03148374  0.05421303 -0.01681655
  0.0139955   0.01047036 -0.00591934 -0.05228709  0.03847698  0.09110663
 -0.01011114  0.01140129 -0.02449302  0.07935354  0.02559577 -0.07943138
 -0.00384659  0.04649936  0.04413142  0.00231701 -0.03387426  0.00341993
 -0.00031817  0.01298954 -0.06190656 -0.10312276 -0.04917893  0.07040332
  0.02692747 -0.02182589 -0.01307275 -0.04160399  0.00698951  0.00381903
  0.09932394  0.00431202 -0.04640871 -0.0244504  -0.05769056 -0.03026094
  0.07957297 -0.02914777 -0.01204235 -0.07004961  0.0653198   0.02637472
  0.02508635  0.0095056   0.07595093  0.00401644 -0.03532701 -0.05731763
 -0.00401224 -0.02483742 -0.01626124 -0.07166139  0.05284806 -0.05885774
  0.01333372 -0.08465262  0.00706869 -0.0663617  -0.03315921 -0.06453871
 -0.04080926 -0.01897214 -0.01833703  0.01242797  0.03955023 -0.02953238
  0.09075277 -0.01628875 -0.08298414  0.0197761  -0.01200082  0.04379222
  0.09248222 -0.00954045  0.06113483  0.00098149 -0.01244468 -0.07843649
  0.0502115  -0.08616949  0.04251158 -0.06594954  0.07953166 -0.01543094
  0.01977027 -0.06516361 -0.04557333  0.0317869   0.00924073  0.01832435
 -0.06774896  0.0404263   0.01637463 -0.04688457  0.01365466 -0.02634745
  0.0236558   0.0116008  -0.01606339 -0.02895709 -0.04022874 -0.01812873
  0.03759021  0.05233674 -0.06001921  0.03213402  0.01491047  0.05383999
  0.00280563 -0.0028166  -0.01165951  0.0342094  -0.09195217  0.02616253
 -0.01408888 -0.03168834  0.01859564  0.04470131  0.01952096  0.01174363
  0.07726907 -0.03391284 -0.05664304  0.02982025 -0.09922275 -0.03374187
 -0.00814346 -0.0223408   0.07102481  0.07126866]
[-0.07207408  0.02575088 -0.03863649  0.03873782 -0.04094558  0.05336613
 -0.05680453 -0.03596122  0.01921481 -0.0372273   0.05883802  0.02514136
  0.03810585  0.01519741  0.04443196 -0.02180796 -0.0210826   0.00742597
  0.00877713  0.01853081  0.06472057  0.02121506 -0.00605993  0.08478475
 -0.04431342  0.04666181  0.02892848 -0.01255533  0.06165617 -0.07370611
 -0.03495108 -0.04287245 -0.00476632  0.00060626  0.03245841 -0.02478927
 -0.01528647 -0.01145746  0.05290923 -0.01890556  0.03002694  0.01677752
  0.02950166 -0.09526803 -0.0051655  -0.02072319 -0.08627892  0.02966453
 -0.00398257  0.07482277  0.03792309 -0.01910546  0.0745827   0.06158538
 -0.02695065  0.01455075  0.01733551  0.02608191 -0.04231198  0.00763192
  0.00999318  0.00321988 -0.05459756 -0.05669168  0.08469288 -0.01765211
  0.03584517  0.03559063  0.05978081  0.09468661  0.00582408  0.00296013
 -0.02232535  0.08887918 -0.00304451  0.06550565  0.09100044 -0.00585507
 -0.04764614 -0.01606066  0.00142015  0.02284381  0.01498024  0.03888397
  0.05151603 -0.02165327 -0.00914411 -0.00744243 -0.02484936 -0.04655728
 -0.00407515 -0.04606723 -0.05948035  0.0658099   0.02021393 -0.07615209
  0.06560229  0.02099551  0.03489465 -0.04037388 -0.03993792 -0.0043266
 -0.02646035  0.05818507  0.00075772  0.02624107  0.02910045 -0.10227002
 -0.0648208   0.01299509 -0.02423821 -0.07706289 -0.01564583  0.02674796
  0.01726376 -0.07550431 -0.02682078  0.01869961 -0.08593984  0.03288009
  0.06379408 -0.00807594 -0.02919806 -0.00338956  0.03814769 -0.08491219
 -0.00347916 -0.04090302  0.00880338 -0.03157989 -0.04846682  0.05010103
 -0.02258921 -0.10575377 -0.00863615  0.03683144 -0.0595342   0.02032717
  0.00688236 -0.01256889 -0.02227564  0.0300546   0.02282709  0.00298203
 -0.02344481  0.01342609  0.01010995  0.02670632  0.03409396 -0.02562969
  0.00771629 -0.00958204 -0.04953507  0.0152034  -0.05579893  0.04734574
  0.00040088  0.03649137 -0.02704234  0.00244567 -0.03222658  0.01497948
 -0.02530136 -0.02985662  0.04117335  0.01946773 -0.05399288  0.07819878
  0.05389218 -0.00390743  0.02231609  0.02477185  0.00944149 -0.08706959
  0.08583397  0.04423553 -0.06475202 -0.00095089 -0.05201899 -0.05009222
  0.07316071  0.00838944 -0.0197375   0.01584031  0.0339203   0.0482436
  0.01605495  0.09272513  0.07969393 -0.00974428  0.04222693  0.05044893
  0.0265758   0.02341776 -0.03131879  0.02352184 -0.08101334 -0.02424002
 -0.0635032  -0.02352409 -0.0133657  -0.0034233   0.07720613  0.03070109
  0.04345049  0.04220627 -0.01573746  0.01934127 -0.04678336 -0.03724361
 -0.05403866  0.02830774  0.01858282 -0.05915507  0.03853342  0.0126467
  0.00458207  0.01592381 -0.00503891 -0.04506187  0.03252236  0.00940653
 -0.05336275  0.09291074  0.05304078 -0.03389641 -0.04701478 -0.01117957
  0.00381022  0.07947835  0.03150767 -0.00655075  0.05891563  0.01324384
  0.03527636 -0.00347978 -0.02183284  0.03333167 -0.03477574 -0.09467544
 -0.02566709  0.07790263  0.01506303 -0.03745362 -0.04072573 -0.06910523
  0.04821114 -0.04144685 -0.06470475 -0.01643637  0.02422355  0.01610582
  0.03137996 -0.02021106 -0.01034546 -0.01624824]
[-0.02628682 -0.03360911  0.05929307  0.04299097  0.01368455  0.04030871
 -0.01761134 -0.01461424 -0.00574097  0.02944112  0.06627697 -0.05366642
 -0.09948914 -0.03581899 -0.03674752  0.02886789  0.03251962 -0.00882729
  0.0362977   0.0804515  -0.09822001  0.04529237 -0.04394185  0.06170434
  0.05854482  0.05402764  0.03448281  0.04991564  0.03284062  0.02910102
  0.03153367 -0.03545929  0.07444318  0.04189926 -0.03651114 -0.01897909
  0.00633879 -0.01140413 -0.05028855 -0.11332463 -0.0347047   0.1095954
  0.01228809 -0.04321507 -0.01869508  0.0054592  -0.0049571   0.01678525
  0.05811766  0.07572594 -0.01686025 -0.06209888 -0.02891098 -0.02454946
 -0.07618757  0.00634757 -0.03555416  0.00451345  0.05892797  0.00078499
 -0.01377256 -0.03165744  0.02149907 -0.00602768  0.04800888  0.04877634
 -0.05118912 -0.10851195 -0.07014196  0.05699731  0.04861122  0.02028081
  0.01022049 -0.04200733 -0.03754712  0.0184182   0.06340716  0.0113572
 -0.08591596 -0.03248091  0.03772497 -0.09431885  0.05590685  0.09678932
 -0.04101424 -0.03204605  0.03102743  0.01703031  0.07220971 -0.03335013
  0.06196342 -0.05919871 -0.05900799 -0.02381106  0.08688732  0.03642066
  0.00089062  0.01001506 -0.04539782 -0.00522592 -0.03734111  0.00583217
  0.02357383 -0.04861046  0.06053514 -0.0718609  -0.02765234  0.00054946
  0.07863297 -0.04513468 -0.0564519   0.0861274  -0.01454323  0.05608753
 -0.028077    0.02667302  0.01779212 -0.05575088 -0.08055181  0.08046697
  0.04071441  0.03456416 -0.06088636  0.01452323 -0.00281589 -0.0945541
  0.0322202  -0.03958646  0.00094083  0.07424747 -0.02897744  0.1026591
  0.08563115  0.07780073  0.01179139  0.05786417  0.02750677 -0.02820119
  0.06169417  0.0982698  -0.02676077  0.06976269  0.10951606  0.05595649
 -0.00040952 -0.01182755  0.01587563  0.03482771 -0.06373501  0.09758485
 -0.00767685 -0.01264678  0.03381034  0.01647215  0.04220167  0.03611551
 -0.02481994 -0.03770645 -0.00093561 -0.00911872 -0.03239233  0.00809371
 -0.07214118 -0.01291511 -0.06239861 -0.01776635  0.01197144 -0.02179517
 -0.06526145 -0.04947138 -0.07116616  0.07108109  0.03134554 -0.06670648
 -0.0195642  -0.003995    0.00875109  0.01467048  0.00463462 -0.00370882
  0.05873969  0.0495219   0.01180222 -0.04326155  0.06135625 -0.02517999
 -0.00126281 -0.03344214 -0.01409258  0.00656081 -0.05518064  0.06429752
  0.00442362 -0.08483896 -0.02289733 -0.04111245 -0.0659727  -0.07734428
  0.00935033  0.01058893  0.06009057  0.04579933  0.05809921  0.01370596
  0.07337304  0.0089839  -0.01715105  0.05474875  0.0717836   0.02225216
 -0.05158014 -0.01152257  0.09145945  0.04259017  0.06912301 -0.00423607
  0.03238242  0.03515144  0.004685    0.04039207  0.04181413 -0.04297721
  0.03625878  0.06694473  0.00334055 -0.0473002  -0.06399919 -0.02905614
  0.02394728  0.02932433  0.02196746  0.01749874  0.07430841  0.00434911
 -0.01254247  0.10317599  0.00866776 -0.00369337  0.01976788 -0.02640304
 -0.09218101 -0.01664748 -0.09031896  0.04557168 -0.01302645 -0.03056969
 -0.02643625  0.05174809  0.03686181 -0.01518978 -0.01140408  0.04496613
 -0.04900337  0.00183641  0.02493132  0.05302742]
[-7.13867471e-02  2.95183193e-02  1.93686243e-02 -7.71102458e-02
  1.90051608e-02 -7.09129274e-02 -3.58711146e-02 -4.77687269e-02
  7.33305067e-02  7.15223048e-03 -2.26894626e-03 -6.69703335e-02
 -1.02489747e-01 -3.17303021e-03  4.56871558e-03 -1.02850627e-02
  7.45594725e-02 -5.61339185e-02 -2.13939622e-02  3.31851393e-02
 -1.81026408e-03 -2.96111349e-02  5.68154156e-02  6.04902813e-03
  1.23092802e-02 -1.73698645e-02  5.12744859e-02 -2.01755539e-02
 -4.84908894e-02  5.08489553e-03  1.28115624e-01 -3.25591452e-02
 -8.37722570e-02 -7.12609813e-02  6.31377399e-02 -5.66463582e-02
 -4.12485898e-02 -7.88817066e-04 -4.10368219e-02  4.49374840e-02
  4.28738296e-02  1.49058690e-02 -2.15900224e-02  4.28294949e-02
 -3.57534252e-02 -7.58533776e-02 -8.20070282e-02  1.12561500e-02
  1.86106786e-02 -3.79235484e-03 -6.81223348e-02 -3.10342219e-02
  2.13058125e-02 -3.67394872e-02  1.97189189e-02 -2.55355947e-02
  1.76872704e-02  2.10142229e-02 -3.95391211e-02 -6.31808341e-02
  1.30225057e-02 -5.01697510e-02  9.75596532e-03 -1.04322866e-01
 -4.88281436e-02  6.19324148e-02 -6.68602064e-02 -8.43668059e-02
  3.00781466e-02  4.20948267e-02 -4.79595661e-02 -2.71447804e-02
  9.67802256e-02  7.02841580e-02 -2.54686782e-03  2.12514624e-02
  1.44043257e-02 -4.29651178e-02  1.00821871e-02  2.16234755e-02
  1.60479341e-02  2.58374494e-02  7.44634122e-02 -1.42425415e-05
  2.35758517e-02 -2.12940797e-02 -6.83162510e-02  1.67866796e-02
  5.44121908e-03  5.02660871e-02  2.69845743e-02 -1.82410348e-02
 -3.90471295e-02  5.00207469e-02  1.03618577e-02  6.43539205e-02
  1.39251063e-02  3.85201089e-02 -1.89113468e-02 -8.98629501e-02
 -2.48392168e-02 -2.33337306e-03 -3.58177572e-02  2.41142558e-03
 -5.58115654e-02  5.14690357e-04  4.38357238e-04  1.29415672e-02
  2.28378586e-02 -2.80932672e-02 -1.71401203e-02  6.37722611e-02
  4.28135134e-02  7.08122030e-02 -1.40978005e-02  7.08911510e-04
  3.94635014e-02  2.29279771e-02  6.03893166e-03  4.31474932e-02
  4.49467376e-02 -6.52380139e-02  7.17147142e-02 -1.62449665e-02
 -2.41400525e-02 -1.49198724e-02 -1.34708527e-02  4.69792895e-02
 -1.08944001e-02  2.44695451e-02 -8.22639000e-03  1.31118121e-02
  2.63177045e-02 -3.59952711e-02 -6.73776912e-03  4.84347753e-02
  4.24365094e-03 -8.44918638e-02 -3.74712283e-03  6.51113838e-02
  3.26604545e-02  5.24039567e-02  2.59833261e-02 -2.75414926e-03
 -3.57386656e-02 -4.50966768e-02  2.10660771e-02  5.78940883e-02
  3.60903554e-02 -2.14808583e-02  6.36047944e-02  9.11637917e-02
  1.82921533e-02 -4.75975266e-03  6.01101853e-02  4.83312309e-02
 -4.82837483e-02  5.38378134e-02  4.41796780e-02 -4.62516993e-02
  2.42198501e-02 -7.46513531e-02  5.00913300e-02  4.30981703e-02
  4.41566110e-03  3.88124622e-02 -3.77179645e-02  4.56894562e-02
  4.90052886e-02  2.72056106e-02 -1.92988385e-03  2.80238334e-02
 -9.00447145e-02 -8.81889611e-02  6.19052947e-02  1.33474888e-02
 -2.29184479e-02  2.30206307e-02  7.90910646e-02  7.02345073e-02
  1.69983611e-03 -1.68238934e-02  2.99890675e-02 -5.38520457e-04
 -5.55464737e-02 -5.50538860e-02 -6.47941008e-02  1.85707286e-02
 -4.62139659e-02  7.27130324e-02 -2.21910477e-02  3.75679433e-02
  4.11982648e-03 -8.49453136e-02  8.81892908e-03 -2.06492487e-02
  4.30947589e-03 -4.99765165e-02 -7.28007481e-02  3.86091210e-02
 -3.56279314e-02 -4.76152599e-02  7.95079693e-02  9.24176201e-02
 -1.13657890e-02 -3.20435427e-02 -1.01880578e-03 -7.21890898e-03
  3.90080400e-02  1.64746307e-02 -6.64728433e-02  5.04725892e-03
  6.89041940e-03 -3.35250720e-02  4.74121198e-02 -4.58229221e-02
 -8.59714746e-02  4.76171821e-02  1.01299929e-02 -3.62379029e-02
 -1.84811819e-02 -5.69143668e-02 -5.09442091e-02  4.45765927e-02
  3.36629562e-02 -4.35282029e-02  4.91280332e-02 -1.42763520e-03
 -8.81364122e-02 -3.07861660e-02 -1.93810016e-02  2.71537639e-02
 -2.87180464e-03  2.53030434e-02 -1.20277172e-02  3.48979346e-02
  6.01213202e-02  2.88791973e-02 -5.32121062e-02  1.13817165e-02
  2.25969292e-02 -8.56973976e-02 -5.30860126e-02 -1.48301041e-02
  2.49029528e-02 -4.42852713e-02 -3.04200798e-02 -2.82292403e-02
  4.34709564e-02 -2.30271835e-02 -9.46717188e-02 -7.82974288e-02
 -6.95901141e-02  4.50417493e-03  2.66864896e-02 -4.42552641e-02]
[-5.59457615e-02 -9.26359650e-03  2.64202598e-02 -1.51704531e-04
 -2.72227284e-02  4.82150652e-02  7.28301704e-02 -5.51564880e-02
 -5.31385355e-02 -3.14064249e-02  3.35320085e-02 -8.51375808e-04
 -8.88056681e-02  1.50103327e-02 -1.73140001e-02  7.71225840e-02
  1.40056154e-02  1.82999596e-02 -6.59355223e-02 -1.83506310e-02
 -3.15258726e-02  7.03568310e-02 -9.69373360e-02  6.37742877e-02
  6.77485242e-02  1.06958579e-02  2.12451797e-02  4.78482805e-02
  2.77555138e-02 -6.75394610e-02  6.85606301e-02  7.17120990e-02
 -1.13476487e-02  4.39817570e-02 -3.04081663e-02  1.38594080e-02
 -5.21499738e-02  4.99386117e-02  3.33887003e-02 -1.58787929e-02
  3.58595736e-02 -1.32531386e-05  7.27130026e-02  6.38555959e-02
 -1.18050128e-02 -5.34430109e-02  3.42103280e-02  6.04255050e-02
  1.22126890e-02 -5.22964038e-02 -4.13146354e-02 -2.70104911e-02
 -8.53429809e-02  4.26743701e-02 -1.89863387e-02 -2.63568305e-04
 -3.60107273e-02 -1.53079340e-02  7.41921365e-02 -7.38877477e-03
 -1.59382764e-02  4.92145941e-02 -8.71500298e-02  1.08261360e-02
  3.43869603e-03  7.83068016e-02 -8.05179924e-02 -8.24301913e-02
  2.49199718e-02 -7.06117377e-02 -5.97001314e-02  2.34791841e-02
 -4.78981026e-02 -3.75048667e-02 -1.43913887e-02 -4.27617691e-02
  4.67505231e-02  3.71753536e-02  2.76158880e-02 -1.06778007e-03
  5.64001091e-02 -4.58043180e-02 -1.80509943e-03 -4.17740270e-02
 -5.97403385e-02 -2.76306756e-02 -5.08591719e-02 -6.41195774e-02
  7.79429451e-02  2.19932683e-02 -5.74126281e-02 -4.09473367e-02
  9.18566308e-04 -6.95466697e-02  4.84571196e-02  2.26600058e-02
 -4.63156849e-02  4.77744602e-02  5.79084121e-02 -3.17568183e-02
 -7.85260722e-02 -6.30974174e-02  5.58835678e-02 -4.59354147e-02
  6.25934154e-02 -1.19787743e-02 -4.16175602e-03 -2.27082372e-02
 -7.85779580e-02 -5.55629395e-02  7.22331628e-02  2.97769252e-02
 -1.43192932e-02 -1.90929864e-02 -2.98118051e-02  6.60068765e-02
  3.86981387e-03 -3.85959283e-03  7.72127435e-02  1.06716104e-01
  6.88744411e-02  3.94075289e-02 -1.64187010e-02 -5.07104062e-02
 -3.54704745e-02 -9.31329578e-02 -1.82698183e-02  6.01348504e-02
  1.06766503e-02 -1.58445090e-02 -6.78805783e-02  5.36652617e-02
 -2.78752111e-02 -2.79404194e-04  4.51553129e-02 -1.80766396e-02
 -3.26225385e-02 -1.54423052e-02  8.46237838e-02  4.89344113e-02
  4.60153669e-02 -3.97762395e-02 -3.42083685e-02 -3.92946005e-02
 -5.08379340e-02  1.10703288e-02  8.62864964e-03  9.42879822e-03
  1.11549282e-02 -2.85221636e-02 -1.37511725e-02 -4.13720682e-02
  2.40800511e-02 -1.34300645e-02 -5.33570303e-03  9.02581289e-02
  7.50176907e-02 -6.38757646e-02  3.75796221e-02  5.90351671e-02
  9.76787601e-03 -3.91707867e-02  4.56366464e-02 -3.06180790e-02
 -2.70131696e-02  7.06605092e-02  4.59086411e-02  2.64734332e-03
 -2.99505480e-02 -1.15600256e-02 -5.31484149e-02 -2.43206918e-02
 -2.18115543e-04  5.68710268e-02 -6.58562183e-02  6.88881427e-02
 -5.17110340e-02 -6.31862432e-02  5.16050421e-02 -5.17249554e-02
 -7.52372108e-03 -5.14658205e-02 -9.59857330e-02 -2.44647469e-02
  1.97594543e-03 -5.98325767e-02 -3.27739632e-03 -4.54430990e-02
 -7.26012737e-02  1.51546774e-02  2.64011249e-02  1.37330845e-01
  9.41408724e-02 -1.48187857e-02  1.52828591e-02  5.27360477e-02
  6.00355165e-03  1.04229506e-02 -5.89687340e-02 -2.93818489e-02
  4.09131758e-02 -1.10376431e-02 -3.78484875e-02 -2.68278290e-02
  8.54732376e-03 -9.11867246e-03 -5.17265536e-02 -6.68768510e-02
 -5.24843521e-02  3.14334147e-02  1.10169565e-02  6.75500091e-03
  4.04099301e-02 -2.45013591e-02  8.06185529e-02 -1.56573765e-02
 -2.02752687e-02  1.21982954e-01  3.77237983e-02 -2.27806568e-02
 -3.65003059e-03 -5.11443540e-02 -5.68405911e-03  5.22551686e-02
 -2.66407095e-02 -7.66270421e-03  2.53124777e-02 -5.50947711e-02
 -2.87890527e-02  1.17876362e-02 -1.81938745e-02  1.00738011e-01
  4.23622020e-02  1.14794895e-02 -3.02923378e-02 -6.71076328e-02
 -2.42494028e-02 -9.74497199e-02 -1.81155838e-02  4.19900045e-02
  1.59816220e-02  1.32573945e-02  3.07070017e-02 -1.40172029e-02
 -8.89066160e-02 -1.77020654e-02 -2.07343958e-02 -9.94460955e-02
  2.85374708e-02 -1.83633212e-02 -4.12377790e-02  9.25226975e-03
 -7.75497453e-03  8.75434205e-02 -6.80984780e-02 -2.98765302e-02]
[-2.54090261e-02 -6.34695515e-02 -6.00795820e-02  5.36142476e-02
  2.19435357e-02 -5.34425899e-02  4.13378291e-02  7.25435326e-04
 -4.49194424e-02  4.78231683e-02 -2.86225211e-02  7.48962089e-02
  8.77855998e-03  7.18556046e-02 -3.03370506e-02  9.35044046e-03
 -8.94747078e-02 -2.65167672e-02  5.82179129e-02  5.25014326e-02
  5.46903536e-03  2.92312400e-03 -7.77168125e-02  1.13682076e-02
  1.42386388e-02  3.10343364e-03 -3.39125395e-02  8.01294576e-03
 -9.18386355e-02  1.68462881e-04 -7.79518252e-03  6.97890110e-03
  4.81621502e-03  4.36037267e-03  5.93344644e-02 -1.16414921e-02
  3.24450918e-02  4.75721061e-02 -5.01716696e-02 -1.86930783e-02
  8.95640105e-02  2.94590443e-02 -9.32603776e-02 -3.66045572e-02
  4.23031021e-03 -3.18085798e-03  8.26057568e-02  8.45592748e-03
 -6.02638423e-02  1.90684218e-02 -3.37324617e-03  3.63357812e-02
 -3.96295525e-02 -3.12167052e-02  3.71251465e-03 -3.75966802e-02
 -7.81202689e-02 -4.80890349e-02  6.13915138e-02 -7.70049542e-02
 -1.92935090e-03  1.01046294e-01  2.96875723e-02 -2.67016981e-02
 -8.95804614e-02 -7.82339945e-02  6.06116839e-02 -1.13012493e-02
 -4.13113041e-03 -3.44644696e-03 -2.49942224e-02 -5.07591851e-02
  2.88566807e-03  6.18806519e-02 -7.23872753e-03 -4.64177364e-03
  2.20933352e-02 -6.64724782e-02 -3.97485821e-03 -1.03264404e-02
  2.44229455e-02 -2.10185405e-02 -5.61190676e-03 -6.98175058e-02
  4.82733734e-02  2.22190488e-02  6.16355799e-02  3.12747361e-05
  4.49855737e-02 -1.05959708e-02 -1.17934421e-02 -7.63447061e-02
 -5.30718938e-02  1.01102740e-02  2.61061769e-02 -3.01174857e-02
  6.26362860e-02 -2.37974022e-02  2.35784869e-03  3.42620909e-02
 -1.26156481e-02 -2.76890192e-02  6.13514939e-03 -2.64063086e-02
  5.43512776e-02  4.61219773e-02  2.94942083e-03  7.00521618e-02
 -1.55144827e-02  1.62191018e-02 -8.88720378e-02 -2.70569511e-02
 -2.30590273e-02 -9.03975442e-02 -3.81929763e-02  5.72876297e-02
 -3.73830507e-03 -7.99498335e-03 -2.09532958e-02  3.91344689e-02
 -6.73633814e-02  3.42562720e-02  6.71286881e-02 -8.28855932e-02
  1.63219329e-02 -3.56805101e-02 -6.78759068e-04 -2.30033621e-02
 -4.73160073e-02  9.48768295e-03  6.62129512e-03 -9.44689661e-03
  4.00343537e-02 -1.09401405e-01 -9.17072129e-03 -3.38422991e-02
  1.12205895e-03  3.58774178e-02 -3.88128795e-02  1.68835316e-02
 -4.88695987e-02 -3.61587182e-02 -3.73856584e-03  5.30397333e-02
 -2.87721679e-02  5.20055443e-02 -9.14240628e-02  9.51906964e-02
 -4.34422530e-02  2.12235581e-02  5.76452352e-02  4.07529026e-02
 -8.46109018e-02  6.29927684e-03 -6.34058937e-02  4.15206477e-02
 -2.81005055e-02 -1.65308919e-02  5.07222861e-02 -5.36873527e-02
  1.67427771e-02 -5.17990701e-02  1.24714319e-02 -2.75656655e-02
 -2.82818772e-04 -6.00897633e-02 -7.24205375e-03 -3.62857245e-02
 -7.89425224e-02  8.96283798e-03  3.03568095e-02  2.29291264e-02
 -2.20778957e-02 -3.29284891e-02 -5.49407825e-02 -2.62956135e-02
 -5.06095923e-02 -6.48385957e-02  3.36560085e-02 -3.03191245e-02
 -2.86808126e-02  4.47964622e-03  1.79152004e-02  4.27326858e-02
 -7.58025944e-02  8.53726864e-02  6.06568679e-02  7.24131986e-02
  3.23298350e-02  1.14674494e-02  4.92750928e-02  2.46928148e-02
 -6.99111223e-02 -8.36402550e-03 -1.40476308e-03 -1.78292766e-02
 -2.39519775e-02  3.60026695e-02 -2.46057007e-02  2.45482828e-02
  6.71402216e-02  1.64590757e-02  9.20086503e-02 -1.14190504e-02
  2.64559872e-02 -8.35218132e-02 -4.37399969e-02 -1.82804335e-02
  2.09361874e-02 -2.29948619e-03  4.14466448e-02  4.44905460e-02
 -2.20271964e-02  1.61079224e-02  4.95318025e-02  2.90582925e-02
 -4.09755111e-03  2.43285876e-02  3.65782827e-02 -1.50342016e-02
 -2.54953187e-02  1.51222898e-02 -1.02629609e-01  2.25009397e-02
  9.76002309e-03 -2.16479618e-02  1.02803431e-01 -1.95334181e-02
 -3.44467461e-02 -7.33104497e-02  6.92215934e-02  1.42056029e-02
 -2.64153592e-02  5.88401267e-03 -3.72607373e-02 -7.56067783e-03
  2.95235496e-02  7.68672395e-03 -3.51869389e-02 -4.13065888e-02
 -3.07944175e-02 -1.94709189e-02 -4.99360077e-02 -9.27486643e-03
 -3.90952127e-03  6.27194252e-03 -1.58654097e-02 -6.07376359e-02
 -7.51719475e-02  3.88007640e-04  1.61466114e-02 -1.79559868e-02
  1.88900586e-02 -2.78014336e-02  3.80212208e-03  1.05447257e-02]
[-0.01610253  0.01368773 -0.02316791 -0.04098898 -0.03039094 -0.08095437
  0.00129887  0.08606798 -0.00676963  0.00442862  0.07964849 -0.02834389
 -0.043427   -0.03109536 -0.06182561  0.05629727 -0.03036231  0.05025304
  0.06822924 -0.04941524  0.05763692 -0.01856028  0.01798636 -0.08188567
 -0.02088826  0.03791024  0.00520108 -0.07511646 -0.02844356 -0.04976147
 -0.01849417 -0.00912022 -0.07838773 -0.00883761  0.03494286 -0.01094057
 -0.05298655 -0.0241832  -0.0129671   0.02646753  0.06392129  0.07575302
 -0.005368    0.00373334 -0.05912703 -0.06972603  0.02554137  0.01929121
  0.00941905  0.00132611 -0.06613956 -0.04206535 -0.08453841 -0.0135028
  0.05392175  0.0742799   0.01368528 -0.06397714 -0.0416685  -0.00568425
 -0.00795618  0.01548246 -0.05889009 -0.01949022 -0.00038435 -0.02146676
 -0.0775888  -0.01069819  0.01912682  0.07432096 -0.02786205  0.02478079
 -0.00542733  0.14309198  0.01605532  0.00565847 -0.03788164 -0.048259
 -0.03113545 -0.02713511 -0.03759062 -0.01449388  0.00382542 -0.03266763
 -0.01188917  0.01756547 -0.02286991 -0.05433019  0.07764543  0.02875149
  0.03859992  0.02893938 -0.03068465 -0.03172991  0.024814    0.0851192
  0.07118145  0.01144388 -0.04997021  0.0003519   0.02840321  0.02132686
  0.00404297  0.03707658 -0.02040537  0.07162403  0.03830021 -0.1048342
 -0.01241333 -0.05020127  0.00193512 -0.05241513 -0.0242828  -0.00377836
  0.05673851 -0.00807234 -0.08101282  0.07648863 -0.02707087 -0.03592417
 -0.00432167  0.04485601  0.06229553  0.00049996 -0.05774772 -0.04531502
  0.0349781   0.04756222  0.01901342 -0.01048165 -0.0115575   0.02028553
  0.06549472 -0.03272356 -0.00324571  0.01185858 -0.02366557  0.01275428
  0.04420094 -0.0889686   0.02701003  0.04938305  0.03829087 -0.0389264
 -0.00343768 -0.02888595  0.0473303   0.0313777   0.02192787 -0.04019545
 -0.01821505 -0.05086387  0.00611487  0.01099609 -0.04461502  0.05445933
  0.0596693   0.09633275 -0.07014552 -0.00259461 -0.0259139   0.07823136
  0.04290249 -0.00345553 -0.02562561  0.06920358 -0.01833382  0.0216054
 -0.05804543  0.04108841 -0.00269343 -0.00473844 -0.07147868 -0.06793214
 -0.04129643  0.01793451 -0.03820238  0.07296152 -0.01019992 -0.03261876
  0.00719658 -0.03434524  0.01149795 -0.04151568  0.05651718 -0.03130491
 -0.01055602  0.0580574  -0.0527044  -0.0619877  -0.02039379 -0.05688043
  0.03382605 -0.06518601 -0.00464832 -0.0032336   0.03568759  0.02503972
 -0.05247868 -0.030864    0.03885425  0.06145649  0.03452092 -0.06127457
  0.00739266  0.03876601  0.03369311  0.00042993 -0.01205011  0.05276282
  0.09778704 -0.02088645 -0.02169233  0.0225564   0.04964966 -0.00812143
 -0.06249267 -0.01667902 -0.0431354   0.01591661  0.05810018 -0.05961095
 -0.02712235  0.0163773   0.02083414 -0.03480648 -0.06168921  0.03594398
 -0.06834379  0.05011554 -0.02223093 -0.00119443  0.03458463  0.00831443
  0.00758056 -0.02199269  0.01281923  0.00617874 -0.06117269  0.04375954
 -0.00374668  0.04272498 -0.03185553 -0.00076228  0.02054917 -0.11112739
  0.04002985  0.01790858 -0.03104891 -0.0349233  -0.02333277 -0.02329868
  0.03294063  0.04095587  0.01850501 -0.01311646]
[ 0.04808274 -0.02177389 -0.05362889 -0.02352899  0.03000142 -0.02219254
  0.01633591 -0.03335298  0.04697137 -0.04973869 -0.04953479  0.06418296
  0.00475403  0.05245657 -0.04409809  0.03925743 -0.04696924  0.03621186
 -0.08470913  0.00424291  0.04495621 -0.04540205 -0.06664753  0.04516174
 -0.02888613 -0.03451724  0.00584828 -0.0282212  -0.00576195 -0.00963343
  0.05852007 -0.04484866  0.0137997   0.03462156 -0.08289602  0.044668
  0.00165871  0.0585296  -0.05012086 -0.02150809  0.06533235  0.03784899
 -0.0065319   0.01452032 -0.00798075 -0.06772301 -0.00735499  0.04739228
 -0.09141529 -0.0020695  -0.07392766  0.05206288 -0.01897738  0.05931074
  0.07855821  0.00810426 -0.07073666 -0.09552263  0.0282283   0.01849445
 -0.01873036 -0.01808417 -0.07539248  0.03795434  0.02833154  0.06104473
  0.05345803  0.00986132 -0.0235013   0.05075884  0.08719718 -0.06041771
  0.0904025   0.10850898 -0.00066634 -0.00516936  0.04349578  0.04972076
  0.03454187  0.01825187  0.08155649 -0.00237036 -0.04492182  0.00184933
 -0.02273337  0.03670192 -0.04470466  0.00620529 -0.03675562  0.02712491
 -0.03816302 -0.03836012 -0.0516686   0.0636778   0.01489646 -0.02275107
  0.04001969  0.05980471 -0.01178483 -0.02768282 -0.01708271  0.0307772
  0.01057579 -0.00456074  0.0215353  -0.0341622   0.06078058  0.04808033
 -0.01485731 -0.0333914  -0.0032669  -0.01590221  0.00439426  0.01451368
  0.07500144 -0.00409499 -0.00242034  0.04713316  0.02203917 -0.05270296
 -0.06053676 -0.02283584 -0.09620428  0.01115307 -0.0163608   0.04724719
  0.07719542  0.01076728 -0.03010091 -0.08086213 -0.03251546  0.10333977
  0.03147491  0.0872723  -0.01607974 -0.02732361  0.03645976 -0.08490485
 -0.0802564  -0.08320046 -0.0282833   0.00877816 -0.05545202  0.09444383
  0.08682398 -0.09324782 -0.03404028  0.01430559  0.01521588 -0.02645261
  0.02643205  0.02061092  0.00263781 -0.07850852  0.00539584 -0.01905401
  0.00322785  0.03790943 -0.05807533  0.031217   -0.00076392  0.04719544
 -0.0049526   0.03823725 -0.07085338 -0.07157542 -0.00471341  0.03109382
  0.03720061 -0.08291299  0.0100222   0.03633353  0.00346185  0.00257791
 -0.04945624 -0.03544135  0.02913408  0.01592801 -0.08981952  0.04328292
 -0.04135073  0.10537806 -0.03342725  0.04464875  0.02443031  0.01976309
  0.01323351  0.01976221 -0.04445853  0.07226518  0.05969036  0.06883617
 -0.01376371  0.02972705  0.00239598 -0.00738065  0.01324956  0.00586864
 -0.06016703 -0.03299072 -0.04389824 -0.07744333 -0.00748163 -0.02936794
 -0.01573479  0.00670508  0.06091705 -0.02020869  0.03229297  0.0286653
  0.05823943 -0.01935009 -0.04258427  0.03390103  0.05289637  0.01568903
  0.04702096 -0.02639953 -0.05010572  0.00683217  0.01477039 -0.09424368
  0.02139036  0.04612698 -0.07556339 -0.04123876  0.07950328 -0.04992282
 -0.05918277 -0.03271756  0.0285506  -0.0190051  -0.08406768 -0.04814196
  0.00730331 -0.02794713 -0.07620515  0.03604003  0.03286405  0.0183795
 -0.01408806 -0.01798519  0.02082029 -0.00094873  0.05717756  0.05844402
 -0.0600035   0.07762891  0.01325068  0.00754921 -0.08295732 -0.00722173
 -0.04013709  0.03264351  0.03072412 -0.06996188]
[-3.73984762e-02  5.74777275e-02  1.03725977e-02 -5.29561974e-02
  4.43200059e-02 -7.44602531e-02 -9.54430103e-02 -4.57494408e-02
  2.36541461e-02 -6.88948706e-02 -4.15422916e-02 -6.41997457e-02
  2.09146459e-02 -2.63466071e-02 -2.86012571e-02 -3.63629200e-02
  9.89173818e-03 -4.93358001e-02  2.64365152e-02  4.54860441e-02
  8.57121032e-03 -5.84288947e-02  4.55466919e-02 -4.35405150e-02
  3.23763900e-02 -4.84779850e-02  5.95213957e-02 -7.71257561e-03
  3.38754132e-02  2.50508860e-02  3.07485666e-02  1.78079307e-02
 -2.45315069e-03 -6.94367811e-02 -2.17098128e-02  7.66108483e-02
  5.02553917e-02 -4.23833132e-02 -1.08708506e-02 -6.00721054e-02
  2.50053150e-03  5.63671924e-02  5.51789999e-05  1.58590768e-02
 -7.39064887e-02 -3.13027315e-02  1.44098662e-02 -1.37510169e-02
 -1.61910411e-02  1.75847597e-02  2.05816161e-02  5.18553145e-02
 -6.96572065e-02 -3.40364762e-02  6.75958842e-02  2.99215447e-02
  1.12334406e-02  1.07337739e-02  1.18844975e-02 -3.54170203e-02
 -6.37452975e-02  1.01653397e-01 -6.28665388e-02 -4.92915399e-02
 -2.59554498e-02  2.55476814e-02 -7.35444203e-02 -2.74866875e-02
  3.25642079e-02  3.98273431e-02 -2.13483535e-02 -5.55547960e-02
  3.16157676e-02  1.23261362e-01  4.75343950e-02  1.16863186e-02
 -1.26908603e-03  3.16615477e-02 -9.49689746e-03 -1.40635306e-02
 -1.95671208e-02  2.84848846e-02 -3.00755948e-02  1.80246271e-02
  3.23905461e-02 -1.08285904e-01 -7.10048750e-02 -4.82489231e-05
 -7.26479897e-03 -3.97767648e-02 -6.62226751e-02  4.05383594e-02
  3.27678892e-04 -2.47399546e-02 -2.87452224e-03  6.22130074e-02
 -1.31300334e-02  6.84930161e-02  2.15859674e-02  5.19804098e-03
 -8.07859004e-02 -2.84297206e-02  5.68208322e-02  2.12681349e-02
  2.58682836e-02  3.46342847e-02 -3.67530761e-03 -7.26041198e-03
 -2.12859046e-02 -2.48668380e-02 -4.13907617e-02  4.91706505e-02
 -4.66264561e-02  1.51379714e-02  8.97477381e-03  8.10107440e-02
 -6.21253923e-02  2.41565309e-03 -7.08125830e-02  6.43427670e-02
 -4.57899012e-02  1.79918837e-02  8.63111485e-03 -1.90319698e-02
 -3.25914957e-02  1.05486438e-02  3.35536636e-02 -5.54381460e-02
 -7.27172336e-03  2.94320732e-02  2.42185500e-03 -5.45431376e-02
  6.37204871e-02  6.44991472e-02 -2.36137230e-02  2.26561297e-02
 -2.52917334e-02 -8.12941045e-02  6.35261014e-02  1.60177611e-02
 -1.33940177e-02  2.83769686e-02 -2.98298635e-02 -3.36561166e-02
 -2.63685025e-02  5.19185662e-02  3.52740027e-02  6.75078258e-02
 -2.10224390e-02  2.90829204e-02 -1.08824242e-02  6.23803921e-02
 -3.14852297e-02 -7.96761140e-02  5.36423526e-04  2.70243734e-02
  7.75524043e-03 -4.87226509e-02  1.21026924e-02 -3.17729935e-02
  6.14591427e-02 -9.94822979e-02  2.71996539e-02  5.72689511e-02
  2.51004510e-02  2.72203963e-02  7.21407235e-02  7.69748411e-04
  6.80686757e-02  4.42362130e-02 -5.21202385e-02  2.26910859e-02
  1.79461911e-02  4.79738489e-02 -4.58817892e-02  1.01873195e-02
 -3.78191732e-02 -6.05836995e-02  3.95081714e-02  4.36869264e-02
 -6.22728132e-02 -4.91444301e-03 -8.59192014e-02 -2.58120485e-02
  5.34983762e-02 -9.74428002e-03 -1.86039563e-02 -9.03861877e-03
  6.89206645e-02  1.29312426e-02  3.79709713e-02  9.20550525e-03
 -1.37213776e-02 -3.64845395e-02  1.71027612e-02 -2.10912004e-02
 -1.19240135e-02  1.35899102e-02 -3.77960503e-02 -7.43483081e-02
  1.83196384e-02  9.84588731e-03 -6.31352365e-02  4.89212908e-02
 -4.48417896e-03 -1.33147091e-02 -8.93544406e-03 -1.79533428e-03
 -3.02034039e-02 -4.64170575e-02  1.08830882e-02  5.76969609e-02
 -5.63962646e-02 -3.15223895e-02 -1.24878371e-02 -1.96380354e-02
 -7.20026419e-02 -1.42648062e-02  5.25861187e-03 -9.84089896e-02
 -7.61521906e-02 -5.15964255e-02 -5.34198247e-02  8.59398544e-02
  8.11921135e-02  8.02267529e-03 -8.90097916e-02  3.71967554e-02
 -1.10201426e-02 -7.03098550e-02 -3.80947180e-02  6.08800873e-02
  7.66530037e-02 -5.52838203e-03 -4.93489206e-02  4.27754372e-02
  3.88693716e-03 -8.21503252e-03  5.45931165e-04  4.52986844e-02
  8.03419575e-02  1.44833652e-02 -7.38307238e-02  2.10725367e-02
 -5.29595977e-03 -7.48783872e-02  7.25259036e-02 -3.34414206e-02
  1.96137577e-02 -4.66682017e-02 -4.58091944e-02  1.79222580e-02
 -1.01258576e-01 -2.87570003e-02 -1.57506336e-02 -3.12232040e-02]
[-0.02538158 -0.05197626 -0.10568312 -0.03966188 -0.03040408 -0.11837931
  0.06824269  0.01479373  0.03219938  0.00838949  0.0316346   0.05441787
 -0.07451737  0.03407703  0.00231975 -0.03952754 -0.00364127  0.00636021
  0.01098813  0.0269401  -0.0307482   0.0486856  -0.0142029   0.01787058
  0.05690758  0.00111667 -0.09819178  0.02184515 -0.00926242 -0.037969
 -0.04194207 -0.0312133   0.02479143 -0.02788881 -0.00057514  0.07074839
 -0.02545737 -0.03458702 -0.07999773  0.0335064   0.102711    0.03914466
  0.03493155  0.02081898  0.01457635  0.00037247 -0.06667764 -0.07643538
 -0.05084492  0.0829875  -0.01762669 -0.00762399 -0.03413282 -0.05020207
  0.0105387  -0.03138687 -0.02248789 -0.01396262 -0.01842914 -0.07441068
 -0.00887062 -0.02476777 -0.04952883  0.01281046 -0.02609928  0.02549432
 -0.04964217  0.0546635   0.06657923 -0.02357074  0.04661723  0.02210277
  0.05935878 -0.03906378 -0.02313156  0.00416644  0.02704819 -0.03187776
  0.0267554   0.04617401 -0.01795726  0.00713436  0.00217736 -0.01474306
 -0.04255335 -0.00190756 -0.04411303  0.06318095  0.07341494  0.05910479
  0.00801572  0.02954862 -0.01682623 -0.02831739 -0.01998775  0.019703
 -0.06054237  0.00265688  0.04230259 -0.10483758 -0.04555575  0.05814149
  0.05124439  0.00470629 -0.0673913  -0.03744712 -0.01494782  0.05508294
 -0.01750118  0.02501318 -0.04285465  0.01069749 -0.00187328  0.0133207
  0.04483601 -0.00761302 -0.0494643   0.03718977  0.03351853 -0.00698616
 -0.01901572  0.04440767 -0.04100704 -0.04416511 -0.05777258  0.03125902
  0.00964277  0.09148977 -0.01299798  0.0736438  -0.06335469  0.03778014
  0.0080906  -0.03263807 -0.07876588  0.00833769 -0.01879287 -0.02095511
  0.00921894  0.02197845 -0.01145724 -0.0557263  -0.07935264 -0.00615555
 -0.01615938  0.04537844 -0.08361974  0.02086392 -0.0459839  -0.08563347
 -0.04645494  0.0144951  -0.00496766  0.00140338 -0.00344278  0.02736594
 -0.09200344  0.05795857 -0.06443773 -0.05966848  0.01625799  0.08391473
 -0.03523127  0.00798675 -0.00342683  0.05388471  0.02133411  0.0596455
 -0.07398035  0.03973448 -0.0270356   0.00553897  0.06705013 -0.00724279
 -0.07778753  0.01002744  0.05233008  0.03932801  0.03896744 -0.01447369
 -0.00588326  0.03033192 -0.00530067 -0.00626086 -0.03591542 -0.04340477
  0.09623118 -0.06429778 -0.05921264  0.05238833  0.01572844  0.05051031
  0.00633299  0.0414287  -0.04572583  0.02995895 -0.02836315 -0.04167605
  0.00104253 -0.0811469   0.03717699  0.02626118 -0.01362592  0.06828134
 -0.05089296 -0.02679336  0.01191501 -0.07829327 -0.02682757  0.07714391
  0.07880432 -0.01713464 -0.03401722  0.02466772 -0.01324183  0.00562776
  0.00480047  0.0340589  -0.03916345 -0.01670646 -0.03942859  0.02717198
  0.02573673 -0.03117865  0.01634701 -0.01817475  0.02228359  0.07975984
  0.01061347  0.04061794 -0.02634502 -0.01739523 -0.01010493 -0.0438816
  0.00047737  0.00380885  0.08677401 -0.00375457  0.03391155  0.00609343
 -0.01977531 -0.00855069  0.04662725 -0.06947882 -0.02447486 -0.01330836
 -0.08345547 -0.02357615 -0.04539559 -0.00215724 -0.02210121 -0.04360618
 -0.06136483 -0.00408718 -0.02547151  0.04528724]
[-0.06812422  0.08469997 -0.05394216  0.05348305 -0.05028383  0.0041316
 -0.06687328 -0.01016439 -0.10412814  0.0477398   0.04043558  0.019917
 -0.06368233 -0.04413033 -0.0264171   0.00868667  0.03049906 -0.02989686
  0.08149458  0.04286725 -0.05557549  0.00791453 -0.04846897 -0.01635246
  0.00924927 -0.03145245 -0.05127248 -0.09215985 -0.01032908  0.07683177
 -0.04657152  0.02876242 -0.01582468  0.00437881  0.02360043 -0.02199315
 -0.0222118  -0.07108001 -0.04283881 -0.03587951 -0.06837976  0.0300029
 -0.05487162  0.02141106 -0.04246571 -0.00721965 -0.00138956 -0.02595834
 -0.00094352  0.0158427   0.06233717  0.02689162 -0.06944816  0.01389231
 -0.07581156 -0.09621894  0.00434214 -0.04108588 -0.01908503  0.04532113
  0.04704714  0.05909737 -0.05130097 -0.02533922 -0.09514198 -0.03941996
 -0.00081429 -0.00794453  0.00242161 -0.05538404  0.03628788  0.02616035
  0.03455208  0.00442571  0.02224821 -0.04855035 -0.04412796 -0.03718377
  0.02230733 -0.00272042 -0.07584938  0.00215263 -0.02316797 -0.01717367
  0.05799848 -0.04840414 -0.0876928   0.03157981 -0.01162262 -0.01334047
  0.00503807 -0.01285799 -0.00035179  0.01667993  0.01173523  0.04842339
 -0.03308588 -0.05659747 -0.03415401 -0.01324835  0.02015188 -0.01211536
 -0.01477087  0.00307409  0.05697229 -0.00815893  0.02413271 -0.03322428
  0.011789   -0.04503915 -0.08498271 -0.0116024  -0.03576846  0.06593677
 -0.04830659  0.0374814   0.00739209  0.00303262  0.04512442 -0.00366032
 -0.0128577   0.02707422  0.00926493  0.04326139  0.00967749  0.03852383
 -0.05440472 -0.00785402  0.0435336  -0.04268819 -0.0316406  -0.04410841
  0.01560684  0.03319861 -0.01235208  0.02200644  0.01118327  0.01973984
 -0.05100159  0.02091225 -0.01394535 -0.00579763  0.01260744 -0.02664163
  0.01897585  0.02924299 -0.02805564  0.02168688 -0.02765993 -0.04553521
  0.10203745  0.09597325  0.01777869  0.0183503  -0.10416711 -0.0555342
 -0.01605829 -0.01848251  0.05770327 -0.00143414  0.02497844 -0.03606961
 -0.00590127 -0.00747674  0.03356128 -0.04930153 -0.03585435  0.03668754
  0.07139011  0.08598153  0.05215123 -0.07016043 -0.08131535  0.05471118
 -0.01985609  0.07541886 -0.00622225 -0.0510732  -0.05590519  0.00652143
 -0.07724885  0.01814085  0.01979676  0.05100688  0.05390877 -0.02383661
 -0.05598132  0.02387261 -0.01519304  0.01110206  0.05735765 -0.054133
 -0.06348818  0.06159238 -0.02297257 -0.0048707   0.0061877  -0.0159254
  0.07699877  0.0267981  -0.03317045 -0.01633807 -0.0015814   0.02378182
 -0.0302727  -0.05292462  0.00091174 -0.08042085  0.04273333  0.01409918
  0.00224882 -0.07832878  0.06267651  0.01461057 -0.02246106  0.0439546
 -0.02171638  0.00220291 -0.04345036  0.05256493 -0.04915736 -0.05351304
 -0.05027742  0.02165946  0.00694091 -0.04916633 -0.00473473  0.0003445
  0.00339729  0.00186145 -0.04357656 -0.02985428 -0.05346015 -0.01719792
 -0.02167258  0.00532557  0.01627291 -0.00797863  0.00993704 -0.01403827
  0.03981964  0.00836202  0.04970173 -0.10999406  0.07546781 -0.00645383
 -0.01896913 -0.05849159  0.02551816  0.01594894  0.05196922  0.02314448
 -0.05634342  0.01373627  0.04082929 -0.02767878]
[ 3.45517471e-02  8.30940679e-02 -1.40883308e-02  5.00147603e-02
 -7.98233449e-02 -1.18286513e-01  1.79110896e-02  3.47413011e-02
 -4.53677401e-02  9.96625703e-03 -3.30554172e-02 -3.60504538e-02
  7.62425084e-03 -6.53839707e-02  2.85644531e-02  1.01588042e-02
 -2.36749835e-02  2.93037686e-02 -2.11083121e-03 -8.78238119e-03
  1.98723394e-02 -3.61512788e-03  2.39271931e-02 -2.52777822e-02
 -1.04835005e-02 -3.33998390e-02  4.82397154e-02 -2.08447035e-02
 -6.38831966e-03  5.55575266e-03  9.26523209e-02  6.40126765e-02
 -4.99296524e-02  1.36956489e-02 -2.62731891e-02  5.04008494e-03
 -7.92892352e-02  7.60576368e-05 -2.21602828e-03  4.30869907e-02
  5.70655204e-02 -5.62640838e-02 -6.36770437e-03 -7.58893117e-02
  6.58125281e-02 -1.88480206e-02  2.30150819e-02  9.97753534e-03
 -2.46960986e-02  5.02412058e-02  3.13428193e-02 -4.47945446e-02
  9.27378610e-02 -2.62007620e-02  4.28293198e-02 -5.19739501e-02
 -4.17307429e-02 -4.31724191e-02 -3.67351854e-03  8.25020671e-03
 -2.57067420e-02 -1.15553821e-02 -3.70384380e-02 -4.75968085e-02
  8.64622835e-03 -2.63858773e-02  1.35329124e-02 -3.54992412e-02
 -6.41594753e-02  1.17846520e-03 -3.65354978e-02 -2.16677822e-02
  1.22101922e-02 -2.64956476e-03 -9.93663538e-03 -4.07496840e-02
  9.62167084e-02  6.56097308e-02 -6.90125152e-02  4.54331338e-02
 -1.16072847e-02  9.28010270e-02  2.89167743e-02  5.00691272e-02
 -3.60517949e-03  3.02677751e-02  7.89363869e-03 -3.62173119e-03
  1.19491577e-01  5.14969788e-02 -2.47797146e-02 -4.35048975e-02
  7.20811589e-03 -3.74545604e-02  3.46626528e-02  3.92716713e-02
 -2.60858866e-03 -8.54922310e-02  4.52579521e-02  2.07050834e-02
  4.25022542e-02  4.98232953e-02 -6.10951744e-02 -4.31243107e-02
  8.49238783e-02 -4.67309393e-02  7.34949624e-03 -4.19795737e-02
 -3.58089274e-05 -1.15175821e-01 -3.78032178e-02 -3.34086530e-02
  1.36166830e-02  7.43786022e-02 -7.89982677e-02  7.62102827e-02
 -9.01120901e-02  1.03386324e-02  2.00262442e-02 -3.18114161e-02
 -6.91768602e-02 -1.64808258e-02 -9.05962661e-03  6.38408810e-02
 -1.08838975e-02 -4.50649951e-03 -1.70019977e-02 -1.81749314e-02
  3.07426099e-02 -1.81436315e-02  3.25242430e-02  2.28688344e-02
 -1.20081846e-02 -5.19149080e-02  3.02846469e-02  1.42037384e-02
  5.80455996e-02 -1.45351759e-03  4.80528083e-03  9.22274590e-02
  4.76429872e-02  5.70396073e-02 -3.73947248e-02 -5.22828028e-02
  2.32879389e-02  6.81722304e-05 -3.06206830e-02  7.33268866e-03
  3.43492404e-02 -9.50674759e-04 -1.78828537e-02  8.06801170e-02
 -8.40213802e-03 -8.47928226e-03 -9.94656980e-03 -7.87201598e-02
 -2.92170886e-02 -6.14446402e-02  5.02876267e-02  2.11201366e-02
 -8.03467035e-02  2.77462211e-02  6.88225776e-02  1.93938650e-02
  6.67979643e-02 -6.90255985e-02 -2.09795893e-03  3.20480801e-02
  2.47869119e-02 -9.28046852e-02 -4.71463017e-02 -2.27530749e-04
  2.68914849e-02  6.28800914e-02 -2.48765070e-02 -1.90645631e-03
  2.59162597e-02  9.03732032e-02 -7.29353959e-03  3.64391096e-02
 -3.09396107e-02  1.15466677e-01  1.20517882e-02 -6.29528761e-02
 -1.66817773e-02  6.17617508e-03  6.31588027e-02 -2.17916109e-02
 -1.28998347e-02  6.51542395e-02 -2.20327526e-02 -4.73336391e-02
  3.98250595e-02  6.25126576e-03 -6.66285530e-02 -4.71113920e-02
 -1.76638248e-03  2.92525906e-02 -3.44282277e-02  5.97771369e-02
 -1.84375867e-02  4.04278422e-03 -2.41687670e-02 -7.96344876e-02
 -5.77262081e-02  1.23732155e-02  7.14975968e-02 -4.69231755e-02
  8.69230088e-03 -3.62150408e-02 -2.26284880e-02  4.09705518e-03
 -6.20967969e-02 -4.43013459e-02  2.98973788e-02 -3.96324843e-02
 -4.72769737e-02  5.75020444e-03 -7.51867294e-02  5.68645298e-02
 -6.21539354e-02 -2.69947257e-02  5.44212647e-02  1.71659701e-02
  3.78301218e-02  4.08781953e-02  2.12870631e-02 -1.10782776e-02
 -3.05952989e-02  2.64023263e-02  1.60166796e-03 -3.20343599e-02
  9.48648248e-03  9.57893860e-03  3.68177444e-02  2.22220173e-04
 -6.13009185e-03 -8.47040117e-02 -7.14825839e-02 -4.59789857e-02
  2.13927422e-02 -3.81782129e-02  2.37990841e-02  1.89128832e-03
  3.36004347e-02 -5.95709644e-02 -2.36950032e-02 -9.65925399e-03
  1.81423109e-02 -4.56383564e-02 -1.05984688e-01  1.01725005e-01
  3.24678831e-02  3.94335482e-03 -5.96066564e-03  3.59609984e-02]
[-0.00148765 -0.04463707 -0.01056369  0.02474359 -0.01480873 -0.08762658
  0.01697607 -0.04652873 -0.03731082  0.00889845 -0.04908685 -0.00764971
 -0.08431124  0.03403041 -0.02643822  0.02076185  0.07765533 -0.05855208
  0.03449145  0.03921655 -0.07505417  0.01361154 -0.03347674 -0.0447364
 -0.05280992  0.06624767  0.02749782  0.00537594 -0.01840386 -0.00263084
 -0.04471667 -0.02099937  0.00415673  0.03276152  0.07737503  0.02946299
  0.01809127  0.07206716 -0.04451276 -0.07814691  0.05990649  0.03541677
  0.08025309 -0.04099736 -0.07149876 -0.0046192  -0.0422955  -0.0403007
  0.03002859 -0.06794707  0.05874692  0.01503471  0.02114973 -0.06672714
  0.06300256 -0.07483127  0.04981275 -0.04298372 -0.06481072  0.01741764
 -0.03253834 -0.00111977  0.01400343 -0.02994476  0.03469995 -0.03279315
 -0.04658025 -0.01531245 -0.00043073 -0.07929327 -0.00969355 -0.00619687
 -0.037485    0.05015071  0.03492823  0.00337086  0.02716233 -0.04747497
  0.07064511 -0.03286869  0.05137395 -0.0485829   0.03798714 -0.04311153
  0.10544565  0.02409759 -0.01450623 -0.00465069 -0.02042088 -0.00292386
 -0.06130738 -0.03449935 -0.04734795 -0.00214069 -0.05089026 -0.0447806
 -0.00435536  0.06901402  0.00129234  0.0483853   0.02259607  0.01029244
  0.00848933 -0.0307764   0.05870437  0.02851774 -0.05074816 -0.01567614
  0.01281116 -0.0631623  -0.06922236 -0.03542932 -0.02854063  0.01160327
 -0.00191455  0.04311222  0.00909247  0.0931754   0.04097895  0.03634578
 -0.05496717  0.00437615 -0.03207893  0.02098264 -0.02910127 -0.0089532
  0.02241148  0.04196807 -0.05542577  0.02804339 -0.07631364  0.02017415
  0.02432331  0.05230151  0.03547759 -0.07736903  0.04564528  0.04591488
  0.00672401 -0.01096064  0.00563267  0.00591228 -0.00202339  0.06675955
  0.09181601  0.04829776 -0.10196218 -0.01944789 -0.02442734 -0.07663623
 -0.05421325  0.01418205 -0.02048704  0.00709539  0.00306882 -0.01689308
  0.00476495  0.00046272 -0.0363598  -0.01805567 -0.02351413 -0.04778607
 -0.05408433  0.05407181 -0.06876702  0.03617889 -0.02682539 -0.02999248
  0.00795279  0.06129207  0.0158872   0.0147435   0.07896164  0.02134862
  0.06029391 -0.01715003  0.01248636 -0.0569193  -0.0605454  -0.00627091
  0.01893267 -0.00748923 -0.0547675   0.02057996 -0.00606575  0.04420999
  0.08930443  0.05031617  0.09044968  0.04795042  0.03568009 -0.09675744
 -0.00074379  0.04946338 -0.02073464  0.05245737  0.00591375  0.00854467
  0.05814007  0.04063395  0.01325096  0.03654895  0.02596173 -0.00108766
 -0.04162    -0.02251152  0.09949037 -0.01620198 -0.0210654  -0.02507507
 -0.04240229  0.0333744   0.06093986 -0.00639509  0.05733771  0.02472752
 -0.06251993  0.07395876  0.05280619 -0.06592969  0.04707473 -0.01233267
  0.01604193 -0.00915541 -0.03126388  0.0631803  -0.02135842 -0.00323037
  0.00596229  0.02302664 -0.07625317  0.06175917 -0.09930702 -0.03108669
 -0.01073178 -0.01017065  0.04278103 -0.04080369 -0.01309568 -0.01728499
  0.03168846  0.07263269 -0.073144    0.00589764 -0.0112885  -0.09894584
 -0.07047408 -0.00803743  0.00221479 -0.05338436 -0.0153917  -0.01943373
  0.07847857  0.04844898  0.07462761  0.00814244]
[-3.15563008e-02  4.35833707e-02  4.24641483e-02  7.51868961e-03
 -6.60568029e-02  5.50868809e-02 -6.44978927e-03  8.98247808e-02
 -7.28547499e-02 -3.88260074e-02 -1.91826758e-03  9.89260152e-02
  3.39498767e-03 -3.10025569e-02 -1.40946750e-02  1.06827635e-02
  2.43548350e-03  1.48616675e-02  1.58701818e-02  5.95072396e-02
 -1.03599289e-02 -2.41628699e-02  8.13852176e-02 -4.65778410e-02
  8.15850198e-02  2.50660237e-02 -8.41315240e-02  5.28097060e-03
  4.53762040e-02  1.04801198e-02  4.37147319e-02  7.30540752e-02
 -2.96232868e-02  6.51188567e-02 -1.03699312e-01  2.72206105e-02
  8.75826851e-02 -5.27425781e-02 -6.80985600e-02  4.10215519e-02
  4.18333784e-02  7.98707604e-02 -1.94100924e-02  7.23262876e-02
  2.87618046e-03  8.24132282e-03 -9.71099176e-03 -6.28204122e-02
  1.40888635e-02 -2.84563808e-04  5.32256439e-02  4.81787436e-02
 -1.33915171e-02 -5.64226368e-03  7.46056661e-02 -3.13848257e-03
  2.80451141e-02  3.50702442e-02 -2.84730867e-02 -6.60517141e-02
  2.32909080e-02  2.68524103e-02 -5.37695996e-02 -8.12425688e-02
 -3.10618840e-02 -8.23574839e-04 -2.12405417e-02 -3.15539688e-02
 -9.89575684e-02 -2.10872181e-02  3.41126025e-02  1.01022497e-02
  2.27507483e-03  7.34465122e-02 -5.99309951e-02  2.50654109e-02
 -2.00644005e-02  1.55669451e-02 -2.31629168e-03 -1.83413215e-02
 -6.59306794e-02  8.47805664e-02 -4.44629863e-02 -9.66285169e-02
  5.39019629e-02 -2.27529351e-02  4.65992764e-02  3.03394869e-02
 -3.39920893e-02 -2.16154642e-02 -2.24414673e-02 -4.63619679e-02
 -8.61203596e-02  7.91068152e-02  3.34943645e-03  8.41824524e-03
 -3.58270928e-02 -2.73566730e-02  9.86939855e-03  2.10748017e-02
  5.12935258e-02 -1.46784913e-02 -4.86355647e-02 -5.40949665e-02
 -2.71446566e-04 -6.83021918e-02  3.15380050e-03  6.41897023e-02
  3.49316932e-03 -6.19477369e-02 -3.95742357e-02 -1.73735209e-02
 -1.14282351e-02 -3.12646292e-02 -5.10679744e-02 -1.45378606e-02
 -2.69901846e-02  4.84586274e-03 -3.94453183e-02 -1.77827496e-02
  7.92957144e-04  1.88066810e-02 -3.66122508e-03  8.17276239e-02
  6.38251752e-02  6.72146082e-02 -1.06763355e-02  2.74619311e-02
  8.84764120e-02 -4.47145514e-02 -1.68262441e-02  7.50992298e-02
  5.95458644e-03  2.65534241e-02 -7.14812726e-02  2.26780381e-02
  7.95580621e-04 -2.85208635e-02 -3.36527382e-03  1.28799565e-02
 -3.50008085e-02 -1.38795786e-02 -3.33758518e-02 -2.97443401e-02
  4.11365181e-02 -7.35148266e-02  2.12152936e-02 -8.21761340e-02
 -1.83982681e-02 -2.10094880e-02  8.02758038e-02  2.14244928e-02
  5.73068783e-02  5.93036413e-02 -1.59348100e-02 -1.32799083e-02
 -8.71686339e-02  4.55544628e-02  3.10408082e-02  2.14552696e-04
  1.15247313e-02 -6.60855770e-02 -2.30171569e-02 -6.44856784e-03
 -4.33249958e-02 -1.51400520e-02 -4.45820987e-02  1.33516695e-02
  7.88049493e-03  8.86320025e-02  2.70357560e-02 -8.23691636e-02
  1.33383330e-02  2.81702261e-02  2.97126547e-02 -2.59604603e-02
  6.11715801e-02 -4.57631983e-02  6.59585744e-02 -8.28749016e-02
  6.77837282e-02  9.00190771e-02 -8.22101627e-03  6.67739660e-02
  8.07596184e-03  9.54019055e-02  3.13923098e-02  8.08904842e-02
  1.95303466e-02 -3.55206132e-02 -6.85341507e-02 -4.44476344e-02
  4.77032773e-02 -8.36662424e-04  9.10313353e-02 -3.56147252e-02
 -4.68025208e-02 -4.40375088e-03  1.34895565e-02  1.52774565e-02
  1.42917102e-02  7.29398290e-03 -4.40250300e-02 -4.61910702e-02
 -3.29019651e-02 -4.87902276e-02  4.77472506e-02 -6.93752095e-02
 -1.18482895e-02  1.80785116e-02 -1.23416185e-02 -4.57861368e-03
  3.14765057e-05 -8.02014098e-02 -2.39918400e-02 -1.05055636e-02
 -8.61181412e-04  2.08548214e-02  2.55074352e-02  5.53859994e-02
  7.70997908e-03 -9.38444361e-02 -4.68707159e-02 -9.72173586e-02
 -3.86935286e-02 -1.44488337e-02 -2.93973014e-02 -2.06617452e-02
 -2.73550060e-02  1.06825843e-03  2.92793885e-02  9.60030686e-03
 -7.65019730e-02  1.00122042e-01  2.93857399e-02  1.22172516e-02
 -7.65179992e-02 -9.50986445e-02 -4.37789373e-02  7.23077655e-02
 -6.55068085e-02  1.31864706e-03  1.48704099e-02  2.15740336e-04
  9.86767001e-03  5.09110652e-02 -9.73776057e-02  4.23744991e-02
 -2.83341724e-02 -2.84151677e-02  2.71663275e-02 -8.27628747e-03
 -5.81095293e-02 -8.66186097e-02 -1.81409139e-02  4.38353121e-02]
[ 0.00169642  0.006238    0.02074409  0.00723392  0.07169413 -0.03754305
 -0.04523186 -0.07371848 -0.04066462 -0.03115649  0.07946274  0.06150559
 -0.08727845 -0.0018142  -0.06639995  0.08204745  0.08616485  0.04530257
 -0.03259613 -0.0105591   0.05751378 -0.03894569 -0.04473452  0.0496551
  0.04533189  0.02135181 -0.03649146  0.01885888 -0.05943792  0.00759175
  0.0280818   0.09148814  0.0469695   0.07758141 -0.00318779 -0.00940743
  0.06717158 -0.03324098 -0.02942948  0.08622114  0.06487777  0.09505022
 -0.02059557 -0.02748219 -0.04621807 -0.01902555 -0.02160184 -0.00411226
  0.04666107  0.02729844  0.0022876   0.00492853  0.08954675 -0.01521197
 -0.04517628 -0.08709073 -0.0027911   0.01619558  0.09253345 -0.08820933
  0.00823403  0.05126389 -0.06995945  0.00373361  0.0327954  -0.04015588
 -0.0267769  -0.02425556  0.02799231  0.05975871 -0.05081623  0.01523809
 -0.06649218  0.0498847  -0.03341762 -0.03263225  0.06358788 -0.01755797
 -0.03014174  0.04067552 -0.00822169  0.00391292  0.02810565 -0.04510693
  0.03948446 -0.00620557  0.0339744   0.02560201  0.03911017 -0.05687245
  0.01348747 -0.00243409  0.05023492 -0.01527397 -0.0746794   0.07906081
  0.03694507 -0.03334891  0.0555556   0.04614754 -0.05021028  0.02692875
  0.00508281 -0.02076029  0.02421386  0.09742907 -0.00695169  0.02914843
  0.03970505 -0.0132774   0.00330415 -0.00676325  0.02271949  0.0370725
  0.01019554  0.08022605 -0.00871974 -0.0611284  -0.01161727 -0.05569091
  0.05975488 -0.07337619 -0.01625104 -0.01039959  0.01086024 -0.03001957
 -0.07046112  0.00471697 -0.01139538  0.03726631 -0.02450556  0.03335318
  0.05288311 -0.0116352  -0.00508577 -0.0637548   0.00923277  0.03139497
  0.03051761  0.00471272  0.04292516 -0.067112    0.07843147 -0.01842147
  0.07264195  0.02965928  0.00312189 -0.04617282 -0.030933   -0.09919108
 -0.05978103  0.01369801  0.00094956  0.04070188  0.01763795 -0.06548178
 -0.05804717 -0.03141072 -0.08761531 -0.02798777 -0.01986733  0.01084672
 -0.03128663 -0.06425714 -0.01503164 -0.04831088  0.05271293  0.02115282
 -0.09295786 -0.00913436 -0.01171587  0.07809649  0.02780257 -0.02693658
 -0.06953022 -0.0624708   0.02197833 -0.05114286 -0.03180451 -0.02615803
 -0.06686738  0.058271    0.00973177  0.06090163 -0.04166981 -0.05243264
  0.02920871 -0.07467448 -0.02732659  0.06017235  0.06596591 -0.08233489
  0.02431735  0.00160514 -0.04286491  0.05752688  0.06078323 -0.05355445
  0.06505139  0.04711589  0.00843126  0.09015897 -0.0193146  -0.05524579
 -0.01373136  0.0632414   0.00310881 -0.04325711  0.04122642  0.00973838
 -0.00340003  0.04966266  0.05107037  0.0577258   0.00295833 -0.05888147
  0.08712898  0.02898274  0.08355841  0.03022318 -0.10805058 -0.0052013
  0.02511607 -0.02525422  0.04302932 -0.05265236 -0.00663443  0.0107106
 -0.09683362  0.01909541 -0.03809992  0.07363229 -0.09848583 -0.01469444
 -0.05767281  0.03861978  0.02274337 -0.02763751 -0.06791033  0.02872767
 -0.01652331  0.02005121  0.01141602 -0.08078594 -0.03811037 -0.05243064
  0.01563982  0.03175239 -0.07180444 -0.06308789 -0.09857119 -0.01130444
 -0.04085498 -0.046796    0.04876296 -0.02202889]
[-0.01441489  0.03539073  0.02368963  0.03622048 -0.01920509 -0.10010125
  0.05696014 -0.02193831  0.01688986  0.01743269 -0.01302569 -0.0631483
  0.07709068  0.03853948  0.01148641 -0.01266168 -0.00476174  0.08617973
  0.05123338  0.01968512 -0.01134007 -0.09834822 -0.01564349  0.00148666
 -0.03822323 -0.00681568 -0.02212034 -0.04121941  0.03147008 -0.04715688
  0.0323944   0.06995142 -0.02961992  0.02837434 -0.0716463  -0.06477624
 -0.07663168  0.05907198  0.00171719 -0.02876399  0.03176482 -0.04220567
  0.01618735  0.00917814 -0.007202    0.06072477 -0.00079738 -0.06957526
 -0.05567384 -0.04008502  0.02953403  0.0122298  -0.01769029 -0.01820567
  0.01355319  0.0474354  -0.0757225   0.02420267  0.04049575 -0.02811329
 -0.0211961   0.06007519 -0.04800574  0.06191634  0.00269614 -0.00999765
 -0.01829377 -0.00446992  0.01849502 -0.04488118  0.0183138  -0.00657962
 -0.02051685  0.00952469  0.03137527  0.0269862  -0.04849099  0.00286355
  0.03865176 -0.0169642  -0.05661231 -0.0558072   0.09293554 -0.07438736
  0.04225105 -0.0166564   0.04456923 -0.00578176 -0.00096456 -0.00548289
 -0.0233964   0.00476697  0.02609303 -0.03432272  0.03070231  0.05943851
  0.05160941  0.00138802  0.01317011  0.10013377  0.00092266  0.00344626
 -0.0186738  -0.06939431 -0.07610432  0.00352717 -0.05203598 -0.00887924
 -0.03790268  0.04037794 -0.03748564  0.07926796  0.04251142  0.01734172
 -0.10035062 -0.05062147 -0.06407165  0.0314605   0.00215853  0.07393119
  0.00549061 -0.00706184  0.01961346 -0.00154125 -0.03959476  0.00850732
 -0.04446992  0.04758376 -0.00516449 -0.05104523 -0.09714729  0.0395708
  0.0171532  -0.06579224 -0.05449634 -0.04874561  0.08526113 -0.0194451
  0.04358235 -0.03096466  0.08086857 -0.08617511  0.01781129 -0.0371277
  0.06072855  0.04100781  0.02036471 -0.00392217 -0.02259268  0.00782956
  0.0887318  -0.02514253  0.01820742 -0.06974064  0.05812795 -0.08055121
  0.03252617 -0.08387509  0.08277899  0.00950881  0.07057223 -0.0095236
 -0.03115487  0.01491369 -0.03478592 -0.01444311 -0.08445974 -0.07244453
 -0.06093244 -0.01563499 -0.10184356 -0.04480636  0.04656946 -0.00277282
 -0.07489207 -0.03516419 -0.02865972 -0.02000743 -0.0312253   0.01349944
 -0.07038108  0.11769807 -0.02712085 -0.08371899 -0.01784601 -0.03796364
  0.0944119   0.04590545  0.02447353  0.08042002 -0.02774414  0.01142977
  0.02395534 -0.02618971  0.07658979  0.03128275 -0.04557721 -0.04056807
  0.01472917 -0.01100583 -0.02193572  0.02702711 -0.06816487  0.0029767
 -0.07301051 -0.01079339 -0.04691388 -0.06392463 -0.09976862 -0.00226439
  0.07208551  0.04526118  0.06816436 -0.02846299 -0.03430511  0.03004257
  0.02384309  0.08142877  0.02946343  0.03805885 -0.03072577 -0.06050531
  0.03383421  0.04267308 -0.08942673 -0.02203146 -0.03714708  0.0309254
  0.01616947  0.02291008  0.05227356  0.03542947 -0.02601065  0.10019187
 -0.03290489  0.04997429  0.07858389 -0.02089935  0.0742728  -0.05042465
 -0.04799981 -0.05065215 -0.0581417   0.00191916  0.01749536 -0.08831549
 -0.09646881 -0.01463996 -0.01850964 -0.05034522 -0.09338691 -0.01405902
 -0.04735322 -0.07289458  0.00708105  0.02387303]
[ 1.10829473e-02 -2.03582533e-02 -8.15042853e-02 -4.63559367e-02
  1.79234073e-02 -2.23985519e-02 -7.54813701e-02  5.43577336e-02
 -8.16970840e-02 -2.83430144e-02 -3.93825630e-03  3.13877724e-02
  4.77342717e-02  7.68060703e-03 -8.04633945e-02  2.36163381e-02
 -8.70304853e-02 -3.54004540e-02  3.01227290e-02  8.89913812e-02
 -2.82618999e-02 -1.04281185e-02  4.30276953e-02 -6.22717477e-02
  1.38153499e-02 -3.04042846e-02  2.96103470e-02  8.27182457e-02
 -5.65786759e-05  1.11495731e-02  3.41919065e-02  7.15334490e-02
  4.24640849e-02 -8.90354067e-03  8.06553662e-03 -6.84020296e-02
 -3.73633169e-02  3.19482014e-02  3.75965610e-02  6.10052459e-02
 -3.86830531e-02  7.93695599e-02 -5.03175147e-02 -3.81262898e-02
  1.75383557e-02  5.57386223e-03  5.27193360e-02  8.11027884e-02
  3.98277398e-03  7.39839450e-02  3.96216698e-02 -2.99772574e-03
  4.03845906e-02  4.41717766e-02 -2.40209494e-02  5.07552512e-02
 -5.38771637e-02  4.39404324e-02  4.37106788e-02  2.73104534e-02
 -5.74800652e-03  1.00615829e-01 -5.99083081e-02 -4.12606709e-02
 -1.91233922e-02 -7.22653642e-02  1.50364228e-02  3.78759839e-02
  5.50865866e-02  3.36038182e-03 -1.63509604e-02 -4.71991785e-02
 -3.59331742e-02  4.04821187e-02 -7.37057179e-02  8.82925373e-03
  5.04078111e-03  7.99754485e-02  5.18018380e-02 -1.09189928e-01
  9.15547609e-02 -5.45077212e-03  1.14186421e-01 -3.13842967e-02
  5.27772270e-02  3.98230217e-02  5.89603148e-02 -2.28611529e-02
 -5.80707518e-03  8.07794333e-02  1.18826153e-02  3.09444927e-02
 -3.00568324e-02 -1.93813033e-02  1.20397292e-01  3.74010317e-02
  4.10929173e-02 -2.75520030e-02 -2.43011415e-02  3.93343158e-02
 -2.78558545e-02 -1.89194717e-02  4.25607041e-02 -3.63976397e-02
  2.32139248e-02 -3.30687780e-03 -1.43621909e-03  2.20634863e-02
 -5.73603529e-03  4.05561924e-03  1.67082846e-02 -8.65226798e-03
  2.05784198e-02 -2.81138197e-02  7.85227120e-02  5.68764880e-02
 -4.79639433e-02  2.41970234e-02 -1.43693155e-02 -1.94846448e-02
  4.28389013e-03 -1.03818299e-02  1.10695558e-03  4.06858437e-02
 -2.23639607e-02  7.19581097e-02  2.39693690e-02 -3.36725428e-03
  6.13162853e-02  8.56661145e-03 -6.19370453e-02 -7.91022107e-02
  3.86261791e-02 -7.59839639e-03  3.44361886e-02  5.46110654e-03
  2.58145761e-02 -2.43266039e-02 -4.85898461e-03  1.34029901e-02
  6.44191504e-02 -2.33100429e-02 -5.37646413e-02  3.70805003e-02
  3.20210941e-02 -5.75417168e-02 -3.26223858e-02 -3.80803160e-02
  5.52352890e-02 -4.82321382e-02  9.60921273e-02 -3.28668989e-02
 -1.60651491e-03  1.37462821e-02  7.64732957e-02 -5.31062372e-02
 -5.73554263e-02 -1.19042220e-02  3.06977723e-02 -4.96586822e-02
  3.71371303e-03  2.82055680e-02 -7.46289566e-02 -1.27958441e-02
 -3.22661214e-02  2.57341582e-02 -2.97477040e-02 -3.49922925e-02
  2.12309696e-02 -7.69417509e-02 -5.93485571e-02 -2.78820600e-02
  4.84894253e-02  4.99450378e-02 -4.41341959e-02 -5.02260886e-02
 -3.00061423e-02  2.39762347e-02  8.14137161e-02 -6.74779899e-03
  7.53006041e-02  1.36522591e-01  2.72585172e-02 -4.62573627e-03
 -4.47118767e-02  2.05988381e-02  2.98560057e-02  5.30246980e-02
  8.03091675e-02  3.04866806e-02 -4.91805971e-02 -1.91474222e-02
 -7.90792108e-02  1.47094587e-02 -2.14215252e-03  1.99415628e-02
  1.24443267e-02 -1.10781334e-01  4.79996949e-02 -8.49647447e-02
  4.93445732e-02  6.36187047e-02  7.72295371e-02 -1.22292330e-02
  7.51213878e-02 -2.09054966e-02  6.08123187e-03 -8.55371058e-02
 -5.70680872e-02  1.29678810e-04  1.84729174e-02 -4.79628928e-02
  4.36539836e-02 -3.75301391e-02  4.22871187e-02 -4.06775326e-02
 -4.96314019e-02 -1.05878925e-02 -3.31803970e-02 -7.24870935e-02
 -5.69071155e-03 -7.97286257e-02 -3.30192856e-02  2.14109942e-02
  3.44060212e-02  5.02239466e-02  7.70375282e-02  1.42085808e-03
 -1.42822145e-02 -1.92786083e-02  4.08324637e-02 -1.60221476e-02
 -1.06374688e-01  3.68585363e-02  7.33766146e-03 -3.90081890e-02
 -1.74935646e-02  3.58367264e-02 -1.05941877e-01 -6.97971359e-02
 -1.65142231e-02  3.58385481e-02  4.33689309e-03 -1.64965447e-02
  3.83436754e-02  2.93101221e-02  1.13158058e-02  6.44177869e-02
 -1.48616382e-03 -3.66703384e-02  7.46768638e-02  4.58898693e-02
 -1.70142762e-02 -3.25836241e-02  3.09618264e-02  1.19638685e-02]
[ 0.03028726 -0.05231809 -0.03695464 -0.0775123   0.00449466  0.00975387
  0.01502344 -0.06203364 -0.06414767  0.06818787  0.0094223   0.06340156
  0.07902768  0.02790549 -0.00545944 -0.06950041 -0.01817363 -0.00431319
  0.03538324 -0.05321388  0.01592426  0.00725036 -0.00746192 -0.00027539
 -0.0017815   0.05222026 -0.01820546  0.04909715  0.02819672 -0.04118364
  0.04743589  0.00696939  0.03781641 -0.06337963  0.05994688  0.00288468
 -0.09602885  0.01991909  0.00074991 -0.05506783  0.05337704  0.00493181
  0.00266978 -0.07263772  0.03800198  0.05177732  0.04649197 -0.06644535
  0.02789927  0.05426248 -0.09533726 -0.04147659 -0.03650006  0.02726592
  0.05278934  0.01224499  0.04788394 -0.03742858 -0.02382704 -0.080928
 -0.02894079  0.03549112  0.02127982 -0.05254608 -0.02434872 -0.04413525
 -0.02975281 -0.06752434  0.05402011 -0.08859875  0.0023275   0.02349501
  0.03392193  0.06135413 -0.04297955  0.00790067  0.05273308  0.02164102
  0.00670756  0.08331113 -0.05722832 -0.01209856 -0.01514425 -0.01088077
  0.06748371  0.05277852  0.03643043 -0.01440217 -0.04960354  0.03998633
  0.08734929  0.03094845 -0.04562554  0.02908352  0.06288048  0.00242323
 -0.0861777  -0.05344177 -0.05203116 -0.09440606 -0.08798802  0.02437043
 -0.08092482  0.0115489   0.05251159 -0.02925405 -0.02887228 -0.09830541
 -0.01134568 -0.08209282 -0.11180881 -0.04741644  0.05938191  0.03316985
  0.00972785 -0.08934478 -0.04115075 -0.00828019  0.01893133  0.03077392
  0.03105905 -0.00949282 -0.01640068  0.09719972  0.05087855 -0.0440118
 -0.03739164  0.01263347  0.09182183  0.02043984 -0.0133309  -0.04611089
 -0.0584986  -0.04923162 -0.04045789 -0.00643775 -0.042854    0.04868731
  0.00310239 -0.02117929 -0.00211957  0.07359982  0.05272501 -0.01629143
  0.05684276  0.04922186  0.05331985  0.00921341  0.05539022 -0.04434028
  0.0135925   0.01753326 -0.03276849  0.03338418  0.03342941 -0.06217786
  0.00523719 -0.01070478 -0.00775542  0.04618267  0.07759006 -0.01849935
 -0.05125625 -0.00433554 -0.03380679  0.05546819  0.08681531  0.02876113
  0.01187142  0.06370473 -0.04519441  0.0423994  -0.0137718   0.01202632
 -0.01428287 -0.05731469  0.02996527  0.01534527 -0.07219146 -0.00742928
  0.00931206  0.0292978   0.00978818  0.00627478 -0.03333433  0.05378199
  0.02838094 -0.02041154 -0.04368165 -0.0455256   0.03407006  0.05490526
  0.02086313 -0.06201553  0.02011945 -0.0209459   0.00977311  0.00586373
  0.06118918  0.00903774  0.00043583  0.02946239  0.01215922  0.00683717
 -0.0555147  -0.03084492  0.00194037 -0.07608465 -0.07078364 -0.0794012
  0.00975447  0.01007778  0.09040564 -0.02780179  0.03510302 -0.05849045
 -0.0603424   0.0797682  -0.05544078 -0.05824665 -0.02159668 -0.07586021
  0.07430465  0.01881267 -0.0178889   0.03636984  0.03515045 -0.05496417
  0.00206864 -0.00647635  0.01461877 -0.03253469  0.00200577 -0.02294312
 -0.05802979 -0.0041968  -0.0053349  -0.01744475 -0.04982565 -0.02475183
  0.01820954  0.0642003  -0.00566913 -0.02903761  0.06891423 -0.0568363
 -0.01433033 -0.00928389  0.02967984 -0.04807441 -0.00490237 -0.0097529
  0.05390652 -0.03023345 -0.04964113 -0.05758853]
[ 6.84601143e-02 -4.47724387e-02 -7.23828599e-02  2.72257123e-02
 -7.71842003e-02  1.03137605e-02 -6.03076182e-02 -8.13068226e-02
 -1.44428695e-02  3.18481438e-02 -2.27572955e-02  6.08667843e-02
 -6.23638257e-02  3.61494790e-03 -1.11355837e-02  3.02357157e-03
 -3.74956871e-03  2.23800968e-02  9.51295719e-02 -6.31415984e-03
 -1.04103766e-01 -6.23832047e-02  7.41328392e-03 -9.03090537e-02
  2.50752689e-03 -6.34743720e-02  3.81685495e-02 -9.79877040e-02
 -2.89879330e-02  2.05117948e-02  1.82988830e-02 -5.84209077e-02
  7.42438510e-02  1.71559453e-02 -1.43639501e-02 -1.29686967e-02
  2.13193707e-03 -5.30288834e-03 -5.99644193e-03 -6.07085899e-02
  7.33418167e-02  2.69493982e-02 -1.59138218e-02 -1.30984653e-02
  5.75658679e-03  3.86319379e-03  2.15213820e-02  3.18154320e-02
 -4.93169613e-02 -6.62150607e-02  3.85290827e-03 -6.53829006e-03
  5.09590842e-02  1.09709874e-02 -5.24589084e-02 -2.38308668e-04
 -2.93104667e-02 -4.17319573e-02 -2.77813501e-03  3.01674344e-02
 -3.89721170e-02  4.08868566e-02 -8.67594872e-03  8.87787491e-02
  1.06650004e-02  2.32297890e-02 -3.01305465e-02  2.56834142e-02
  1.57009866e-02 -6.84606209e-02  8.47020149e-02  9.49016809e-02
  8.57778639e-03 -3.49954143e-02  8.05182790e-04 -6.23787418e-02
  9.55658481e-02 -1.61919445e-02 -5.66171631e-02  1.70533583e-02
 -4.42352854e-02  5.72609901e-03  3.12911533e-02  1.88663341e-02
 -2.11741272e-02  2.48218961e-02 -6.90123737e-02  8.58518779e-02
 -1.19337607e-02 -3.00566815e-02  1.75634921e-02  1.51737761e-02
 -9.67294574e-02  1.12103164e-01  4.34580967e-02  1.14934057e-01
 -5.53232878e-02 -5.67257851e-02 -1.29451407e-02  6.43887278e-03
 -1.84200313e-02  1.71820968e-02 -5.88379987e-02  8.56187344e-02
  5.18964371e-03  4.28992286e-02  7.91496772e-04 -3.36569883e-02
 -1.09689485e-03 -1.44803803e-02 -7.77838752e-02  1.82805546e-02
  4.16072011e-02  6.28306270e-02  6.67893421e-03 -1.46643920e-02
 -1.71995517e-02 -4.02953997e-02  1.06275253e-01  3.83281223e-02
 -2.90657114e-02  5.75385690e-02 -5.75914094e-03  6.65702298e-02
  2.02107280e-02  2.41386760e-02 -9.79616642e-02 -4.03906368e-02
  9.19910595e-02 -4.72631976e-02  2.82737333e-02 -6.91978186e-02
 -1.19197359e-02 -6.67005554e-02 -3.62124518e-02  5.56784347e-02
  8.16999469e-03  1.60944238e-02 -1.52603993e-02  8.20137709e-02
 -1.27113797e-02 -8.86585936e-03 -3.65349348e-03 -2.38650888e-02
  7.22615570e-02  1.16910720e-02 -7.60317892e-02  3.65221165e-02
 -3.44625041e-02 -9.51033309e-02  1.02491282e-01 -8.12926665e-02
  8.41975436e-02 -1.19210854e-02 -1.03872851e-03 -5.26082814e-02
  4.19686139e-02 -2.69303247e-02 -5.40346578e-02 -5.84684461e-02
 -9.75587696e-04  4.07914929e-02 -5.96446134e-02 -7.26824552e-02
  4.37430628e-02  6.20109290e-02 -3.57901007e-02 -4.69316691e-02
  6.23511663e-03 -2.54224520e-02  9.55115247e-05  8.26915354e-02
 -1.92745142e-02 -2.13632789e-02 -3.73241752e-02 -1.82396490e-02
 -8.57422799e-02 -6.22676834e-02 -2.91164517e-02 -2.29501240e-02
 -4.66545410e-02  6.85112625e-02  4.38481234e-02  1.51740527e-02
 -2.55713649e-02 -5.26802056e-02  5.11678681e-03 -1.29756198e-04
  1.01099610e-01  1.93169340e-02 -1.71762127e-02  3.30673866e-02
  1.75128784e-02  4.11598012e-02  9.37143061e-03 -3.55002247e-02
 -3.08729429e-02 -5.71963005e-02  6.92901909e-02 -7.02454075e-02
  3.80636714e-02 -6.96021914e-02  5.25688976e-02 -2.56586056e-02
 -4.91930433e-02 -1.82649158e-02 -6.15423955e-02 -1.94481271e-03
 -1.91190336e-02 -2.79636197e-02  6.49720943e-03  7.73918629e-02
 -2.06191484e-02 -2.98365951e-02  3.88437100e-02 -1.99159626e-02
 -9.84392129e-03 -6.38220608e-02 -3.14332843e-02 -9.94638167e-03
  1.15911230e-01  5.78174517e-02 -7.79995462e-04 -2.74217818e-02
 -2.90530752e-02 -4.12498266e-02 -2.70161708e-03  1.99149121e-02
  9.32790637e-02  1.72573384e-02  3.93284895e-02  6.24543391e-02
  7.15451781e-03  8.08734447e-02 -7.41292983e-02  9.22344178e-02
  3.51505144e-03  6.07425570e-02  1.19332885e-02 -5.03252558e-02
 -4.59786020e-02 -6.42067716e-02 -5.51541895e-02  2.79717073e-02
 -2.27675699e-02 -2.37360597e-02  2.41646022e-02 -1.00103199e-01
 -9.93940607e-03 -6.31956011e-02 -2.70640980e-02 -5.94880339e-03
  1.38293859e-03  5.55641158e-03 -1.23916930e-02  7.05409646e-02]
[ 4.15016748e-02 -2.98696402e-02 -2.07370371e-02  1.38168707e-02
  1.87740978e-02 -5.42083196e-02 -6.07497282e-02  4.77104895e-02
 -7.27371275e-02 -8.16598982e-02 -2.68645771e-02  5.55376038e-02
  1.36978030e-02  8.75957776e-03 -1.31865032e-02  2.04875832e-03
 -2.88966950e-02  4.56677005e-02 -5.12313582e-02  4.60649505e-02
  4.85939160e-02 -1.83649920e-02 -4.94883843e-02 -6.10300750e-02
  6.03195913e-02  5.45030162e-02 -1.04453815e-02  4.87644486e-02
 -6.41291812e-02 -3.73557732e-02 -1.61762610e-02  1.61157325e-02
 -4.15784530e-02  3.99787650e-02 -7.40657886e-03 -3.36710550e-02
 -2.70940773e-02 -5.70238978e-02 -1.83304958e-02 -8.34523961e-02
 -2.79215421e-03  4.32416685e-02 -6.90695085e-03  4.32617031e-02
 -2.63899099e-03 -7.91558772e-02 -5.16246744e-02  5.07688411e-02
  2.61471011e-02  2.86366064e-02  2.54516136e-02  9.18237399e-03
  5.20897247e-02 -6.19072542e-02  2.43189000e-02 -1.59598943e-02
 -4.19428349e-02  3.71580571e-03 -4.82387394e-02 -7.74108768e-02
  1.38014201e-02  5.45494147e-02 -3.56756076e-02 -5.59154488e-02
 -4.88350391e-02 -1.04390429e-02  2.93397810e-02  1.19827606e-03
  5.22215441e-02 -3.27435248e-02  7.96561614e-02  4.67079654e-02
  4.16888744e-02  3.28869559e-02 -3.88738103e-02 -2.68701855e-02
  9.71913263e-02 -8.46894011e-02 -7.61096971e-03 -3.99847329e-02
  4.32275869e-02  2.32502799e-02  6.56907540e-03  4.15611342e-02
  4.33275327e-02  3.96015756e-02 -5.57424501e-02  2.95231715e-02
  1.49475327e-02 -6.88325614e-02  2.97278166e-02 -1.70510113e-02
 -4.52059098e-02 -2.25109626e-02  1.47960139e-02  7.40440339e-02
  2.33361870e-02 -2.25517824e-02  8.27961192e-02 -2.09642947e-02
  7.94154480e-02  3.14326473e-02  9.02213156e-02 -6.63757473e-02
  8.84130523e-02 -4.73297723e-02 -2.43947860e-02 -8.12142491e-02
 -4.39311825e-02 -1.04115017e-01 -1.72716454e-02 -2.62282845e-02
 -3.65679264e-02 -6.07021749e-02  1.66172143e-02  1.08703477e-02
  4.63071130e-02 -8.44225064e-02 -2.25719903e-02  7.57733732e-02
 -4.63174796e-03 -3.35275419e-02 -4.87557836e-02 -2.65356060e-02
  2.73224749e-02  2.14746296e-02 -2.29005478e-02  1.03617102e-01
  6.63390160e-02  2.36732755e-02 -5.49566373e-03  1.03430776e-02
  6.04703724e-02 -1.60426181e-02  3.57463136e-02 -4.85774595e-03
  5.60186729e-02  7.80907273e-02 -4.04845662e-02  5.00871465e-02
 -3.54718268e-02 -3.62229273e-02  1.72599405e-02  2.21653306e-03
  4.49623391e-02 -6.68227486e-03  9.36592892e-02 -5.09220501e-03
 -9.39973742e-02  4.01505530e-02 -2.80348137e-02  2.26770416e-02
 -7.96917528e-02 -3.19593437e-02 -4.80623618e-02  8.59765429e-03
 -3.06795053e-02 -1.14377514e-02  3.64025235e-02 -4.73158844e-02
  9.80418827e-03 -2.34544091e-02 -8.08472931e-03  4.53187674e-02
  4.92541902e-02 -9.50066745e-02  7.08386600e-02  2.36509964e-02
  1.05408030e-02 -3.79032828e-02 -3.11893667e-03  8.49962234e-02
  6.82438724e-03 -2.57285293e-02 -5.19102886e-02 -2.31328569e-02
  4.57769744e-02 -4.67585064e-02 -5.49852066e-02 -3.67157310e-02
  6.71143830e-03  7.80734420e-02  3.23636755e-02 -3.03517729e-02
  3.64176201e-04  3.38174142e-02  7.24344850e-02 -4.40055504e-02
  3.45810987e-02  3.62032913e-02 -2.85829883e-02 -1.17841354e-02
  4.74023931e-02 -6.50953576e-02  3.17002572e-02 -7.41996989e-02
 -3.57933715e-02  2.60075983e-02 -4.10738774e-02  1.83659289e-02
 -5.97140379e-02  2.76780892e-02 -7.62148201e-02 -3.29376124e-02
 -6.00459687e-02  4.07049768e-02  5.45513630e-02  4.51084375e-02
  7.65559673e-02  7.64366984e-02  3.88150774e-02 -2.00642906e-02
 -1.41507341e-02 -3.65025029e-02 -6.65604994e-02  6.26331121e-02
  9.26536024e-02  3.30642238e-02 -5.67321926e-02 -3.86961661e-02
  1.09904362e-02 -8.57947767e-02  7.35067576e-02 -1.00707732e-01
  1.99575406e-02 -2.82664839e-02  4.37961332e-02  2.74883844e-02
  6.04270585e-02 -1.06617384e-01 -3.56046185e-02  4.12711836e-02
 -7.52878143e-03  6.88427463e-02  3.88452969e-02 -4.41249683e-02
  9.97928530e-03 -4.38790489e-03 -4.84074772e-05 -1.73471663e-02
 -3.85843664e-02 -3.59166674e-02  6.37852994e-04 -2.02977657e-02
  2.29519159e-02 -3.34473290e-02 -1.28371231e-02  1.13729993e-02
 -9.67326947e-03  1.35112703e-02  2.08901195e-03 -1.85357388e-02
 -7.24811456e-04 -6.73668161e-02 -1.72733481e-03  1.18415738e-02]
[-0.07517829  0.04120345 -0.08400717  0.04213872 -0.00678607  0.03876383
 -0.08041389  0.03962984  0.01465633 -0.03844381 -0.05427183  0.06535421
  0.04723399  0.02423003  0.04399567  0.01840169  0.06559782  0.03521248
 -0.03894702  0.0658383   0.01784703 -0.02135576  0.00518746 -0.05688781
 -0.01366049  0.04147606  0.04529923 -0.04316073  0.0081251  -0.02965065
 -0.05422392 -0.06764615 -0.04008175  0.0411414  -0.06276049  0.03400639
 -0.03048507  0.00806429 -0.08199272 -0.08757036  0.05773652  0.09997138
 -0.0249747   0.08736026  0.08078406 -0.01463317  0.05309101  0.04245075
 -0.01594769  0.00375301 -0.00556742 -0.10099923 -0.00119731 -0.0828217
  0.06053345  0.03041958  0.02185755 -0.0315587  -0.04514626 -0.00484954
  0.03946491  0.01828238 -0.06208713  0.07139266  0.03667368 -0.00544707
  0.02757311  0.02181191  0.07303597  0.03584521 -0.0350838   0.03175047
  0.04190446  0.03565784  0.03318558  0.03569038 -0.03273977  0.00365132
  0.04886009 -0.00875047 -0.03831095 -0.0193442  -0.00431908 -0.00275044
 -0.00775128 -0.06048768 -0.06637687  0.03159158  0.00508731  0.03483368
 -0.01448673  0.010514   -0.02645908  0.05398269  0.05933886 -0.04447532
  0.02653606  0.03034451 -0.0629898  -0.0134434  -0.01740366  0.03559199
 -0.08027826  0.06125102 -0.09843022  0.00407368 -0.0067254   0.04244311
 -0.03790567 -0.08122126 -0.06437974 -0.01405911 -0.01163308 -0.02387811
 -0.01890282  0.0302631  -0.01863577  0.05102846  0.04384017 -0.07711554
 -0.02063131 -0.0316893   0.04245859  0.03828139 -0.00628312  0.05806215
 -0.00982441  0.00522797  0.06886899 -0.00849198 -0.01642405 -0.00398652
  0.06351332 -0.08794355 -0.02406065 -0.01529442 -0.00082543 -0.01400122
 -0.03402879 -0.04135036 -0.08386406  0.00962963 -0.10456029 -0.03607862
  0.03164342  0.04789237 -0.02681357 -0.0676851  -0.00266295  0.03615084
  0.01430828 -0.01771057  0.03346537  0.02650925  0.06279187 -0.04226544
  0.00421665 -0.01008785  0.05059091 -0.01212161 -0.09790524  0.00552795
  0.02156252  0.05447795 -0.08188608  0.03135221  0.05674966  0.06290954
  0.05713909 -0.07496993  0.08142873  0.05609373  0.07720353 -0.02475163
 -0.04798561  0.03779814  0.06066886  0.02737632 -0.0209783   0.01688259
  0.02072288 -0.00022316 -0.08657458  0.00212208  0.05067213  0.06104493
 -0.02423538  0.0874579  -0.01745487 -0.02295647  0.02801904 -0.05979739
 -0.03315975  0.05948803  0.00812804  0.01613409 -0.01996679  0.00301653
  0.07975835 -0.00553454 -0.00015732 -0.07402249 -0.01672625 -0.05631952
 -0.01381628 -0.0183408   0.03428983  0.00804825 -0.00591437 -0.07333335
  0.04096913 -0.03929803  0.02296204  0.0470016  -0.00634978 -0.07524648
  0.02298626 -0.08307505 -0.03634153  0.02167165  0.06634716 -0.07700805
  0.03746978  0.00682713 -0.00854635  0.00520518  0.01215323  0.02740861
 -0.00319558 -0.05561192  0.00922631  0.03319066 -0.07554153 -0.0496585
 -0.08342395 -0.01811672 -0.0053714   0.00065864 -0.0760882  -0.01710369
 -0.02093788 -0.07734215 -0.03375424  0.02086525 -0.05854807 -0.04123824
 -0.0705568   0.01267262  0.0164822   0.06589702 -0.00741479 -0.08029687
 -0.01001392  0.01460331  0.06282292  0.00853316]
[ 0.02997321  0.08545001 -0.00077642  0.06378185 -0.09950776  0.03024184
 -0.00196541  0.0057444   0.0324194   0.00938503  0.05460244  0.0245317
 -0.07474881  0.04334719  0.03615128  0.05816381  0.01130158  0.01174354
  0.03277228 -0.058078   -0.04553392 -0.09266435  0.09244473 -0.04413194
  0.08258103  0.010553    0.07405027 -0.00673108 -0.04788935  0.0336941
  0.07291558  0.0176343   0.05482894 -0.0654621  -0.01858431 -0.0104314
  0.04894093 -0.01636431 -0.02268718 -0.0890842   0.03538122  0.06497594
  0.03135908 -0.05173509  0.03919851 -0.03888209 -0.00368336  0.01330943
 -0.01209971 -0.06646439 -0.00398588 -0.00560071 -0.0305444  -0.06741174
 -0.03510268  0.0402763   0.00131296 -0.03165873 -0.07148687  0.06543119
  0.07166663 -0.03475238  0.06325835 -0.03058669 -0.01763361 -0.03655933
  0.08945239 -0.04549154 -0.05602057 -0.04027467 -0.00967841 -0.05614983
 -0.00392459  0.05296607  0.03561708  0.01133938 -0.05286848 -0.05345066
  0.0842113   0.00964158 -0.01147012 -0.00655668 -0.06796097  0.02486086
 -0.01977256 -0.05444689 -0.03271829  0.00732713  0.02979109 -0.00190104
 -0.0257286  -0.02510549 -0.04077896  0.0403368  -0.01488804  0.07188295
 -0.0534556  -0.10348091 -0.08904472 -0.00156655 -0.03065857 -0.08095855
  0.01756508 -0.07753111  0.01063948  0.06136678 -0.06214752 -0.01040846
 -0.00364694 -0.04559429 -0.06367685 -0.03372974 -0.04093232 -0.08248381
  0.05026319 -0.01745185 -0.07428155 -0.05089745  0.04027035  0.03793119
  0.00537192 -0.01350196 -0.0556857   0.08195595  0.11108942 -0.0125338
 -0.00150237  0.08404072  0.02572705 -0.05015976 -0.00484001 -0.07358169
  0.07750494 -0.04018543  0.00469829  0.00108767  0.01305001  0.01251207
 -0.04549374  0.04698903 -0.01003098 -0.01124587 -0.0849061   0.01235691
  0.03461109  0.00953424  0.05501587  0.00241365 -0.0497175   0.04340407
  0.00631591  0.0208501  -0.0565588  -0.00951632 -0.03120915 -0.01902438
 -0.00951756 -0.00440137  0.04731729  0.04279191  0.00875122 -0.03292342
  0.04817167  0.03791298  0.00621235 -0.04508715 -0.07487825 -0.04381885
 -0.00463296  0.05619699  0.00757732  0.03793257 -0.07669368  0.00274202
  0.02264028  0.04192985  0.01876456  0.02633562 -0.04961092 -0.03831553
  0.00267317 -0.00631731  0.01484899  0.05101308 -0.03564517  0.08886207
 -0.04441607 -0.0178038   0.09383266  0.0354184  -0.10150113  0.03115799
 -0.0462574   0.04336764  0.01910692  0.0358464   0.08286491  0.03864034
  0.01794937 -0.04812363 -0.04256396  0.07624967  0.06462635 -0.04760248
  0.05735729 -0.07608487  0.03427871  0.08373186 -0.02388981  0.00755743
 -0.0134493  -0.00097039  0.09700555  0.01033889 -0.03880659 -0.04706282
 -0.02885647  0.07324403  0.00732815 -0.01657524  0.02728885 -0.07288804
 -0.05593618 -0.05460546 -0.03906999 -0.06254002  0.02109066 -0.03810963
  0.02298765  0.01948659  0.06233774  0.07464555  0.03842856  0.01609576
 -0.02861442  0.08007613 -0.01743313 -0.01801561  0.03722271 -0.05252679
 -0.04819547 -0.00991709  0.00836184  0.03755392 -0.07737835 -0.00030493
 -0.02704315 -0.00074498 -0.06481267  0.022366   -0.0498481  -0.04631691
 -0.06854547  0.03666475  0.03425623 -0.04703381]
[ 0.0401978   0.00965874  0.05040351 -0.04383698  0.03101033  0.02283619
 -0.0903421   0.0703449  -0.05252942 -0.09943498 -0.01455786  0.05251612
 -0.03708266  0.08812301 -0.04459986  0.05394094  0.03169888 -0.04901167
  0.03286692  0.01344287 -0.01523623  0.04226441  0.01020499  0.01041912
  0.05582836 -0.04082308  0.00019631  0.06922342  0.02261972 -0.0981293
  0.02430326 -0.02259078  0.02799649  0.06193109 -0.06716892 -0.05641235
 -0.04216531 -0.09300971  0.05433657 -0.04154575 -0.02161023 -0.04750096
 -0.09565018  0.08445822 -0.035305    0.0081841  -0.04540509  0.02551393
  0.06309935  0.02365101  0.03129095  0.01274824  0.01318321  0.00909607
  0.04126361  0.03013827 -0.07537425 -0.06954198  0.03211869 -0.01323687
  0.01104021 -0.03150701  0.04232425  0.03588562 -0.026824   -0.09225117
 -0.07750616 -0.00770924  0.04770502 -0.04829632  0.06305393  0.03691949
  0.08813712  0.06492765 -0.02545088  0.05255532  0.03730332 -0.00322896
 -0.02011659  0.00373322 -0.02609801 -0.05420552  0.0434477  -0.01117752
 -0.03856429 -0.02044076 -0.03232121  0.00657832 -0.0456589   0.03887684
  0.06242061  0.08565637  0.01933358  0.06677511 -0.01925666  0.05527469
 -0.01771845 -0.01843658 -0.00390495 -0.05809159  0.01432358 -0.00752372
  0.04097653 -0.0526835  -0.01192865 -0.0113843  -0.0015765   0.00028801
  0.00564181 -0.00805376 -0.00165394 -0.01514099  0.02275336  0.00092723
 -0.01704269 -0.03256165  0.04048448  0.08509774  0.03304667 -0.0007755
  0.00198957  0.05618137  0.04098368  0.06686722 -0.04038686 -0.04336083
 -0.02079804  0.03507928  0.05128288 -0.07480797 -0.00510552 -0.07949026
  0.02832655 -0.05119866  0.02872809  0.08318552  0.00764376  0.08183066
  0.08114924 -0.03987599  0.07804415 -0.08087605 -0.00812765  0.02808797
  0.02593478 -0.00913133 -0.02632415 -0.00340738 -0.06355521 -0.03405413
 -0.01774814 -0.02030149 -0.04311217  0.03966327 -0.06002812  0.0298684
 -0.04679981 -0.01087259  0.07189263 -0.09129882  0.06078324 -0.02278534
 -0.06883312 -0.0066378  -0.01711174  0.05983912 -0.04802193  0.04616066
  0.07328247  0.02583756  0.08807105  0.04288387  0.02815095 -0.02983581
 -0.00698018 -0.0969609   0.01244069 -0.03547773 -0.00211259  0.02579317
  0.0708178   0.04190824 -0.01730353  0.0216799  -0.08539636  0.06678095
 -0.03694069  0.01743903  0.0132426   0.03835573  0.03111181  0.01052947
 -0.02904391 -0.00585196  0.09534247 -0.00031385 -0.07167833 -0.11264846
 -0.01894872  0.02280815 -0.02561628 -0.0229927  -0.07184112  0.03731583
 -0.01159477  0.0430255   0.01024661 -0.01583565 -0.07863579  0.04097696
  0.02013152  0.02537514 -0.02909756 -0.02678128 -0.0664293  -0.08566468
  0.02885742  0.03482755  0.00788749 -0.05901181  0.0954852  -0.02821817
 -0.01333852 -0.10374951 -0.01373254  0.09195633  0.08093002 -0.00863454
  0.03709084 -0.01379625  0.01070578 -0.02170854 -0.03051599 -0.00949629
 -0.01186607  0.02943191 -0.00093073 -0.04108892 -0.05166475 -0.01216361
  0.05107828 -0.01318521  0.01792335  0.02904099 -0.00060097  0.06442532
 -0.00363192 -0.00592972 -0.01147221 -0.02768667 -0.01977262 -0.00517991
  0.00502617 -0.00901241 -0.01382593 -0.02336373]
[ 0.00415102 -0.01690232 -0.0854829  -0.05779331  0.07762691 -0.05493337
 -0.04438604 -0.03710028 -0.10868717 -0.03920653  0.03790369 -0.01889563
 -0.00971248  0.00511789  0.03477271  0.04508181  0.0444637  -0.06109696
  0.000423    0.05118228  0.03769129 -0.05818591 -0.04813344 -0.07033803
 -0.00632753 -0.04223543  0.03704526 -0.02796885 -0.02725883  0.00843249
  0.00863898 -0.0030045   0.01401348  0.08870379  0.0597498  -0.00611233
  0.03507222 -0.05797513  0.05237434  0.04869325  0.00019072  0.1073171
  0.04386701  0.00033993  0.00466267 -0.0780209  -0.05267091 -0.06204893
 -0.08632728 -0.0223527  -0.0325877   0.03400352 -0.01377447  0.01227428
  0.08292505 -0.07671689  0.04641533  0.02858942 -0.10461495  0.06504145
  0.05515185  0.03312486 -0.01520027  0.00802994 -0.01937516 -0.038473
 -0.0371567   0.01282653 -0.05089755 -0.03213255 -0.03603017  0.03796414
  0.05046679  0.04222465  0.02557501 -0.01137995  0.07349775  0.07547127
 -0.0620137   0.04698557  0.03330579  0.03789111  0.00251243  0.02529355
 -0.02636487  0.03712542 -0.02973452 -0.03597703 -0.0034173  -0.05351426
  0.02790893  0.02861614 -0.01939394 -0.00070606  0.04774174  0.00413442
 -0.06923203 -0.02322283 -0.07227672 -0.05356354 -0.01312482 -0.02675197
  0.02227806 -0.02200227 -0.05208284 -0.01348412 -0.01398693 -0.02146631
 -0.03930394 -0.04993257 -0.03312357  0.00327007 -0.02261151  0.08030039
  0.00095445 -0.04761299  0.0851863   0.01390866  0.05810156  0.05637253
  0.04183825  0.04378793  0.0213215   0.0163166   0.02825075 -0.00273603
  0.03084649 -0.02684209 -0.04663101  0.03699644 -0.01681492  0.03069592
  0.00665191  0.0252635  -0.00760054  0.01041687  0.06644231  0.00996734
  0.0347956   0.05243185  0.02743572 -0.01279551 -0.11047584 -0.00489061
 -0.04506563  0.0306711  -0.02798025  0.0472565   0.01805107 -0.05878025
 -0.09069033  0.02172176 -0.02424854  0.03972802  0.00863467  0.02550351
  0.03265205  0.05911565 -0.00977892 -0.05849181 -0.07815365 -0.04813699
  0.00457938  0.03073721  0.00197372 -0.05776281  0.0148533   0.08752284
  0.00248152 -0.03388835  0.07039208 -0.00965979 -0.0257021   0.00937252
  0.02040732 -0.06562336 -0.09556657 -0.08460092 -0.09752542 -0.06325564
 -0.03063326 -0.02027374 -0.04413022 -0.01782485 -0.02746772 -0.04903799
 -0.00746201  0.06620737 -0.01634121  0.05414745 -0.01662325  0.02172131
 -0.02738165 -0.01848427  0.04980833 -0.01536216  0.08145867 -0.04276073
 -0.01483347  0.01187536 -0.01308167 -0.01222586  0.0556881  -0.07938355
  0.01990767 -0.04053047  0.00224585 -0.01588055  0.02138501 -0.02700323
  0.0104086   0.01341166 -0.03639267  0.00949521  0.05549213 -0.05133078
  0.02967352  0.00443885  0.08953378  0.01332645  0.05207023  0.02378655
 -0.00157506  0.0687561  -0.00210596 -0.01166063  0.03862857 -0.00518646
 -0.01341783 -0.06253566  0.00636306  0.00685485 -0.04604966 -0.07835288
 -0.04915674  0.01900188  0.02098965 -0.07367211 -0.03148061 -0.0286626
  0.03484754 -0.03147261 -0.01115825 -0.01734303 -0.05420567 -0.01921417
  0.02609319 -0.04502207 -0.00552682 -0.05787663  0.04759445  0.02771721
 -0.00109788 -0.0335007   0.05470181 -0.04395948]
[-0.02974727  0.05192562 -0.00422945 -0.02532819  0.02072488  0.03868665
  0.05794952  0.00730233  0.08267664  0.03744425 -0.01389529 -0.09421967
  0.08226997  0.03817207  0.03339577  0.09806945  0.06446197 -0.07474483
  0.00268292  0.02533898 -0.01962241  0.01891976 -0.03289214 -0.0090437
 -0.09011378  0.04764879 -0.04825608 -0.01646263 -0.06285958 -0.00284817
 -0.05359242 -0.08261979  0.0110838  -0.09933606 -0.00863206 -0.0630328
  0.04798977  0.0552132  -0.01944082  0.06057888 -0.02749436 -0.07088932
 -0.04773992 -0.04327261 -0.04652998 -0.04207491 -0.02299939 -0.00891524
  0.07248181  0.00788506 -0.01824756  0.10375247  0.08298563  0.08325483
  0.04226467 -0.04023967  0.02363266 -0.08437477  0.07114742 -0.01340312
 -0.05951382  0.02557108 -0.04021692 -0.05968571 -0.03849191  0.02548123
  0.04309606 -0.08022585 -0.04086656  0.03295402  0.00062014 -0.00061347
  0.02944234  0.07742874 -0.03864788  0.01122103 -0.01696523 -0.06493798
 -0.0661523   0.04036062  0.04914293 -0.06762376 -0.05085377  0.04793205
  0.00563418  0.00793     0.00815349 -0.0228779   0.09152132  0.00533658
 -0.03248079  0.00041876 -0.04809215 -0.02764072 -0.05244138  0.01026162
 -0.01480969 -0.05930829 -0.00226601 -0.0267167  -0.01831947  0.02327256
 -0.00336844  0.06820827  0.03620048  0.0399317   0.00983467 -0.0048902
 -0.0217015   0.06357604 -0.01840866  0.01298793 -0.00988921 -0.00443039
 -0.0313188  -0.04598419 -0.03564857 -0.01042142  0.04043923  0.03605964
 -0.01563731 -0.04572795  0.00726916 -0.03944026 -0.01822614 -0.02496937
