Weights:
[ 0.09923232  0.08595751  0.05985214  0.09379514  0.09000033  0.01777933
  0.17467001  0.03416362 -0.09295054 -0.05382593]
[ 0.04734009 -0.11084192 -0.14808388 -0.0940382   0.09297669  0.00366506
  0.05248014 -0.06489798  0.1952706  -0.18047339]
[ 0.01058294  0.06552044 -0.05647846 -0.10065107  0.05016182 -0.09805301
  0.0434044   0.12678255  0.02836745 -0.04982848]
[-0.04236671 -0.05365833 -0.04993391  0.04913013 -0.01133054 -0.10698881
  0.07168741 -0.10848776  0.04397363  0.07220114]
[ 0.1313877   0.16999671 -0.03088924  0.02822603 -0.16592179 -0.13473165
  0.06869816  0.00902486  0.08804666  0.10350885]
[ 0.00568897  0.01604578 -0.1802232  -0.18143286  0.02690409 -0.06587651
  0.20185679  0.05759564 -0.06554128  0.01387289]
[-0.14195612  0.04849694  0.0576415   0.08621226  0.02330633 -0.09158643
  0.00375348  0.01314373  0.07096852 -0.07847469]
[ 0.00366538  0.0882125   0.08683951  0.03953257  0.00455491  0.09708401
  0.0953006   0.01181365  0.05988403 -0.0686738 ]
[ 0.04096028 -0.02594821  0.11111645 -0.01845064  0.04167124 -0.13467577
 -0.07057827  0.10864879 -0.05872684 -0.03582461]
[-0.01667376  0.16363244  0.03555036 -0.07065517  0.16003245  0.08531241
 -0.11102612 -0.06016719 -0.15402389  0.16532543]
[ 0.11031131  0.05274179 -0.0405825   0.01765485  0.04914824  0.02232263
  0.0115844   0.06490485 -0.18047304 -0.06800305]
[ 0.17209479 -0.01586828  0.12912607  0.18075131  0.09194232 -0.08562974
 -0.04331018 -0.1109254  -0.07616672  0.09394319]
[-0.11732689  0.06932145 -0.07187413 -0.02329908 -0.0417466   0.03381223
  0.0947718  -0.05381877 -0.12343169  0.05773493]
[-0.11462777 -0.04670778 -0.08107118 -0.09703614 -0.11079185 -0.03957656
 -0.10319005 -0.14209944  0.05835677 -0.18726116]
[ 0.15254109  0.01787299 -0.03222316 -0.0614187   0.06647304 -0.10023376
  0.01662307 -0.01444797  0.05593751 -0.1501131 ]
[-0.06103412 -0.12052701  0.04927325 -0.12697896 -0.03839293 -0.02717343
  0.08241148  0.10694861  0.02146546  0.04647493]
[ 0.06660195  0.11620287 -0.07398901 -0.00464222 -0.03518676 -0.00472119
  0.1403024  -0.00605084 -0.05418538 -0.07870253]
[ 0.04867687  0.07567211  0.16153418  0.09098834 -0.04632479  0.03063237
  0.00335148  0.0256751   0.11065693 -0.00185404]
[ 0.1553278  -0.02575193  0.07499526  0.08524331 -0.07752917 -0.04722441
  0.07639524  0.06491634 -0.00290282 -0.12705956]
[ 0.03380857  0.02796351  0.09754435 -0.01191899 -0.0996092   0.07777587
  0.03992167 -0.01636758  0.06753021  0.03781358]
[-0.01923779 -0.07074101  0.14136095  0.12408978  0.10819973  0.07647831
 -0.01680644  0.01696816  0.00828473 -0.00559806]
[-0.10681494 -0.06753624  0.00476829 -0.06394719  0.0995767  -0.07211897
  0.01875019 -0.10111985 -0.10997493  0.08229874]
[-0.09208287  0.03276115  0.02881884 -0.04501115  0.08359547  0.07687005
 -0.05217191  0.00402353 -0.01383071  0.02380631]
[ 0.00741932  0.04216612 -0.13922304 -0.03533996  0.14266412 -0.05470641
  0.093606    0.14809251  0.07899733 -0.03632459]
[ 0.01506104  0.00703034 -0.00976051 -0.00471994  0.01275085  0.06521456
  0.00011733 -0.07044109 -0.1019053   0.10008973]
[-0.00178079  0.05864649  0.14144658 -0.01567599 -0.06639405 -0.02203298
  0.09246503  0.08915955 -0.01245255 -0.00440559]
[ 0.18354268  0.06584089  0.15617247  0.01741531 -0.00024769  0.15399227
  0.05776149 -0.11373856 -0.08977086  0.08042637]
[-0.03479589 -0.11071838 -0.04034711  0.03121687 -0.04547446 -0.01139315
  0.15059473 -0.04793392  0.14692786  0.0072854 ]
[-0.05362589  0.11851947 -0.05293705  0.08620353 -0.00054603 -0.0880354
 -0.00080937  0.00480131  0.11764079  0.06993214]
[ 0.12620492  0.14871322  0.01333282  0.08328383  0.14383237  0.06938154
  0.03948728 -0.00887338 -0.08995213 -0.03653703]
[-0.05456476 -0.09583869  0.00881169 -0.14785029  0.1463304   0.13351683
  0.10278086  0.10291319 -0.18853198  0.08180198]
[-0.05142594  0.11942244  0.00060113 -0.00562923 -0.04637174 -0.08541414
  0.02163393  0.04645276 -0.14751308  0.0445362 ]
[-0.15500906  0.1447692  -0.04076833  0.14254533  0.15748185  0.11171514
 -0.07794637  0.01046668  0.02693973  0.10125034]
[ 0.02395563  0.03558759 -0.11358076  0.1004143   0.05193356  0.05657879
  0.03940332 -0.09272307 -0.07371066  0.04557961]
[ 0.09829593  0.12609039  0.04102872 -0.00680121 -0.00753829 -0.08672556
 -0.05478282 -0.02308404  0.06529786  0.02191129]
[ 0.04730188  0.06769182  0.06579944  0.09410461 -0.01971437  0.10023109
 -0.01890215 -0.07950667 -0.08872201  0.03643871]
[ 0.01130942  0.11991323 -0.03088068  0.10510636 -0.08114425 -0.11146528
 -0.1570618  -0.1420689  -0.03494685  0.08260623]
[-0.00841208  0.09835472  0.00128492  0.00746282 -0.15395613 -0.09048252
  0.02285843 -0.00364311 -0.08344937  0.03393916]
[ 0.1323619   0.16380094  0.15960789  0.0764427  -0.13887902 -0.12309953
 -0.05299532  0.18591793 -0.08113306  0.03705079]
[-0.0803549   0.08964527  0.12628952  0.05548935  0.08591013  0.05515264
 -0.07882436  0.02912638  0.00411058  0.00365567]
[-0.01284786  0.04668731 -0.18959372  0.13980694 -0.02954697  0.09451517
 -0.01472594  0.00276198  0.01457139 -0.1220255 ]
[ 0.09221616 -0.10706307 -0.03768561  0.11288794 -0.10800035  0.115206
 -0.05194562  0.08123541  0.00851219  0.05514402]
[-0.06708881  0.09657018 -0.09505389 -0.06847011  0.00059177 -0.16496076
 -0.03349553  0.06234686 -0.03024419 -0.10917427]
[ 0.10073322 -0.05722736  0.15250489 -0.00019208  0.02691879 -0.10725764
  0.00559472 -0.14340948 -0.08405216 -0.11274155]
[-0.07749698  0.07077257 -0.00399972  0.03303975  0.08244758 -0.04520915
  0.06294377 -0.08672525  0.01698803 -0.03696649]
[ 0.0026997   0.1309245  -0.17756604 -0.1492097  -0.03492002 -0.05285148
  0.02591396 -0.10495728  0.10304986 -0.05145196]
[-0.03605795 -0.10392022  0.15387887  0.06696599  0.0631733  -0.01007459
 -0.06534942 -0.01403083  0.00715939 -0.0058809 ]
[-0.17459126 -0.01451495 -0.05678502 -0.03401855 -0.1544735   0.06769097
 -0.12197537  0.1201904  -0.07917513 -0.0677192 ]
[-0.0119255  -0.07789084 -0.17842565 -0.06874996 -0.14794166 -0.11585746
 -0.02752839 -0.07155517 -0.06219833  0.07572732]
[ 0.07583591  0.12263723 -0.11681923  0.17502366  0.02024473 -0.12618825
 -0.18150176  0.09539925 -0.03352867 -0.05624543]
[ 0.14407866  0.01046648 -0.02586766  0.19729972 -0.10456613  0.0316609
 -0.05813539 -0.10386952 -0.12990694 -0.06448325]
[-0.00896661  0.01918351  0.12949046  0.12906526 -0.00656608 -0.08561046
 -0.1535979   0.02254861  0.05347276 -0.07418904]
[ 0.05587564 -0.08577459 -0.08315928  0.09226419 -0.08301321  0.02516123
 -0.02756745 -0.03192985 -0.13248773 -0.14768483]
[ 0.06177357 -0.11074974 -0.08966573  0.0025005   0.01144739 -0.00088345
  0.03260238  0.0644762  -0.01864084 -0.06790651]
[ 0.15349345 -0.10375736  0.07765551 -0.05416301  0.04541874 -0.0949937
  0.14532173 -0.03176739  0.02857644  0.07110167]
[-0.10137031 -0.03302772 -0.0529693  -0.02197391  0.00706717 -0.04104223
  0.05874771 -0.12879682 -0.01415167 -0.14622697]
[-0.12931493  0.15013964  0.08745343  0.13747665 -0.17563473 -0.03601845
  0.06877609 -0.05869104  0.08378418 -0.12089743]
[-0.04612878  0.11919863 -0.03671066  0.02433727  0.15135534  0.13305786
 -0.07637819  0.01406964 -0.02115819  0.07454377]
[ 0.18999161  0.09662606  0.10308386 -0.07002348  0.12999757  0.06064663
  0.00322842 -0.02455631 -0.0429925   0.0371238 ]
[ 0.12988105  0.09041863 -0.09232067  0.04744624 -0.10577806 -0.01982337
 -0.02879845 -0.03452088  0.03926363 -0.10651646]
[-0.01256525  0.17012526  0.1324252   0.11893742  0.07899074  0.09486961
 -0.00416563 -0.04422884 -0.03103312  0.1401442 ]
[ 0.01430306 -0.01373239  0.07711253  0.09659508 -0.01625034  0.06954603
  0.01545216 -0.10535853 -0.00941101 -0.10411368]
[ 0.04982411  0.00467925  0.05197345  0.17329228  0.04809285  0.0413667
 -0.081062    0.00343829  0.04345024 -0.03412544]
[-0.00096537  0.06503443 -0.11481481  0.02798933  0.00506354 -0.00825308
  0.05910283 -0.10090531 -0.04411181  0.13525645]
[ 0.06076318 -0.04595635  0.14488775  0.01624145  0.13325131 -0.06927964
  0.06887907 -0.10328834 -0.10459774  0.01828561]
[ 0.02564781  0.07669395 -0.05887018 -0.0316182   0.01387287 -0.10441068
 -0.08270557  0.17596696  0.10325588  0.09396503]
[-0.08453197 -0.01616494 -0.13185489 -0.16814849 -0.00860589 -0.04057122
  0.04688751 -0.06781802  0.18160795 -0.00264304]
[ 0.13905925  0.17201215 -0.08144648 -0.03260403  0.09148262  0.12225832
 -0.01570377 -0.08653116 -0.05076201  0.144668  ]
[ 0.0424389  -0.04148275 -0.0550931  -0.00201103 -0.04192124  0.05426838
  0.03756916  0.03938214 -0.18143225 -0.03520632]
[-0.05161455  0.11533844 -0.09446588  0.08698186 -0.03396947 -0.02999064
  0.06926775  0.00435595  0.07780591  0.02158407]
[ 0.04546858  0.04592422  0.04198893 -0.04711996 -0.11809093  0.09454104
 -0.13578427 -0.00374574 -0.0484093   0.01553704]
[-0.04429113 -0.20045729  0.19287884  0.09432653  0.1174229   0.01957345
 -0.15931332  0.03554442  0.04944003 -0.11526978]
[-0.03630447 -0.14357789 -0.13088626  0.11094179 -0.02161451 -0.00214371
 -0.05833697 -0.07591859  0.07094838  0.05350489]
[-0.14821088 -0.1107376   0.04715302  0.09580766 -0.01030389 -0.01111968
  0.0132112   0.05504726 -0.10242917 -0.08269954]
[-0.00113498  0.0250819   0.02958238  0.01999456  0.11723627  0.06558327
  0.0576231  -0.08220186  0.13131808 -0.14298092]
[-0.05097088 -0.02462659 -0.09917329  0.08090349  0.08584913 -0.04137876
 -0.01352756  0.04919514  0.05785166 -0.04451272]
[ 0.02779428  0.00487131 -0.01609277  0.06656808  0.11126025  0.05636894
 -0.02116077 -0.0367092   0.03691321  0.02169213]
[-0.02831595 -0.10691858  0.0344174   0.10814618 -0.01175467  0.02048412
 -0.03450498  0.11257669 -0.03695033  0.02016865]
[-0.04620073  0.15560909  0.05235012  0.09283712  0.01699122  0.05681145
 -0.09308589 -0.09006358  0.01919973 -0.04105861]
[ 0.04550631 -0.01848875  0.00871123 -0.07380968 -0.01957383 -0.01771532
  0.15790871  0.02261288  0.05137141 -0.11687097]
[-0.0117027  -0.15589598 -0.12649599 -0.01290184  0.09558844 -0.00571309
  0.10151038  0.02401007  0.11243454  0.08344405]
[-0.09131713 -0.0066182   0.06863514 -0.0950458  -0.01814462  0.13015766
 -0.0487855  -0.05599548  0.132555   -0.14934833]
[-0.07052089 -0.14901468  0.07741752  0.04266296  0.01079399  0.0992345
  0.04246621 -0.10368069 -0.08527394  0.16791727]
[-0.11414854 -0.00398117 -0.15291134 -0.16271462 -0.05658365  0.00739627
  0.06864432  0.07502035 -0.02244089  0.03767069]
[-0.0758884  -0.1238122   0.17454687  0.03834764 -0.05248308 -0.04947088
 -0.00662767  0.04805379 -0.00234208 -0.13810186]
[ 0.0097705  -0.08964569 -0.00049821  0.02001889 -0.07330334 -0.0675037
  0.19114466 -0.14957191  0.0156604   0.06250343]
[ 0.05876874 -0.01313343 -0.1740848  -0.07037988 -0.03392088  0.08573034
  0.12931594  0.16489603  0.1360145  -0.10838038]
[-0.1138007   0.12090167 -0.11697206  0.04440471 -0.13181597  0.04200686
  0.01699404  0.01020503  0.10799617  0.04651718]
[ 0.15641354 -0.1778319  -0.07532197  0.07296634 -0.10009094 -0.00374024
 -0.01740453  0.11269464  0.13051863  0.06244677]
[-0.13039719  0.09076882 -0.02283181  0.13345453 -0.01512505 -0.02355557
 -0.1061972  -0.00264907 -0.01708385 -0.02176773]
[ 0.03447992  0.03962873 -0.0760785  -0.0270724  -0.00953597  0.14851849
 -0.04013751 -0.07034329 -0.08401248 -0.03730195]
[ 0.05069676  0.06579266 -0.05266555 -0.08588806  0.03982066  0.12066035
 -0.01160439  0.0209784   0.0070928  -0.05464248]
[-0.12662189  0.0249174  -0.01621319 -0.124098   -0.01532487 -0.1431714
 -0.11839548 -0.09829283  0.04967766  0.07752671]
[ 0.04967831  0.03533501  0.06195496  0.04417336 -0.03853824  0.13616137
  0.16762653  0.02014089 -0.05055188  0.0523781 ]
[-0.1089453  -0.12200891  0.09296566  0.01144985  0.06928502  0.1377669
  0.11902633 -0.01038537 -0.1112641   0.03958958]
[-0.02515998 -0.04557873 -0.1360829   0.06129393 -0.1457832   0.11478341
 -0.12707958  0.01139388 -0.03150818  0.16085461]
[ 0.05447449 -0.01553039 -0.07055171  0.1005616   0.08720836 -0.04060435
 -0.02404049 -0.1431773   0.1044991  -0.07452551]
[-0.01476375  0.0378496   0.00866016  0.00452337  0.02083755 -0.03392781
 -0.01991168 -0.17635235  0.03524416  0.1695045 ]
[ 0.09987553  0.03980482  0.09137104  0.11722833 -0.00751135  0.00556185
 -0.0443462   0.01566591 -0.01149938  0.08588508]
[ 0.12674679  0.10260715 -0.00269649  0.1560141  -0.09896963  0.01395504
  0.18484539 -0.08248478 -0.15940382  0.00338747]
[ 0.04392378  0.12451437 -0.02026475 -0.12746614 -0.069293   -0.16232137
 -0.02414827  0.04942983  0.14482431 -0.05863908]
[ 0.04868664 -0.03305532 -0.15602244  0.08433462 -0.10840037  0.04078875
  0.0039487   0.02985845  0.01639038  0.09285111]
[ 0.14120036  0.09424876  0.03717543  0.09696762  0.1577854   0.1216834
  0.19011803 -0.10353457  0.0264409  -0.10267462]
[ 0.06361341  0.05426641  0.04760671 -0.06130076  0.02115114 -0.06972606
 -0.17557926 -0.05592907  0.03780542 -0.14083618]
[-0.04426351  0.09911022  0.02903375  0.06789147 -0.03577777 -0.1653325
  0.06221256 -0.08428197 -0.05491707 -0.00036588]
[ 0.03725892 -0.01499111  0.09558166  0.11701948 -0.00232211 -0.04438012
  0.07259079  0.00595641  0.02899156 -0.16331653]
[ 0.13863572  0.09899904 -0.04700524  0.00221994 -0.06137494 -0.04857056
  0.0202901   0.18418503  0.09432531  0.03768091]
[ 0.10591038 -0.03662056  0.14996211 -0.01330706  0.16363814  0.01625936
  0.09167523 -0.02096303  0.086689   -0.01538576]
[-0.00041833 -0.0551325   0.07800693 -0.01129985  0.17372599  0.08103607
  0.1963194   0.05200243 -0.05487062 -0.05992075]
[ 0.05487074 -0.04621495 -0.11375061  0.10773306  0.08279536  0.00068246
  0.02372666  0.00114544 -0.01121064 -0.01635645]
[-0.10229408  0.03771378 -0.02418963 -0.12541199 -0.0316752  -0.04883522
 -0.0562119   0.06925014 -0.0348586  -0.03506037]
[ 0.05458156 -0.05162963 -0.05645268 -0.02262312 -0.019688    0.08379619
 -0.00852318  0.04868992  0.04755869 -0.1126159 ]
[-0.03901182 -0.08762561  0.07240115  0.06067802 -0.12045316 -0.02074774
 -0.04555691  0.0277668  -0.05090571 -0.07039046]
[ 0.08273635 -0.15775774  0.18506837 -0.06118353  0.16890626 -0.0511892
 -0.08856089 -0.02327782  0.05516398  0.00374304]
[-0.0936436   0.03802277  0.11200511 -0.07153953  0.10596761 -0.14099842
  0.0280239   0.05636772 -0.01167124  0.0858632 ]
[ 0.17216219 -0.08028882  0.0399423   0.16714233  0.1613786   0.06624982
 -0.04038927  0.01569918 -0.12364978 -0.0309948 ]
[ 0.06351051  0.02289226  0.06645635  0.02099261  0.09054653 -0.0453683
 -0.04821684  0.09031828  0.09808697 -0.02590249]
[-0.13974287 -0.14952734  0.04569675  0.04636256 -0.06869721 -0.06709647
 -0.01005154  0.0447577  -0.08068447 -0.00066884]
[ 0.01725558  0.11918447  0.03781807  0.068689   -0.01660758  0.08878568
 -0.12496502  0.03388125  0.03896121  0.02026203]
[ 0.06487133 -0.11844736 -0.04692398 -0.15297419 -0.040651   -0.0134648
  0.01066561 -0.09402469  0.06471398 -0.04702574]
[-0.06983778  0.05770203  0.01750773 -0.09167156  0.07075334  0.04933387
  0.0777657   0.08693344 -0.03628621  0.00210076]
[-0.06631176 -0.19002654  0.02075825 -0.09265949  0.05126981 -0.06674168
 -0.00694814 -0.06966551  0.01416103 -0.00026549]
[-0.00593583  0.08968886  0.1263294   0.05257951  0.07879366  0.12881699
 -0.1051406   0.16797501  0.1334328  -0.02608667]
[ 0.10324048  0.0027018   0.10443515  0.11212986 -0.13134529  0.07940819
  0.12072811 -0.11942375  0.054284   -0.15643851]
[ 0.09961501 -0.06702877  0.13246241  0.08625205 -0.01784047  0.13214923
  0.10258541  0.0622371  -0.01635708  0.11656056]
[ 0.03510727  0.01008413  0.12841871  0.09807211  0.04829519  0.06532391
  0.00435689  0.05180723 -0.06561648  0.03226466]
[ 0.00120296 -0.01649824 -0.10276426 -0.1689177   0.06568664  0.06842075
 -0.06649373 -0.01867831  0.01282169 -0.04828338]
[-0.1515936  -0.01449979  0.03791166  0.06748797 -0.13875373  0.06864833
 -0.10438684 -0.06184819  0.09689422  0.0665981 ]
[ 0.08509522 -0.19913487  0.08903652  0.02019353 -0.08113757  0.04602313
 -0.0174987  -0.16587837  0.02090642  0.125592  ]
[ 0.04067131 -0.09410002  0.07181656  0.02057408 -0.00622485 -0.03694797
  0.05034008  0.06921575 -0.11092509 -0.13129932]
[-0.05914921 -0.05306734 -0.06890827 -0.07740352  0.10396999 -0.0014751
  0.06034638  0.05356762 -0.14830686  0.1593133 ]
[-0.00427753 -0.17133525 -0.13552706  0.07968328  0.01058723 -0.01471565
  0.02870291  0.0976522  -0.09175654 -0.01361029]
[ 0.01836763 -0.07278837  0.1592489   0.05010987  0.17773576  0.05147691
 -0.00151911 -0.03982036  0.11629902  0.05097328]
[ 0.20238185  0.11529826 -0.03845902  0.03306019 -0.04373276 -0.00069647
 -0.18487264  0.02970187  0.11894362  0.01210636]
[ 0.08253314  0.11178128 -0.02690003 -0.10371975  0.13487214  0.02268372
 -0.05008709 -0.08032981 -0.12488378  0.06207747]
[-0.06537774 -0.15237193  0.03188505 -0.15194048  0.02652782  0.07529055
  0.03792406  0.03527598  0.08882443 -0.00976398]
[-0.07739995 -0.01637523  0.12126694  0.07081294 -0.04035159 -0.02629579
 -0.08418164  0.04868907  0.07210429 -0.01342862]
[-0.02154087  0.06449842  0.13540393  0.01464679 -0.06536198 -0.1533871
  0.0086426  -0.01068039  0.0238742   0.05625438]
[-0.04252541 -0.00243539 -0.17137484 -0.16670413 -0.11676203 -0.01911673
  0.14912942  0.08644588  0.01176811 -0.03736603]
[ 0.10724915  0.08669689 -0.10022979  0.03730834  0.08041219  0.03752816
 -0.08682796  0.0055767   0.01837567  0.17962149]
[-0.04574707  0.00172724  0.07948478  0.03088973  0.01860167  0.11003272
 -0.06385321 -0.10736129  0.10447881 -0.0064877 ]
[-0.05893812  0.01289427 -0.13673326 -0.04495236  0.04222592 -0.11335523
 -0.03411882 -0.09701473 -0.08582507 -0.02540808]
[-0.0156773   0.0092783   0.02298916 -0.0043527   0.03213422 -0.05511288
  0.01813724  0.07046867 -0.1694639   0.02190599]
[ 0.10954764  0.00826307  0.10897057  0.10651402 -0.0342427   0.00726943
  0.0907247  -0.1543787   0.03827633 -0.02400501]
[ 0.01254506  0.02731624  0.15097211  0.11859366  0.07365277  0.1262207
  0.00394824 -0.05535989  0.08477353 -0.10147195]
[ 0.03792178  0.04131127  0.01479757 -0.016365    0.17552912  0.12011717
 -0.02899487 -0.11154148 -0.04398235  0.01881932]
[-0.01921771 -0.06019772  0.01486011 -0.00543958  0.09470443  0.03849355
  0.02896484  0.09166829 -0.01989169 -0.16624519]
[-0.03165467  0.01760916 -0.09923302  0.04293594  0.12213232  0.04069455
 -0.03989007 -0.05442628 -0.08500911  0.16400565]
[ 0.05514619 -0.06830151  0.0826603  -0.03090428 -0.08534104  0.00634238
 -0.02098974  0.01507726 -0.03784093  0.0788184 ]
[-0.00077998  0.04539941 -0.12125397 -0.07406436  0.1499152  -0.04915934
 -0.02906671  0.01278632  0.06723352 -0.13787353]
[-0.13688537 -0.06445943  0.00292481 -0.18589504  0.09946742  0.13687405
 -0.02390423 -0.04969392 -0.04225789 -0.00052425]
[ 0.07392731 -0.00914076  0.10513169  0.08595081  0.06100616 -0.10999985
  0.11551166 -0.00047335  0.01189923  0.02121202]
[-0.10844842  0.06914503 -0.09067726 -0.06142284  0.01662993  0.00529489
 -0.04840644 -0.01741052  0.00906856 -0.10320579]
[-0.07716933 -0.01351611 -0.02325561  0.03530637  0.04372291  0.05753703
  0.00913897  0.04997688  0.00036142  0.10893351]
[ 0.01171439 -0.01124    -0.10441934  0.00807745 -0.12288523 -0.10574841
  0.1171759   0.08961485 -0.0766373  -0.15388201]
[ 0.01558982 -0.10224348  0.03300014 -0.0050217   0.16007818 -0.03003819
  0.12094995  0.14615664 -0.04296513 -0.08541074]
[ 0.01289272 -0.05143157 -0.01270858 -0.04159553  0.09794095  0.06729545
  0.00305863  0.05193772  0.0514946  -0.04688274]
[-0.03921214 -0.06618352  0.05344853  0.04946523  0.02451535 -0.04116241
  0.03074076  0.04061253  0.09058048  0.19429348]
[ 0.00718788 -0.15848158 -0.12314535 -0.07376582  0.04769562  0.01130434
 -0.01758012 -0.1438613  -0.03339906 -0.04717512]
[-0.14912449 -0.12240092  0.07183969 -0.07780025 -0.06472053 -0.01377651
 -0.02561717  0.19363332 -0.11775592 -0.08816213]
[-0.03875904  0.0573958  -0.10775137 -0.13021456  0.01997398 -0.13622703
  0.00078307  0.09437994  0.11149074 -0.07679942]
[ 0.14167802 -0.12202254 -0.01398955  0.04517134 -0.13264835  0.03555654
  0.15315735  0.07320599 -0.03447026  0.02845952]
[-0.06049988 -0.00252195  0.13091037  0.1379108   0.05525185 -0.11517624
 -0.05415823 -0.04676745  0.00514128 -0.02006095]
[-0.08566605 -0.03011185  0.02620508 -0.13510719  0.12125117 -0.02122154
 -0.0283818  -0.01943442 -0.00694157 -0.07368571]
[ 0.02395437  0.1079901   0.18577404 -0.08516752  0.01776641 -0.03490171
  0.08210654  0.01677691  0.04288868  0.10948784]
[ 0.11726246 -0.06497116 -0.0412826   0.00815222 -0.0760344   0.00322146
  0.0058546  -0.13356148 -0.046099   -0.06063285]
[-0.03571591  0.03861904  0.1536307  -0.02431425  0.04432278  0.04723588
 -0.05288036  0.10970891 -0.04508901 -0.01442848]
[ 0.19875897 -0.03987401 -0.05140193  0.03005499  0.09061031  0.04320076
  0.1702091  -0.02274735  0.13267209 -0.10477652]
[ 0.06720016  0.01775963  0.01447173 -0.10428296  0.03840281 -0.11207074
 -0.01797965 -0.12918174  0.03144705 -0.10541981]
[ 0.15347989 -0.1372726  -0.06042999  0.16842645  0.03833066 -0.03533237
 -0.09482576  0.08192085  0.13834813 -0.01531258]
[-0.01215434  0.04967568  0.03231761 -0.00509346  0.11441322 -0.05340434
 -0.03742655  0.00853019  0.04716659  0.15805182]
[-0.04838556 -0.17487994 -0.18168639 -0.04271159 -0.02359762  0.01569388
 -0.09328913  0.05782499  0.13554694 -0.05310005]
[ 0.18359445 -0.04069488  0.04717278 -0.1322228  -0.07485317  0.00772404
 -0.14014293  0.01453651 -0.10048882 -0.13243513]
[ 0.10636173  0.00615431  0.07986842 -0.13705    -0.04073097 -0.13767055
 -0.16401689 -0.04317958  0.14798519 -0.00619719]
[-0.05525585 -0.17479767 -0.1025354   0.143262   -0.18393642 -0.0097978
  0.02355707  0.11055604  0.03415183 -0.11638741]
[ 0.1693769   0.07932703 -0.03240424 -0.03107086 -0.04445571 -0.14820541
  0.00686109 -0.19645208  0.14391884 -0.08678593]
[-0.09689917 -0.09781667  0.07816611 -0.01571145 -0.08421413  0.06632672
 -0.03938813  0.01469822  0.0125198   0.00428499]
[-0.0499311  -0.0475432   0.10318545  0.09019659 -0.15670808 -0.03421154
 -0.07979172 -0.04024787 -0.12183612 -0.09921623]
[ 0.0922878  -0.18368407 -0.16930927 -0.08935805  0.0796018  -0.04222501
 -0.03839238 -0.10504455  0.13962266  0.11902196]
[ 0.04796898  0.00216388 -0.00456317  0.07040727  0.11050934  0.12800728
  0.06888073  0.02204582  0.04779072 -0.03513434]
[-0.10419312  0.00240532  0.05547084 -0.135253   -0.18202867 -0.00507837
 -0.13773848  0.01658921  0.05055521 -0.07008506]
[ 0.13191701 -0.0732268   0.09969904  0.11919563 -0.0063579   0.14219303
 -0.060939   -0.07198969 -0.06371505  0.06440566]
[-0.01278254 -0.07499316  0.08670026  0.00381683 -0.03365601  0.08928777
  0.03494856 -0.06488936  0.00817588 -0.09622983]
[-0.08763328  0.05535648  0.02103294 -0.11136296 -0.08769755 -0.01357722
  0.00163415 -0.07981831 -0.00248796 -0.05856201]
[ 0.07071619 -0.1052863  -0.06314221 -0.00461339 -0.10109931  0.12964271
 -0.00027675  0.05568282  0.09193881  0.14454831]
[ 0.05634058 -0.11529864 -0.12351906 -0.01432199 -0.15391256  0.07700843
 -0.16451576  0.00881541  0.07670321  0.0045212 ]
[ 0.1017508  -0.12499128  0.17928648 -0.13974667  0.04199398  0.05548486
  0.07678508 -0.17686526  0.02170056  0.06699345]
[-0.14169544  0.03307148  0.14912026 -0.01386962 -0.14275366  0.0531122
 -0.01360389  0.07806946 -0.01190704  0.03680452]
[-0.13287887  0.04246474 -0.06088565  0.06576747 -0.12033986  0.12416106
 -0.13470353 -0.11998078 -0.04694199 -0.098321  ]
[ 0.04844837 -0.11045711  0.1336451   0.15529649 -0.03769833 -0.04896744
 -0.08904681  0.03756788  0.09995371  0.05842332]
[-0.02590438 -0.05777039  0.16756065 -0.04162133  0.10234963 -0.08950464
 -0.07577676  0.04830818 -0.19711806 -0.00581461]
[ 0.05789544 -0.04016085 -0.00178789  0.10533819  0.08057427 -0.02385643
  0.07550214  0.10514031 -0.03541119 -0.11573288]
[-0.14977667  0.05848898  0.14663763 -0.02386211 -0.04501079  0.10853611
  0.00151025  0.05262071  0.03323644  0.06741139]
[-0.00575806 -0.11813537  0.03206474 -0.08653406  0.18671913  0.04102897
 -0.11893948 -0.01387852 -0.08297009  0.04039267]
[ 0.0602384  -0.03805955  0.04048952 -0.00535241 -0.0504017   0.07184143
 -0.03186367 -0.10040054  0.00483748  0.12922005]
[-0.04337616  0.1035128   0.04119576 -0.05410986 -0.0852782  -0.10119199
 -0.01471412  0.04560295  0.06532651  0.13844822]
[ 0.12357331  0.11768147  0.16471279  0.10359216  0.03000593  0.09982457
  0.02543952  0.13829371 -0.06702448 -0.1525711 ]
[ 0.07706046 -0.11422312  0.05840873  0.10704118  0.08887979  0.02001905
 -0.02641969  0.11907224 -0.08432528 -0.01387282]
[ 0.07115535  0.1704343   0.05637435  0.01921123 -0.09276771  0.1248869
  0.05138947  0.04681293 -0.16813177 -0.038521  ]
[ 0.00081623  0.09482762  0.1297509   0.08634572 -0.00235625 -0.05765134
  0.00928565  0.01689311  0.18526007  0.04069045]
[-0.10756153 -0.07008491 -0.05895175 -0.08443461 -0.10916294  0.076728
 -0.07148445 -0.03556438 -0.01265958 -0.05856554]
[ 0.06180754 -0.04385462 -0.05311175 -0.02313076 -0.11102159  0.02824737
  0.12242526 -0.01357693  0.08655697  0.08553428]
[-3.1459258e-05 -4.4272278e-02 -5.8919840e-02 -1.9343916e-02
  1.0268974e-01  4.4754792e-02  7.8831807e-02 -3.1604604e-03
  9.6959516e-02 -7.9425797e-02]
[ 0.11297347  0.10110583  0.01078566 -0.00065697  0.04764473  0.05903114
  0.0180479  -0.11096927  0.00348112 -0.00110656]
[ 0.08454186 -0.08315232  0.00337919 -0.06423672 -0.00498732 -0.16535696
  0.12831554 -0.06773791 -0.00380291 -0.19626528]
[-0.02811066 -0.08419705 -0.05550299  0.1897822   0.10676911 -0.04676355
 -0.01564903  0.13709748  0.15838955 -0.00061039]
[ 0.07638147 -0.03305189 -0.01864707 -0.06877484 -0.00866337  0.04904163
 -0.09798204 -0.1466698  -0.11929488 -0.0341414 ]
[ 0.08286303  0.07477595  0.14876767  0.05120757  0.00665483  0.03031212
  0.18466413 -0.06275234  0.02696094  0.06407942]
[ 0.07234142  0.02839752 -0.04145589  0.0181426  -0.00218036  0.05904314
 -0.00193365 -0.06310603  0.17512955 -0.07059629]
[-0.12387365  0.04306912 -0.09081369  0.04760974 -0.04878386  0.13376565
  0.08338707 -0.08881263  0.18300211 -0.14160976]
[-0.07452902 -0.03751536 -0.1334738   0.00988649 -0.00533753 -0.17228083
 -0.01038379 -0.09929839 -0.03725046 -0.10506435]
[ 0.00522495 -0.06393416 -0.0151261  -0.06567356 -0.00023793 -0.00290406
 -0.02446515 -0.04175425  0.01162811 -0.05584962]
[-0.11391434  0.00492151  0.09730921  0.11398897  0.00266512  0.06486711
  0.05808811 -0.01245716 -0.06092421 -0.06295569]
[-0.00709345 -0.06886113 -0.00713422 -0.03096019  0.0288835  -0.03380729
 -0.07279374  0.04073551 -0.12878199 -0.00685228]
[-0.15763307  0.02141671  0.00086477 -0.1087999   0.0116781   0.19216172
  0.05186518 -0.0699259   0.04078397 -0.11519122]
[ 0.09341636  0.04990093 -0.05374813  0.00798842 -0.04530708  0.03997267
 -0.07228722 -0.07048344 -0.05666843 -0.15045273]
[-0.07976233  0.06946691  0.02628469  0.05318115 -0.01072023  0.03431539
  0.0360208  -0.05020383 -0.01106186  0.10811644]
[-0.14843018 -0.01532368  0.05761193 -0.00207635 -0.01532749  0.14149052
 -0.03448499  0.13984825 -0.10010518 -0.13200055]
[-0.17842238  0.14274523  0.10564524  0.00362259 -0.07970487 -0.00109906
 -0.11171404 -0.06066556 -0.08357541  0.11950225]
[ 0.05334985  0.1734657   0.1887488  -0.0156671  -0.05484452 -0.04835337
 -0.03522733 -0.02021942 -0.02776439  0.06315136]
[ 0.0604732  -0.09605251 -0.07494184 -0.02627215 -0.0597401   0.09754913
  0.14580044 -0.05505143  0.09817898  0.05325361]
[ 0.16186702  0.18325794 -0.03399744 -0.08690298  0.02101848 -0.13249834
  0.15039276  0.08787395 -0.06119786  0.06559379]
[ 0.05283514  0.15485612 -0.15948646 -0.11818866 -0.12759739 -0.13859363
  0.06037352 -0.08703971 -0.07397701 -0.01205225]
[-0.13431054 -0.00939676 -0.0070853  -0.07707691 -0.07414891 -0.11228327
 -0.04462784  0.13233796  0.14427589  0.13859159]
[ 0.04777143  0.0059256  -0.11221227  0.08418649  0.01623163 -0.11481906
  0.08430326  0.03958068 -0.02607528 -0.00188093]
[-0.07041462  0.09715391 -0.07449541  0.1771342   0.10082155  0.05515466
  0.04462507  0.04763386  0.01645618 -0.08592401]
[ 0.10122682 -0.05647795  0.05674217 -0.08178289  0.11430992 -0.11983266
 -0.16945899 -0.09397835 -0.0431276   0.03429335]
[-0.00132235 -0.11597728  0.12643799  0.14683764  0.09754361  0.04210207
  0.09661523  0.01610696 -0.03297019 -0.0659869 ]
[-0.00534296 -0.07686996 -0.0065246  -0.05590964 -0.15234952  0.01919281
  0.01136707  0.0289858   0.15096806  0.17547454]
[ 0.12198932  0.0330237   0.03093985 -0.02895749  0.06604099 -0.16231489
  0.17792091  0.08361845  0.08000811 -0.15118378]
[ 0.08436809  0.03149689 -0.15248983 -0.1583127   0.00369988 -0.01921715
  0.1718241   0.01699577  0.11590615 -0.02910385]
[-0.11651824 -0.05307926  0.02648955  0.13401282 -0.08346435 -0.00343007
 -0.09307575  0.15144265 -0.14967044  0.15552324]
[-0.04749076  0.03003214 -0.19434233 -0.14993165  0.07602061 -0.10534641
 -0.10977822  0.06227244  0.12488694  0.11978187]
[-0.0472227  -0.0184245   0.04206919 -0.0209328  -0.09800858  0.12610173
 -0.00735132  0.03716175 -0.08292063 -0.01383982]
[ 0.15606786  0.0468295   0.0080296   0.19651356  0.14051555 -0.1239316
  0.04243071 -0.02094665  0.10425511  0.1401014 ]
[ 0.00260789 -0.10105132 -0.07831363 -0.04219141 -0.07814564  0.07432139
  0.13550696 -0.06099002  0.05780924 -0.12326584]
[ 0.04525388  0.11210423 -0.1204644   0.1293956   0.04191567  0.09449169
 -0.04580566  0.00749896 -0.08780815  0.07757878]
[ 0.11202718 -0.15631932 -0.00663406 -0.01665884  0.03317982 -0.01300733
  0.0946693  -0.07794631 -0.10450006  0.09934396]
[-0.11539501  0.06932914  0.0691301  -0.03443771 -0.0671351   0.01434866
 -0.04728829  0.03624041 -0.09171347 -0.03752648]
[ 0.01651319  0.09227312  0.03191772 -0.02173465  0.05117336  0.03408424
  0.13442612 -0.10833205 -0.06090283  0.02850736]
[ 0.13475028  0.10881777  0.01491287 -0.08684313  0.05110246 -0.08737949
  0.02559971  0.03249791 -0.07201298 -0.19230515]
[-0.17131801 -0.00412027  0.0395545  -0.09623717 -0.07764887 -0.14116073
  0.09326812 -0.12229863 -0.08916789 -0.10230588]
[ 0.18438862  0.18381181  0.00455154  0.00080332 -0.06876674  0.00144171
  0.11538218 -0.02233749 -0.17762408  0.10595685]
[ 0.01414163 -0.10634004  0.00034776  0.00432765  0.00600404 -0.06421657
  0.08105601 -0.07485808  0.01219373 -0.06226178]
[-0.06334482  0.10231916  0.01706397  0.03950208 -0.07478065  0.04579035
  0.08180279 -0.08224875  0.00828094  0.09252972]
[ 0.0223418   0.13918515  0.12464316  0.05390976 -0.03903759 -0.03517831
  0.01209938  0.01800372 -0.08865283 -0.05019369]
[ 0.08747692  0.00760879 -0.16190217 -0.09511478 -0.13056588  0.0750175
 -0.13099505  0.04149924 -0.04355069  0.13308604]
[-0.00367626  0.03200115 -0.08873341 -0.06377944 -0.02413771 -0.13036345
 -0.13176306 -0.04456683  0.08890697  0.0826365 ]
[ 0.07238342  0.05228093 -0.04726645  0.1364314  -0.02241889 -0.03592899
  0.07181706 -0.09605937 -0.01043903 -0.05000463]
[-0.16982082 -0.04248302 -0.02245178  0.03497395  0.10743173  0.00054968
 -0.10856488  0.03938855 -0.09376467  0.06565554]
[ 0.06193879  0.05794429 -0.18671058  0.00740768 -0.05721426 -0.01234019
 -0.03490217 -0.04619882 -0.0450553   0.14300446]
[-0.15508184 -0.00361986 -0.03221351  0.17891513 -0.04334627 -0.08057597
  0.04433036  0.14688171  0.05365925 -0.0299724 ]
[ 0.06251524 -0.00680584  0.15039997  0.07056925  0.03560632  0.03922887
  0.04118436 -0.05818919  0.12948656  0.09198134]
[ 0.13199693 -0.0468192  -0.15247048  0.01027282 -0.15826015  0.08113098
 -0.0792158  -0.028056   -0.05127231  0.04852306]
[ 0.04668586 -0.15350248  0.07889675  0.00619084 -0.13753846 -0.05376672
  0.0497466   0.16998047  0.10161441 -0.07984408]
[-0.17220996  0.06866848  0.05985654 -0.19334756 -0.06187028  0.01223843
 -0.119197   -0.1854255   0.02626236 -0.09244116]
